tree
version=v4
num_class=1
num_tree_per_iteration=1
label_index=0
max_feature_idx=8
objective=regression
feature_names=market_energy energy_slope mpo mpo_bias compression_index rsi_14 atr_ratio bb_width candle_body_ratio
feature_infos=[0.22377131300027575:97.927199902011566] [-64.652396020070512:69.86300219956243] [-93.360104883118765:92.103563199494772] [-1:1] [2.0379642418077992e-10:1] [10.699808898013925:92.535439894854647] [0.52528268603108497:2.4930669481566912] [0.00016216785388484814:0.11706566231726583] [0:0.99999999956933672]
tree_sizes=2527 2711 2693 2719 2689 2694 2712 2717 2705 2708 2703 2712 2716 2706 2716 2716 2708 2701 2706 2684 2722 2703 2704 2714 2697 2699 2696 2699 2681 2689 2679 2679 2690 2694 2688 2699 2726 2699 2694 2705 2685 2707 2665 2681 2694 2694 2680 2712 2710 2675 2710 2693 2693 2712 2721 2706 2690 2688 2678 2681 2708 2713 2699 2705 2723 2665 2704 2714 2698 2680 2692 2710 2684 2703 2721 2722 2731 2691 2717 2687 2697 2702 2703 2686 2703 2706 2698 2704 2702 2690 2706 2675 2715 2686 2695 2696 2693 2697 2732 2709

Tree=0
num_leaves=28
num_cat=0
split_feature=4 4 0 6 4 1 4 6 4 0 1 6 1 4 8 0 6 4 4 3 1 1 4 0 0 8 8
split_gain=3.15578 3.17612 2.16591 2.22976 2.17805 2.37293 2.07325 1.72599 1.67517 2.70487 2.04315 1.69504 1.69144 2.04373 1.61622 1.90013 1.5745 2.38495 2.38673 1.52505 1.4628 1.38565 2.15141 2.08276 1.33099 1.28399 1.23147
threshold=0.0060940529263753271 2.8754725267532426e-09 12.926101783491676 0.960666101954465 0.45959487033028873 -7.9782069288005211 0.63552939158566579 0.91004796459373016 0.73630893394079233 10.288387822221383 -11.493554176233571 0.92205079229127207 -3.747226935724703 0.81224249112861024 0.31449645561416911 30.480530724331146 0.85271514309827645 0.93735441687369858 0.86699251437275215 1.0000000180025095e-35 -2.617027621282308 -5.8153225492563907 0.93980820204594473 6.3149858168261588 8.7451957525641912 0.3381172349407458 0.19130275539845928
decision_type=8 10 10 2 10 10 10 2 8 8 10 2 8 10 2 10 2 10 10 2 10 10 10 10 10 2 2
left_child=1 -1 8 4 7 6 -6 -4 9 19 -11 12 13 -10 -7 16 17 18 -16 20 -2 22 25 -23 -24 -15 -13
right_child=2 -3 3 -5 5 14 -8 -9 11 10 -12 26 -14 21 15 -17 -18 -19 -20 -21 -22 23 24 -25 -26 -27 -28
leaf_value=0.66071667485019581 0.66161668546936248 0.65820142556108441 0.66003621917929822 0.66009220855025497 0.66098331125696108 0.66055079641947179 0.65748703923721508 0.65744723264418226 0.66276457718208004 0.66361180160631261 0.66016864815807652 0.66433486383044227 0.66100203576052652 0.65710819274884114 0.65851328592334768 0.65820756855605111 0.66017908195640451 0.65703335313580047 0.66298617329890974 0.6579807896585308 0.65800062209920973 0.66037975297605034 0.66328780651134744 0.6565779892011705 0.65975546974428823 0.66017604285004594 0.66142694485476317
leaf_weight=335 144 938 182 8171 106 1154 391 416 99 115 322 92 1430 122 156 431 1518 221 94 402 89 122 122 169 92 149 323
leaf_count=335 144 938 182 8171 106 1154 391 416 99 115 322 92 1430 122 156 431 1518 221 94 402 89 122 122 169 92 149 323
internal_value=0.659927 0.658863 0.660009 0.659871 0.659485 0.659668 0.658233 0.658235 0.660474 0.659732 0.661075 0.660767 0.660532 0.659764 0.659868 0.659542 0.659832 0.658712 0.660195 0.658808 0.660235 0.659382 0.660107 0.658172 0.661769 0.658795 0.662072
internal_weight=17905 1273 16632 12840 4669 4071 497 598 3792 1072 437 2720 2305 875 3574 2420 1989 471 250 635 233 776 485 291 214 271 415
internal_count=17905 1273 16632 12840 4669 4071 497 598 3792 1072 437 2720 2305 875 3574 2420 1989 471 250 635 233 776 485 291 214 271 415
is_linear=0
shrinkage=1


Tree=1
num_leaves=28
num_cat=0
split_feature=5 2 0 0 6 8 8 4 4 5 2 4 0 4 5 2 6 0 4 4 5 2 2 8 4 6 8
split_gain=5.64677 3.23631 2.27754 2.15407 2.37911 2.60357 1.97542 1.94624 3.34386 2.96232 2.44452 1.88736 2.23525 2.20726 1.62481 2.02609 1.81959 2.01713 2.81429 1.86832 1.87251 1.56949 3.33872 2.59233 1.56509 1.5397 1.52859
threshold=70.755195220573498 50.571053898972139 43.51357941913691 12.926101783491676 0.90348242208010854 0.69514161960497445 0.12031698052418434 0.0013708390520577598 2.8754725267532426e-09 36.178762135005449 22.528045743288647 0.73969663558432575 10.122969899666209 0.84188249590858089 61.429335964914621 34.553432827197994 0.960666101954465 28.425155183213391 0.14024328008258727 0.92074382363846963 32.880053036162032 -36.973244537451492 14.970242672183776 0.16195182416363982 0.08411813867224234 0.92205079229127207 0.40974272144076113
decision_type=2 8 10 8 2 2 2 10 10 2 10 10 10 10 2 10 2 10 10 10 2 10 10 2 10 2 2
left_child=1 7 6 11 5 -5 -2 8 9 -1 -10 12 -3 -13 16 -16 -9 18 -18 20 -20 23 -23 -19 -8 -15 -25
right_child=2 3 -4 4 -6 -7 24 14 10 -11 -12 13 -14 25 15 -17 17 21 19 -21 -22 22 -24 26 -26 -27 -28
leaf_value=0.0034295927666791962 -0.0055203437247818609 -0.0026242729864224489 9.4270032447886965e-05 -3.8266697018239841e-05 0.0006395251818718694 -0.0026250156547094655 -0.0043930854393588771 -0.00031863101232672866 -0.0026956321895876437 -0.0011159476568998138 0.00026633856959302056 0.0035080713954293778 0.0019813169390030926 0.00085518160056925437 -0.0026749527004573739 -0.00026612590279900204 0.0019868251130268065 0.0027485496741346859 -0.0029434677703448122 0.0032265348385569579 0.00032148084511010063 -0.001205216285841633 0.0006464175230060491 -0.001024184211469746 -0.0013503776270493329 0.0034450292729206436 0.00061151701436293533
leaf_weight=130 90 126 232 886 2371 244 104 4005 505 154 188 227 88 1083 243 585 679 213 91 103 1697 1197 798 404 414 126 922
leaf_count=130 90 126 232 886 2371 244 104 4005 505 154 188 227 88 1083 243 585 679 213 91 103 1697 1197 798 404 414 126 922
internal_value=-4.46953e-11 8.73658e-05 -0.00177488 0.000551771 0.000240476 -0.000596821 -0.00248811 -0.000113419 -0.00106165 0.000964757 -0.0018921 0.00121228 -0.000730386 0.00150179 -2.87138e-05 -0.000973064 4.86353e-05 0.000289609 0.00076229 0.000322597 0.000155312 -5.41351e-05 -0.000464563 0.000477901 -0.00196127 0.00112509 0.000113159
internal_weight=17905 17065 840 5151 3501 1130 608 11914 977 284 693 1650 214 1436 10937 828 10109 6104 2570 1891 1788 3534 1995 1539 518 1209 1326
internal_count=17905 17065 840 5151 3501 1130 608 11914 977 284 693 1650 214 1436 10937 828 10109 6104 2570 1891 1788 3534 1995 1539 518 1209 1326
is_linear=0
shrinkage=0.0221739


Tree=2
num_leaves=28
num_cat=0
split_feature=4 4 0 2 6 4 0 2 2 3 2 4 6 4 2 0 2 2 0 8 2 8 4 0 4 0 4
split_gain=2.8989 2.91502 2.00576 3.20486 2.07588 2.0872 1.93307 1.84484 1.70126 2.01532 1.68939 1.51781 1.36663 1.27145 1.20858 1.1883 1.63931 1.97459 1.30892 1.37857 1.18992 2.72688 2.4693 1.64524 1.38597 1.25332 1.16918
threshold=0.0060940529263753271 2.8754725267532426e-09 12.926101783491676 74.081742984933342 0.960666101954465 0.52009673504317566 11.753163675546265 79.443800793905112 22.528045743288647 1.0000000180025095e-35 -22.970081343231008 0.8977182864956047 1.0494397569517415 0.55189569608814815 -36.973244537451492 18.117284448815695 -48.818506298132498 -60.241546088437509 20.279632781875573 0.64955714927368169 39.47006067139619 0.63616913842063816 0.91478119670550706 14.438808441795119 0.86699251437275215 15.423599792245829 0.95130444335429809
decision_type=8 10 10 10 2 10 8 10 10 2 10 10 2 10 10 10 10 10 10 2 10 2 10 10 10 10 10
left_child=1 10 3 6 5 14 -2 -5 9 -3 -1 -8 -10 -7 -4 16 17 -15 19 -17 24 23 -23 -22 -18 -25 -27
right_child=2 8 4 7 -6 13 11 -9 12 -11 -12 -13 -14 15 -16 18 20 -19 -20 -21 21 22 -24 25 -26 26 -28
leaf_value=0.0024223377985148967 2.786007635355066e-05 -0.0017517778589864474 0.00023097758038730033 0.0028948365908016954 0.00015885181737306775 0.0022848969213946639 0.00077856287598706956 1.3255148028442681e-05 0.0013380389777530688 -0.0050705189196428753 -0.00073204630539747725 0.0035004324046775787 -0.0015522956068239324 -0.00014743857982130277 -0.001956951007863493 -0.0024757856288413031 0.00021657818169919569 -0.0040392837485916881 -0.00035163755218165247 0.0003734681851569184 -0.00067813900479411966 0.00032383442773729546 -0.0039388672392138306 0.0034151104841192814 0.0033224549323133813 0.0019672435292151422 -0.00091375856261713959
leaf_weight=158 2735 494 157 395 8171 97 373 151 135 110 177 138 199 236 593 312 136 88 1874 114 205 141 127 145 147 187 110
leaf_count=158 2735 494 157 395 8171 97 373 151 135 110 177 138 199 236 593 312 136 88 1874 114 205 141 127 145 147 187 110
internal_value=3.18883e-11 -0.00101983 7.80574e-05 0.00052614 -5.42736e-05 -0.000427254 0.000261756 0.00209792 -0.00165395 -0.00235618 0.000755693 0.00151363 -0.000384047 -0.000222159 -0.00149894 -0.000285787 0.00019485 -0.00120448 -0.000603843 -0.00171331 0.0005733 0.000184654 -0.00169618 0.00096373 0.00182988 0.00172523 0.000900206
internal_weight=17905 1273 16632 3792 12840 4669 3246 546 938 604 335 511 334 3919 750 3822 1522 324 2300 426 1198 915 268 647 283 442 297
internal_count=17905 1273 16632 3792 12840 4669 3246 546 938 604 335 511 334 3919 750 3822 1522 324 2300 426 1198 915 268 647 283 442 297
is_linear=0
shrinkage=0.0221739


Tree=3
num_leaves=28
num_cat=0
split_feature=5 7 2 7 7 7 6 2 5 5 7 7 5 7 2 7 7 7 6 1 7 5 6 6 5 5 1
split_gain=5.38804 5.42908 3.04446 3.16686 5.31953 2.29982 1.89699 1.82837 1.68566 1.66601 1.65333 1.84837 3.4155 2.03183 1.90215 1.66874 1.62902 2.72398 2.64819 2.15312 1.949 2.43541 3.66144 2.04443 1.553 1.52194 1.51853
threshold=70.755195220573498 0.005320498285539251 50.571053898972139 0.0046087103337862159 0.0019322842687723148 0.019479282263522944 1.4598499841009114 38.123657920729322 67.917582902660598 52.361767091713567 0.0012583280496145635 0.0019746699173841795 53.187005158265855 0.0024101614121790336 -36.973244537451492 0.0026004711534846989 0.0037819507409562491 0.0032392327695101963 0.93684505897931014 0.11437323706242887 0.0078515855999388585 45.577626454948621 1.1149425794289851 0.90348242208010854 46.953683250961966 40.241458983250162 15.116623364564299
decision_type=2 2 8 2 2 2 2 10 2 2 2 2 2 2 10 2 2 2 2 10 2 2 2 2 2 2 10
left_child=2 -2 5 4 9 6 10 -3 -6 -4 -1 12 -12 -13 -15 -16 17 19 -19 24 26 22 25 -23 -17 -22 -18
right_child=1 7 3 -5 8 -7 -8 -9 -10 -11 11 13 -14 14 15 16 20 18 -20 -21 21 23 -24 -25 -26 -27 -28
leaf_value=-0.0032736366224990045 -0.0052087625210648567 -0.0032123172737700163 0.00020383788839122208 0.001127636748954098 -0.00023091157583206986 0.0012976912845565471 0.0022281586078957507 -0.00025435756879447938 -0.0032147886465719398 0.0035133353187256464 4.0736413044776161e-05 -0.001396874336097205 0.0037350576392825735 0.00021514373968052855 0.0012954986375728077 0.0034137320815949891 0.00023855530824863581 -0.00010269420261145793 -0.003250696402709973 -0.0014328864805747256 -0.0040498564885552823 0.0012210233708944299 0.0022486809200605636 -0.0019669677558833221 0.00010414151223999652 -0.00011233504822141405 -0.0012449688975373038
leaf_weight=86 175 127 106 2386 2308 545 159 538 97 254 502 719 163 3763 266 91 2521 191 421 404 86 112 239 846 298 110 392
leaf_count=86 175 127 106 2386 2308 545 159 538 97 254 502 719 163 3763 266 91 2521 191 421 404 86 112 239 846 298 110 392
internal_value=5.83143e-11 -0.00173374 8.53409e-05 0.000535771 2.50328e-05 -0.000109402 -0.000176854 -0.000819261 -0.000351259 0.00253887 -0.000210966 -0.000187289 0.000946262 -0.000259362 -0.000175391 -0.000421264 -0.000501226 -0.00115684 -0.00226823 -0.00029912 -0.000287306 -0.000969497 0.000406414 -0.00159426 0.000878364 -0.00184002 3.89187e-05
internal_weight=17905 840 17065 5151 2765 11914 11369 665 2405 360 11210 11124 665 10459 9740 5977 5711 1405 612 793 4306 1393 435 958 389 196 2913
internal_count=17905 840 17065 5151 2765 11914 11369 665 2405 360 11210 11124 665 10459 9740 5977 5711 1405 612 793 4306 1393 435 958 389 196 2913
is_linear=0
shrinkage=0.0221739


Tree=4
num_leaves=28
num_cat=0
split_feature=5 2 0 0 8 5 8 1 1 1 8 0 2 2 1 8 1 5 2 5 5 0 2 1 2 1 5
split_gain=5.15174 2.91094 2.16846 1.95985 1.88513 1.68723 1.47524 2.18945 1.56279 1.5117 1.36331 1.36151 2.55287 2.37076 1.8775 1.69853 1.87368 1.9854 1.40018 1.37035 2.11031 1.79804 2.00954 1.97752 1.32205 1.8649 1.31569
threshold=70.755195220573498 50.571053898972139 43.51357941913691 12.926101783491676 0.12031698052418434 66.739580864373451 0.29906310515014695 -6.0932285907237285 -11.112881147099314 25.1593251730493 0.040382331358446821 28.425155183213391 -36.973244537451492 14.970242672183776 -25.509249489147447 0.090909089979479801 5.7964116547567732 27.802188153838237 -44.694842435838758 32.880053036162032 44.270215457215777 22.88161888540024 -24.911402531132001 -15.331835879247885 -40.939359039864975 -10.655400154493934 27.802188153838237
decision_type=2 8 10 8 2 2 2 8 10 8 2 10 10 10 10 2 8 2 10 2 2 10 10 10 10 10 2
left_child=1 11 4 5 -2 -3 7 8 -5 -8 -9 14 15 -14 -1 -13 17 -17 -19 -16 21 22 23 -21 -20 -26 -18
right_child=2 3 -4 6 -6 -7 9 10 -10 -11 -12 12 13 -15 19 16 26 18 24 20 -22 -23 -24 -25 25 -27 -28
leaf_value=0.0020832956072131554 -0.005353370186109146 0.0013252326151156324 0.00012854021330586628 0.00084614421947912374 -0.0018765779004085823 -0.0017809562703975754 5.8814122503278175e-05 -0.0011535465251665471 -0.0027936642766576139 -0.0024254258394802168 0.001784248471917854 0.0024932676766580382 -0.0013438306740251461 -0.00013765971679356842 -0.0017851363294245372 -0.0031581470085884269 0.0025359701537259428 -0.00098529621053435219 0.002573336417487982 0.0029185368773896464 -0.00017645521484825277 0.0018766790749394162 0.0023327384039615131 -0.00032744483479499288 0.002039314656469502 -0.002235236855112524 0.00036887900656316209
leaf_weight=228 90 1559 232 116 518 91 2331 87 116 127 724 151 1669 1541 197 133 165 500 134 101 4299 486 205 1069 93 109 834
leaf_count=228 90 1559 232 116 518 91 2331 87 116 127 724 151 1669 1541 197 133 165 500 134 101 4299 486 205 1069 93 109 834
internal_value=2.91572e-12 8.34485e-05 -0.0016953 0.000523891 -0.00239123 0.00115392 0.000226961 0.000925719 -0.00097376 -6.95416e-05 0.0014691 -0.000106976 -0.000370475 -0.000764793 0.000106264 0.000226864 5.2968e-05 -0.000641733 -0.000241394 3.5356e-05 9.35763e-05 0.000717362 0.000307596 -4.72362e-05 0.000865603 -0.00026725 0.000726807
internal_weight=17905 17065 840 5151 608 1650 3501 1043 232 2458 811 11914 5329 3210 6585 2119 1968 969 836 6357 6160 1861 1375 1170 336 202 999
internal_count=17905 17065 840 5151 608 1650 3501 1043 232 2458 811 11914 5329 3210 6585 2119 1968 969 836 6357 6160 1861 1375 1170 336 202 999
is_linear=0
shrinkage=0.0221739


Tree=5
num_leaves=28
num_cat=0
split_feature=5 2 0 0 6 1 5 5 5 1 2 1 5 0 1 0 0 6 2 2 6 5 1 2 1 1 5
split_gain=4.92581 2.78328 2.07766 1.8739 2.26194 1.75234 1.61324 1.54197 1.90254 1.52756 1.44406 1.42063 1.68905 1.78398 1.35341 1.53473 1.3018 2.5085 2.20064 2.18869 1.95786 2.31811 1.73063 1.44245 2.18071 1.38131 1.31066
threshold=70.755195220573498 50.571053898972139 31.934727037555387 12.926101783491676 0.90348242208010854 -1.9868482153102727 66.739580864373451 55.248128636937118 52.480579806440844 25.1593251730493 76.221478859615999 -1.861742915137812 55.383271444542245 20.279632781875573 4.2465102888181461 15.120719483166202 28.425155183213391 0.87073723174558071 -36.973244537451492 14.970242672183776 1.0020272524533198 62.373632632777273 12.062844754656895 -44.694842435838758 -3.2416238696053177 26.785142395741463 32.880053036162032
decision_type=2 8 10 8 2 8 2 2 2 10 8 10 2 8 10 10 10 2 10 10 2 2 10 10 8 10 2
left_child=1 16 14 6 5 -5 -3 8 10 11 -7 12 13 -6 15 -2 20 -18 23 -20 -1 26 -21 24 -19 -24 -22
right_child=2 3 -4 4 9 7 -8 -9 -10 -11 -12 -13 -14 -15 -16 -17 17 18 19 22 21 -23 25 -25 -26 -27 -28
leaf_value=-0.00015561839459853993 -0.004143768507150372 0.0012958470985558301 -0.00048999924344409927 -0.0022161063560947884 -0.0039261680942741795 -0.0023282424512287812 -0.0017414653690945828 -0.00083007101010575699 0.0031034732331927193 -0.0019779091890580486 0.001589945965037683 0.0012116969712538438 0.00066877896161386576 -0.00011669490675017994 -0.0051969771487957771 -0.0010682381158600375 -0.0038235168358739602 -0.0017596217419595642 -0.0012262511284624536 -0.00053775573394601389 -0.0013270583732746196 -0.0017303751034190439 0.0019768418210710887 0.0011019783215603695 0.00033295200291349244 -0.00066335632016337805 0.0010489629327628475
leaf_weight=4508 120 1559 396 254 91 92 91 556 135 107 93 1300 693 180 86 238 101 317 1638 1074 122 181 297 681 1076 145 1774
leaf_count=4508 120 1559 396 254 91 92 91 556 135 107 93 1300 693 180 86 238 101 317 1638 1074 122 181 297 681 1076 145 1774
internal_value=4.57657e-12 8.15982e-05 -0.00165771 0.000512274 0.000221929 -0.000594491 0.00112833 -0.000124297 0.00110199 0.000611028 -0.000358559 0.000733385 8.83583e-05 -0.00139589 -0.00269917 -0.00209914 -0.000104604 -0.00036226 -0.000295392 -0.000664304 0.000103908 0.000667194 -5.71334e-05 0.000265624 -0.000143247 0.00111071 0.000896075
internal_weight=17905 17065 840 5151 3501 1130 1650 876 320 2371 185 2264 964 271 444 358 11914 5329 5228 3154 6585 2077 1516 2074 1393 442 1896
internal_count=17905 17065 840 5151 3501 1130 1650 876 320 2371 185 2264 964 271 444 358 11914 5329 5228 3154 6585 2077 1516 2074 1393 442 1896
is_linear=0
shrinkage=0.0221739


Tree=6
num_leaves=28
num_cat=0
split_feature=5 7 7 5 4 7 4 0 6 4 5 4 7 7 5 4 4 7 5 4 1 7 4 5 6 7 0
split_gain=4.70978 5.15895 2.49911 6.4342 5.47828 4.26932 3.14041 2.93047 2.98309 2.35186 3.26277 2.25458 3.84427 2.15868 2.08142 1.95748 3.01107 2.66089 2.18643 1.93624 1.77458 1.76737 2.2984 1.70356 3.32693 1.75139 1.65906
threshold=70.755195220573498 0.005320498285539251 0.0019746699173841795 52.361767091713567 0.51402712105277582 0.0037819507409562491 0.95770077587330105 17.224266830238047 0.96430505280778811 0.73183186758805863 48.657956715798527 0.64450162867434124 0.0063160316307966811 0.0055440694080109701 41.855934337785733 0.014492090409781834 2.8754725267532426e-09 0.0044673615178411645 36.178762135005449 0.95517998789819714 -1.9868482153102727 0.0046087103337862159 0.88221784777660273 48.542334005695245 0.90348242208010854 0.0089040090988316504 5.0949360903281606
decision_type=2 2 2 2 10 2 10 8 2 10 2 10 2 2 2 8 10 2 2 10 10 2 10 2 2 2 8
left_child=2 -2 3 4 -1 26 -6 9 20 11 13 23 -13 -11 -15 16 18 -18 -10 -16 -9 22 -12 -7 -25 -26 -4
right_child=1 -3 5 -5 6 7 -8 8 15 10 21 12 -14 14 19 -17 17 -19 -20 -21 -22 -23 -24 24 25 -27 -28
leaf_value=-0.0038286499075769606 -0.0050084136427575223 -0.00072950926698845265 -0.0022513197080525522 0.003056608012591674 0.0018761841123570695 0.0017187504031179143 -0.0021560653715005582 -0.0019533355775230251 0.0034015658557778328 0.0013202596779614095 0.0030259275658711788 -0.0043533875167613926 0.0010377142887657512 0.00088769682070276453 -0.00087609749202271266 0.00042681561291239178 0.0019735358848559752 -0.0022592044212182533 -0.00093284319667090367 -0.0050735316797834674 -0.00036804741673591632 0.0022366463909720643 -0.00078405136269120543 0.0029444673434668171 -0.00016288020887576991 -0.0030605812292350608 -0.00043516871386043609
leaf_weight=165 175 665 261 474 368 360 128 463 123 315 115 138 123 147 140 4885 86 484 107 88 1388 1139 241 130 334 148 4715
leaf_count=165 175 665 261 474 368 360 128 463 123 315 115 138 123 147 140 4885 86 484 107 88 1388 1139 241 130 334 148 4715
internal_value=-2.4027e-11 -0.00162095 7.97888e-05 0.00108508 -0.000328696 8.16267e-06 0.000835604 0.000252825 8.57187e-06 0.000791354 0.00122829 1.70594e-05 -0.00181275 -3.29728e-05 -0.00116969 0.000260306 -0.000756441 -0.00162058 0.00138512 -0.00249616 -0.000764584 0.00181041 0.0004467 0.000508398 -0.000203574 -0.00105263 -0.000530429
internal_weight=17905 840 17065 1135 661 15930 496 10954 7536 3418 2185 1233 261 690 375 5685 800 570 230 228 1851 1495 356 972 612 482 4976
internal_count=17905 840 17065 1135 661 15930 496 10954 7536 3418 2185 1233 261 690 375 5685 800 570 230 228 1851 1495 356 972 612 482 4976
is_linear=0
shrinkage=0.0221739


Tree=7
num_leaves=28
num_cat=0
split_feature=5 7 2 7 7 7 6 2 5 7 7 5 8 8 7 2 8 7 5 5 7 7 6 7 5 6 6
split_gain=4.50323 4.95827 2.59315 2.94185 4.84909 2.15095 1.809 1.67876 1.58443 1.5688 1.73279 3.13612 2.35041 1.92723 1.90007 1.72945 2.66144 1.61425 1.53877 1.51837 1.50234 2.61306 2.53642 1.84675 2.30431 3.52178 1.92048
threshold=70.755195220573498 0.0042155241191493527 50.571053898972139 0.0046087103337862159 0.0019322842687723148 0.019479282263522944 1.4598499841009114 38.123657920729322 67.917582902660598 0.0012583280496145635 0.0019746699173841795 53.187005158265855 0.71786720819656769 0.55072463635083191 0.0024101614121790336 -36.973244537451492 0.058823529262860573 0.0026004711534846989 51.645592993164271 35.558332279026509 0.0037819507409562491 0.0032392327695101963 0.93684505897931014 0.0078515855999388585 45.577626454948621 1.1149425794289851 0.90348242208010854
decision_type=2 2 8 2 2 2 2 10 2 2 2 2 2 2 2 10 2 2 2 2 2 2 2 2 2 2 2
left_child=2 -2 5 4 18 6 9 -3 -6 -1 11 12 13 -11 -12 16 -16 -17 -4 -7 21 -19 -23 -22 25 -25 -26
right_child=1 7 3 -5 8 19 -8 -9 -10 10 14 -13 -14 -15 15 17 -18 20 -20 -21 23 22 -24 24 26 -27 -28
leaf_value=-0.0031836050159156294 -0.0064725163691856571 -0.0032099583962822225 -0.00016645275440203651 0.0010641769631594472 -0.00024112364147093316 -3.6038149570454156e-05 0.0021816340627778619 -0.00049451112180416625 -0.0031340218240276697 9.5527163193218415e-05 -0.0013469835423939364 0.0035926502759917032 0.0030389243922396875 -0.0036366162996141769 0.0025505683287141982 0.0012882837614828038 5.8252818830165677e-05 -0.00026839443957673908 0.0032199574690418681 0.0023167630410362355 4.4123783710773359e-05 -7.7652345236628274e-05 -0.0031585054569753025 -0.0018022932639601339 0.0011834069896270582 0.0022076736554142535 -0.0019064312849871225
leaf_weight=86 91 137 87 2386 2308 245 159 612 97 312 719 163 103 87 224 266 3539 793 273 300 2913 191 421 196 112 239 846
leaf_count=86 91 137 87 2386 2308 245 159 612 97 312 719 163 103 87 224 266 3539 793 273 300 2913 191 421 196 112 239 846
internal_value=2.8419e-12 -0.001585 7.80196e-05 0.000493725 1.46601e-06 -0.00010171 -0.000166943 -0.000991195 -0.000357802 -0.000200255 -0.00017719 0.000920346 5.26456e-05 -0.000718248 -0.000246973 -0.000165771 0.000206613 -0.000400217 0.00240157 0.00125908 -0.000478862 -0.00110847 -0.002197 -0.000273428 -0.000937484 0.000400884 -0.0015452
internal_weight=17905 840 17065 5151 2765 11914 11369 749 2405 11210 11124 665 502 399 10459 9740 3763 5977 360 545 5711 1405 612 4306 1393 435 958
internal_count=17905 840 17065 5151 2765 11914 11369 749 2405 11210 11124 665 502 399 10459 9740 3763 5977 360 545 5711 1405 612 4306 1393 435 958
is_linear=0
shrinkage=0.0221739


Tree=8
num_leaves=28
num_cat=0
split_feature=5 2 2 2 1 1 4 4 5 2 3 4 4 5 2 5 8 1 1 2 1 4 8 2 2 4 5
split_gain=4.30573 2.47943 1.86636 1.77048 2.13279 1.7284 1.72837 2.90209 2.57031 2.26115 1.76054 1.79065 2.48929 1.44828 1.91599 1.44481 2.09831 1.58496 1.37078 1.39645 1.54267 1.60363 1.38452 2.23252 1.64716 1.63811 2.34164
threshold=70.755195220573498 50.571053898972139 38.123657920729322 49.521072147999156 7.4966941781019543 6.2730963784809548 0.0013708390520577598 2.8754725267532426e-09 36.178762135005449 22.528045743288647 1.0000000180025095e-35 6.526767570846915e-09 4.5448480534560084e-09 61.429335964914621 34.553432827197994 57.513000225285346 0.56644457456753938 -1.5763786403934199 -31.735668380102364 38.123657920729322 -5.5909866990941479 0.52507795089167086 0.090909089979479801 -36.973244537451492 -45.786144501286032 0.10626710225518544 42.47110116256281
decision_type=2 8 10 10 10 10 10 10 2 10 2 10 10 2 10 2 2 10 10 10 10 10 2 10 10 10 2
left_child=1 6 -2 4 -4 -5 7 8 -1 10 11 12 -9 15 -15 18 -17 -18 -8 22 -21 -22 23 24 -20 26 -24
right_child=2 -3 3 5 -6 -7 13 9 -10 -11 -12 -13 -14 14 -16 16 17 -19 19 20 21 -23 25 -25 -26 -27 -28
leaf_value=0.0031907353257858975 -0.003791568785541937 0.00048277761077347486 -0.0010881961211131979 -0.00086656962698949968 0.0030861500058141215 -0.0037984200038923299 0.0017869167832783703 -0.0026081813212641978 -0.0010433751952691711 0.0003092220515248676 -0.0053320320779583824 -0.0038910462264629617 0.0017542181283261703 -0.0025662085637638454 -0.00022374516126574926 0.0020191984861686247 -0.002165460548821056 0.001079326907520408 0.0012811869552254579 0.00039983195659542593 -0.0034003250526305059 -0.00059747531629098123 0.0016923787078528029 -0.00036923765911773155 0.0046738459089211504 -0.00021400224982701796 -0.00025960502399435245
leaf_weight=130 150 5151 174 267 92 157 202 159 154 188 91 147 108 243 585 421 137 161 336 226 186 218 579 367 89 6555 632
leaf_count=130 150 5151 174 267 92 157 202 159 154 188 91 147 108 243 585 421 137 161 336 226 186 218 579 367 89 6555 632
internal_value=1.95611e-12 7.62896e-05 -0.00154986 -0.00106253 0.000355563 -0.00195218 -9.94549e-05 -0.000993034 0.000894774 -0.00176668 -0.00253949 -0.00192567 -0.000843615 -1.96316e-05 -0.000911207 5.33948e-05 0.00101139 -0.000412404 -1.99593e-05 -5.96838e-05 -0.00106722 -0.0018879 1.44862e-05 0.000897653 0.00199165 -7.55817e-05 0.000673672
internal_weight=17905 17065 840 690 266 424 11914 977 284 693 505 414 267 10937 828 10109 719 298 9390 9188 630 404 8558 792 425 7766 1211
internal_count=17905 17065 840 690 266 424 11914 977 284 693 505 414 267 10937 828 10109 719 298 9390 9188 630 404 8558 792 425 7766 1211
is_linear=0
shrinkage=0.0221739


Tree=9
num_leaves=28
num_cat=0
split_feature=7 7 7 0 2 2 8 8 0 2 1 2 8 7 8 2 7 8 7 7 1 2 1 7 0 7 7
split_gain=2.69109 2.89373 2.99457 2.47323 2.4361 2.42819 2.29727 2.12265 1.87557 1.78516 2.89599 2.06166 1.41056 1.70328 1.31338 1.25997 2.59794 1.82524 1.58606 1.41227 1.74405 1.67122 1.42012 2.9602 1.44555 1.88496 1.70906
threshold=0.019479282263522944 0.0019746699173841795 0.0037819507409562491 8.426389735925726 74.081742984933342 29.708914074051354 0.73516020713818475 0.19875746391768132 14.438808441795119 -50.867929325077036 6.1220849341402728 47.529143199151868 0.59659477322299315 0.001809628161456981 0.10285089049686273 47.529143199151868 0.015205593560477905 0.036999011257650968 0.0060783929226461498 0.0046087103337862159 4.10003048914625 11.633891873191573 10.452676291239792 0.0051105902885256555 40.164555646645127 0.012319243124339326 0.0093083696306344842
decision_type=2 2 2 8 10 10 2 2 10 10 10 10 2 2 2 10 2 2 2 2 8 8 8 2 10 2 2
left_child=1 5 7 4 -4 6 12 14 -2 -10 11 -11 13 -1 -3 19 17 -17 -19 20 -5 -22 24 -24 26 -26 -21
right_child=8 2 3 15 -6 -7 -8 -9 9 10 -12 -13 -14 -15 -16 16 -18 18 -20 22 21 -23 23 -25 25 -27 -28
leaf_value=-0.00071880397525535104 0.0039211767661842542 -0.00045831612445219053 0.00080225177914444571 0.0011344375673347305 0.0046335268495597314 0.0022072303412123675 0.0028502590672252579 -0.00081014653840262476 -0.0021105685035775483 0.001204651615751064 0.0043269734249335385 -0.0025814933665840867 -0.0028460316507026885 0.0026044606549196041 0.0011372331676361971 -0.0028983369946929531 0.0040529244895422889 -0.00017635946850207628 0.0008466467566584779 5.8956468988778925e-06 0.00018519365483611502 -0.0028490829673844652 -0.0027081522585156782 0.00082810317244156261 -0.0017553116275906802 0.00087097826621240933 -0.0010273968962424087
leaf_weight=324 113 517 790 769 91 487 124 4026 88 360 121 88 102 99 498 89 90 1523 1459 2537 357 119 133 932 765 163 1141
leaf_count=324 113 517 790 769 91 487 124 4026 88 360 121 88 102 99 498 89 90 1523 1459 2537 357 119 133 932 765 163 1141
internal_value=7.1232e-12 -5.76265e-05 -0.000134411 7.1347e-05 0.00119799 0.00102377 0.000135726 -0.000581682 0.00128238 0.000828519 0.00128307 0.000460945 -0.000505421 5.89814e-05 0.000324525 -2.71519e-05 0.000339599 0.000230775 0.000324166 -0.000194778 0.000481491 -0.000573376 -0.000343244 0.000386486 -0.000511973 -0.00129401 -0.000314655
internal_weight=17905 17135 15999 10958 881 1136 649 5041 770 657 569 448 525 423 1015 10077 3161 3071 2982 6916 1245 476 5671 1065 4606 928 3678
internal_count=17905 17135 15999 10958 881 1136 649 5041 770 657 569 448 525 423 1015 10077 3161 3071 2982 6916 1245 476 5671 1065 4606 928 3678
is_linear=0
shrinkage=0.0221739


Tree=10
num_leaves=28
num_cat=0
split_feature=7 4 7 4 7 0 4 1 0 0 7 2 7 0 4 7 1 2 2 1 2 1 1 0 4 7 7
split_gain=2.57307 2.85472 4.73977 3.62265 2.86029 1.79331 3.18571 2.43391 1.74072 2.62337 2.00028 1.47739 2.34592 2.13593 3.19545 3.99334 3.02202 2.07028 1.687 1.49267 1.69666 1.47896 1.4713 1.46554 1.44048 1.40817 2.08321
threshold=0.019479282263522944 0.52009673504317566 0.0019746699173841795 0.95517998789819714 0.002329834649019898 14.438808441795119 0.45959487033028873 -1.861742915137812 9.6441211440921233 10.727138734068463 0.0037573744920221118 -36.973244537451492 0.0026232588478468282 28.029756691144168 0.15100778751826358 0.0088260479872470116 -7.6678042527029175 -12.361166479722675 17.080819692044624 -7.0330330488909434 39.47006067139619 -15.004538485888455 12.062844754656895 14.438808441795119 0.12923599396081278 0.0037819507409562491 0.0076476943385623483
decision_type=2 8 2 10 2 10 10 10 8 10 2 10 2 10 10 2 10 10 10 10 10 10 10 10 10 2 2
left_child=1 8 3 22 23 -2 -7 -8 10 -10 -1 12 -11 14 17 19 -17 -13 -15 20 21 -16 -3 -4 -12 -20 -27
right_child=5 2 4 -5 -6 6 7 -9 9 11 24 13 -14 18 15 16 -18 -19 25 -21 -22 -23 -24 -25 -26 26 -28
leaf_value=-0.0042474860253968287 0.0038342289445676952 0.003151887323391396 -0.00014088499231394662 -0.00054361772660987018 0.00014378063278739405 0.0018610714417895576 -0.0043153236416211401 0.00055543923742273535 0.003339145501694164 -0.0025666839389030323 -0.0026116401221628035 0.0022818491452288839 0.00049138419562663987 -0.0014975647530611027 -0.002117562794459221 -0.00034347743097192792 -0.0056467784441422758 0.00015126175839061301 -0.0014379326803348159 -0.0010372882699209 0.0026702227802670227 0.0013872597964125547 0.00018676636289045856 -0.002370293222080756 0.0013578211651829987 0.00058182493411341031 -0.0011955001682395932
leaf_weight=121 113 513 248 239 8477 449 86 122 95 135 87 357 1428 1353 115 89 130 603 536 419 155 122 98 349 93 848 525
leaf_count=121 113 513 248 239 8477 449 86 122 95 135 87 357 1428 1353 115 89 130 603 536 419 155 122 98 349 93 848 525
internal_value=-4.90874e-12 -5.63487e-05 0.000187621 0.00177094 3.93053e-05 0.00125394 0.000810147 -0.00145843 -0.000392108 -0.000320204 -0.00204279 -0.000371214 0.000227252 -0.000549318 2.31995e-05 -0.000834625 -0.00349156 0.000943574 -0.000898586 -0.000117156 0.000866353 -0.000313393 0.0026763 -0.00144417 -0.000560752 -0.000474061 -9.77786e-05
internal_weight=17905 17135 9924 850 9074 770 657 208 7211 6910 301 6815 1563 5252 1990 1030 219 960 3262 811 392 237 611 597 180 1909 1373
internal_count=17905 17135 9924 850 9074 770 657 208 7211 6910 301 6815 1563 5252 1990 1030 219 960 3262 811 392 237 611 597 180 1909 1373
is_linear=0
shrinkage=0.0221739


Tree=11
num_leaves=28
num_cat=0
split_feature=5 2 0 0 4 4 0 4 4 5 2 3 4 4 8 5 2 5 8 4 2 2 5 4 5 8 4
split_gain=4.12384 2.25725 1.96726 1.64818 1.71048 2.14744 2.14162 1.63649 2.70867 2.41483 2.15978 1.66155 1.70433 2.37989 1.41119 1.36874 1.81566 1.39329 1.99842 1.53765 1.31593 2.0714 1.27226 3.06969 4.40569 2.85052 2.58861
threshold=70.755195220573498 50.571053898972139 31.934727037555387 12.926101783491676 0.73969663558432575 0.84188249590858089 10.122969899666209 0.0013708390520577598 2.8754725267532426e-09 36.178762135005449 22.528045743288647 1.0000000180025095e-35 6.526767570846915e-09 4.5448480534560084e-09 0.29906310515014695 61.429335964914621 34.553432827197994 57.513000225285346 0.56644457456753938 0.20450199580047415 74.081742984933342 80.413892523807263 43.98348852513363 0.12462595595930855 30.971721361768811 0.08641020933588385 0.52009673504317566
decision_type=2 8 10 8 10 10 10 10 10 2 10 2 10 10 2 2 10 2 2 10 10 10 2 10 2 2 10
left_child=1 7 -2 4 6 -6 -3 8 9 -1 11 12 13 -10 -5 17 -17 22 -19 -20 -7 -22 23 24 -9 -25 -24
right_child=2 3 -4 14 5 20 -8 15 10 -11 -12 -13 -14 -15 -16 16 -18 18 19 -21 21 -23 26 25 -26 -27 -28
leaf_value=0.0030867198183125075 -0.0025301881056015276 -0.0026629199159926308 -0.00038051080434530187 0.00087363156946388201 0.0032947917783177514 0.00031945172576621037 0.0018451861978226055 -0.001204409744298142 -0.0025386308597963548 -0.0010173293808432386 0.00031888591893452611 -0.0051781387598287655 -0.0037863439917630226 0.0017268319321631636 -9.9784220654778742e-05 -0.0024931861478302759 -0.00021287981367797953 0.0019799303826851101 -0.002685936224144635 0.00071340958037821632 0.002511675034714739 -0.0010083315083988015 -0.0008001144024569536 0.0021377743100301229 0.0023360636566781006 -0.00025472060281840972 0.0001822290322775825
leaf_weight=130 444 126 396 1043 227 699 88 233 159 154 188 91 147 108 2458 243 585 421 97 201 407 103 2309 268 669 2835 3076
leaf_count=130 444 126 396 1043 227 699 88 233 159 154 188 91 147 108 2458 243 585 421 97 201 407 103 2309 268 669 2835 3076
internal_value=-1.36559e-12 7.46608e-05 -0.00151677 0.000462509 0.00104028 0.00131588 -0.000809119 -9.30249e-05 -0.00096253 0.000861285 -0.00170995 -0.00246524 -0.00186893 -0.000813275 0.000190211 -1.53522e-05 -0.0008821 5.56407e-05 0.000996398 -0.000393089 0.000944326 0.00180077 -1.63938e-05 0.000282894 0.00142151 -4.80855e-05 -0.000238984
internal_weight=17905 17065 840 5151 1650 1436 214 11914 977 284 693 505 414 267 3501 10937 828 10109 719 298 1209 510 9390 4005 902 3103 5385
internal_count=17905 17065 840 5151 1650 1436 214 11914 977 284 693 505 414 267 3501 10937 828 10109 719 298 1209 510 9390 4005 902 3103 5385
is_linear=0
shrinkage=0.0221739


Tree=12
num_leaves=28
num_cat=0
split_feature=5 7 0 6 7 6 4 7 7 4 6 7 4 4 4 7 7 5 7 0 7 5 5 7 7 7 0
split_gain=3.94298 4.70549 2.15615 3.04396 2.63253 2.07809 2.92507 2.72039 3.39771 2.02587 2.02517 2.01418 2.93861 2.80654 1.98455 3.75576 2.39838 1.96306 2.27667 1.66992 2.97772 2.95909 2.45232 4.89155 3.22483 4.1926 1.80843
threshold=70.755195220573498 0.005320498285539251 28.425155183213391 0.87182585498065246 0.012319243124339326 1.0020272524533198 0.041630093588806712 0.0032392327695101963 0.0036554710805885605 0.38177432332839295 0.84729567994308164 0.010033416016904264 0.1460140526974488 0.088740467679125537 0.11991282357772527 0.0088260479872470116 0.010181567810209633 59.737603001971827 0.0097437835753808478 13.32687368822995 0.016750556726176955 66.739580864373451 54.470344149126596 0.009231706956510535 0.0046708260454953092 0.0023035575482443461 11.912300032410597
decision_type=2 2 10 2 2 2 8 2 2 10 2 2 10 10 8 2 2 2 2 10 2 2 2 2 2 2 8
left_child=2 -2 5 10 11 6 -1 -7 -9 -6 -4 12 -5 -13 17 -16 -17 18 -10 20 21 22 23 26 25 -24 -8
right_child=1 -3 3 4 9 7 19 8 14 -11 -12 13 -14 -15 15 16 -18 -19 -20 -21 -22 -23 24 -25 -26 -27 -28
leaf_value=-0.0025574661556550119 -0.0047183041493285022 -0.00063177612971730484 -0.00076285168026358271 -0.0009867541124891732 0.0017143862330777769 0.0025728295997631124 1.1969363463777366e-05 -0.0032719276331751837 0.0013227339202747687 -0.00084262420826835931 -0.0053785601063902127 0.0011152865034376193 0.00013628337351834601 -0.0035117003401566047 0.0011541224325589058 -0.0041215177510636122 -0.00043801100190433561 -0.0010039005643509306 0.0045210221396468119 -0.00012693334587300187 0.0044134150733910037 -0.0033452724222068526 0.0031714624676586335 -0.0043434149166108067 0.0024784409671130755 -0.00064546385568354982 0.0018738433180532374
leaf_weight=199 175 665 95 1704 577 375 1613 110 333 207 92 93 3496 210 859 112 388 102 163 4365 94 100 188 118 595 572 305
leaf_count=199 175 665 95 1704 577 375 1613 110 333 207 92 93 3496 210 859 112 388 102 163 4365 94 100 188 118 595 572 305
internal_value=-1.84539e-13 -0.00148314 7.30052e-05 -0.000245789 -0.000162866 0.000267876 9.78454e-05 0.000835271 0.000520039 0.00103926 -0.00303368 -0.00033413 -0.000231727 -0.00209154 0.000733179 0.000264778 -0.00126312 0.00179766 0.00237378 0.000164312 0.000518924 0.000414059 0.000524921 3.84606e-05 0.00125587 0.000298723 0.000308044
internal_weight=17905 840 17065 6474 6287 10591 8149 2442 2067 784 187 5503 5200 303 1957 1359 500 598 496 7950 3585 3491 3391 2036 1355 760 1918
internal_count=17905 840 17065 6474 6287 10591 8149 2442 2067 784 187 5503 5200 303 1957 1359 500 598 496 7950 3585 3491 3391 2036 1355 760 1918
is_linear=0
shrinkage=0.0221739


Tree=13
num_leaves=28
num_cat=0
split_feature=5 7 2 7 7 0 4 7 6 4 4 5 7 2 0 4 5 5 2 7 4 6 0 5 0 2 5
split_gain=3.77006 4.52358 2.12321 2.68234 4.2639 3.45195 2.31144 1.73211 1.66524 2.09525 1.77407 2.58674 1.64114 1.52219 1.6951 1.52189 1.49687 1.49666 1.46778 1.4114 1.99171 1.34826 1.84429 1.34154 3.53225 2.49811 2.12305
threshold=70.755195220573498 0.0042155241191493527 50.571053898972139 0.0046087103337862159 0.0019322842687723148 23.032693890551993 0.96484498625302983 0.019479282263522944 1.4598499841009114 0.0013708390520577598 6.526767570846915e-09 55.248128636937118 0.0051849337637018536 38.123657920729322 30.707200259520992 0.95770077587330105 67.917582902660598 35.558332279026509 72.266909515322126 0.0089886839519264013 4.5448480534560084e-09 0.90348242208010854 17.518965537382666 30.31741862288531 44.775099829770845 -51.691578078400987 39.63978873985166
decision_type=2 2 8 2 2 10 10 2 2 10 10 2 2 10 10 10 2 2 10 2 10 2 10 2 10 10 2
left_child=2 -2 7 4 15 12 -7 8 9 10 19 -12 18 -3 -15 -4 -6 -9 -5 20 -1 22 -14 24 25 -11 -25
right_child=1 13 3 5 16 6 -8 17 -10 23 11 -13 21 14 -16 -17 -18 -19 -20 -21 -22 -23 -24 26 -26 -27 -28
leaf_value=-0.0020511572523295276 -0.0061186031144090216 -0.0029958283952929571 0.0031408399765952585 0.0019046943923783791 -0.00024598910237540487 0.00027503262964454145 -0.0033030785196428783 -0.00015593491751045096 0.0021035426629174006 -0.0010423685900229306 -0.0042381818930670558 0.00023018827351182136 0.001175431922766833 -0.0016119378054641439 0.00072303997625745387 -4.9226543342008266e-05 -0.003057809544218072 0.0021799869322938962 0.0055781758568694152 0.0015477437555880872 0.00099166761616196249 0.0021116361958389116 -0.001816187090590308 0.00067767822970521234 0.0013783248312916028 -0.0062048822036664649 -0.00019184506376841327
leaf_weight=333 91 137 257 134 2308 733 101 245 159 98 182 98 623 297 315 103 97 300 89 126 155 585 121 1654 123 87 8354
leaf_count=333 91 137 257 134 2308 733 101 245 159 98 182 98 623 297 315 103 97 300 89 126 155 585 121 1654 123 87 8354
internal_value=-7.75064e-12 -0.00145025 7.13864e-05 0.000447543 -2.25045e-05 0.000992254 -0.000158288 -9.12442e-05 -0.000149782 -0.000181743 -0.00121152 -0.00267425 0.00161052 -0.000883066 -0.000410111 0.00222813 -0.000359397 0.00112989 0.00337079 -0.000544481 -0.00108469 0.00131516 0.000688892 -9.25007e-05 -0.00153391 -0.00347015 -4.81409e-05
internal_weight=17905 840 17065 5151 2765 2386 834 11914 11369 11210 894 280 1552 749 612 360 2405 545 223 614 488 1329 744 10316 308 185 10008
internal_count=17905 840 17065 5151 2765 2386 834 11914 11369 11210 894 280 1552 749 612 360 2405 545 223 614 488 1329 744 10316 308 185 10008
is_linear=0
shrinkage=0.0221739


Tree=14
num_leaves=28
num_cat=0
split_feature=4 4 2 3 0 6 2 6 0 4 4 6 4 2 6 0 4 2 2 6 2 2 6 6 4 2 2
split_gain=2.18379 2.2832 1.49096 1.69298 1.40455 2.87308 2.24019 1.68736 2.62766 1.44252 1.44182 1.32505 1.79619 3.28244 1.37618 1.33427 2.36297 1.31102 1.28753 1.26195 1.21868 1.21809 1.1473 1.13022 2.16542 2.02184 1.57485
threshold=0.0060940529263753271 2.8754725267532426e-09 22.528045743288647 1.0000000180025095e-35 17.224266830238047 0.960666101954465 71.132659203363687 0.92615643134680903 8.0504634450937065 0.91478119670550706 0.45959487033028873 1.0570028803642757 0.73630893394079233 57.67683239424418 0.86063391768135689 4.472227115049848 0.95130444335429809 -75.606705506026302 -22.970081343231008 1.0494397569517415 -28.141178984752745 75.891061438513574 0.92475056651882237 1.0473187072085695 0.84188249590858089 -51.691578078400987 -51.691578078400987
decision_type=8 10 10 2 10 2 10 2 10 10 10 2 8 10 2 8 10 10 10 2 10 10 2 2 10 10 10
left_child=1 18 3 -3 6 10 11 8 -8 -10 22 12 13 14 -2 16 -14 -7 -1 -4 -13 -11 -6 26 25 -25 -19
right_child=4 2 19 -5 5 17 7 -9 9 21 -12 20 15 -15 -16 -17 -18 23 -20 -21 -22 -23 -24 24 -26 -27 -28
leaf_value=0.002141193334265123 0.0017504238008796307 -0.0015497917254917301 0.0013972835664907584 -0.0045915624186097272 -0.00053452503616970178 -0.0024209744641171625 0.0027583806768187746 0.0031807681337584857 0.0017523501156931104 -0.0019818419554332679 -0.00044253203585387774 -0.00081772650259655125 0.00062411790613619742 -0.0032198946643243946 -0.00043059016651653381 0.0005395521153088856 -0.0032550731225741685 0.0017028408595202173 -0.00061257610133462687 -0.0013801427826026112 0.0022377393974284906 0.00028958783950374013 -0.0027169029987716541 -0.0015506493301970308 0.002996401769576005 4.5947373170268814e-05 0.00030078556837818981
leaf_weight=158 160 494 135 110 211 96 262 180 206 170 2719 86 186 200 1282 2479 132 470 177 199 253 366 270 433 113 3925 2433
leaf_count=158 160 494 135 110 211 96 262 180 206 170 2719 86 186 200 1282 2479 132 470 177 199 253 366 270 433 113 3925 2433
internal_value=-6.93866e-12 -0.000885154 -0.00144636 -0.00210376 6.7749e-05 -8.45693e-05 0.000340348 0.0012038 0.000849358 0.000175283 -0.000640498 0.000126384 2.43384e-05 -0.000557812 -0.000188591 0.000366094 -0.000986112 0.000153579 0.000686217 -0.00025753 0.00146261 -0.000430828 -0.00175956 0.000187097 -3.41074e-05 -0.000112686 0.00052778
internal_weight=17905 1273 938 604 16632 10670 5962 1184 1004 742 3200 4778 4439 1642 1442 2797 318 7470 335 334 339 536 481 7374 4471 4358 2903
internal_count=17905 1273 938 604 16632 10670 5962 1184 1004 742 3200 4778 4439 1642 1442 2797 318 7470 335 334 339 536 481 7374 4471 4358 2903
is_linear=0
shrinkage=0.0221739


Tree=15
num_leaves=28
num_cat=0
split_feature=7 7 4 2 7 4 1 4 4 7 0 4 1 7 2 4 7 0 2 2 7 6 6 1 1 4 2
split_gain=2.28473 2.52761 4.12648 3.1556 3.04691 2.86044 1.91934 1.72433 1.99079 2.54393 1.64351 2.98188 2.3342 1.35493 1.32237 1.31133 1.15192 2.41845 1.99531 1.85487 2.94583 3.09323 2.90684 2.21035 1.64137 1.41549 1.53818
threshold=0.019479282263522944 0.0020080514996451983 0.50767646656827392 26.765706152501846 0.0024101614121790336 0.95517998789819714 -7.3956891997600218 0.0060940529263753271 2.8754725267532426e-09 0.0089886839519264013 14.438808441795119 0.45959487033028873 -1.861742915137812 0.0021973555427759685 71.883134923987129 0.080200149592378381 0.0037819507409562491 8.426389735925726 74.081742984933342 -63.216287005093022 0.0032392327695101963 0.82207034857236738 1.1258883404658537 0.21273257455506925 -1.296867801795101 0.92074382363846963 58.192512275889804
decision_type=2 2 8 10 2 10 10 8 10 2 10 10 10 2 10 10 2 8 10 10 2 2 2 10 10 10 10
left_child=1 2 3 -1 6 -4 13 8 9 -6 -2 15 -13 -3 -8 -12 19 18 -18 -9 21 -21 24 -23 -22 26 -26
right_child=10 4 5 -5 7 -7 14 16 -10 -11 11 12 -14 -15 -16 -17 17 -19 -20 20 22 23 -24 -25 25 -27 -28
leaf_value=-0.0028393209368231371 0.003651766816873818 0.0027032504124599168 0.0024331546206282991 0.0021499243646445343 -0.0012179289826444928 -0.00034847660098731044 -0.0022246087677109485 0.0011089692470612777 -0.0014227114822334477 0.0030223116905796674 0.00023833308707083619 -0.0042358181367828851 0.00053412682154581705 -0.00091282065128142382 0.00023957782721485029 0.0027088908785523856 0.00090175285402344194 3.8614631158913816e-05 0.0043752184583153225 -0.0030322321698353504 -0.0017814284654000519 0.00099447174875925406 -0.0043006396059118218 -0.00052654542103723384 0.00021151446057938355 0.0018301587610113296 -0.0025283481018963006
leaf_weight=208 113 86 659 89 151 251 655 403 842 129 170 86 122 125 128 279 764 9211 91 149 576 1009 142 879 295 140 153
leaf_count=208 113 86 659 89 151 251 655 403 842 129 170 86 122 125 128 279 764 9211 91 149 576 1009 142 879 295 140 153
internal_value=-6.45886e-12 -5.30978e-05 0.000925224 -0.00134423 -0.000127234 0.00166591 -0.00131597 -4.81117e-05 -0.000884093 0.00073561 0.0011816 0.000756743 -0.00143806 0.000561028 -0.00182178 0.00177349 1.97982e-05 0.00014333 0.00127144 -0.000312149 -0.000483466 4.35866e-05 -0.00130552 0.000286329 -0.000940138 -0.000116017 -0.000724198
internal_weight=17905 17135 1207 297 15928 910 994 14934 1122 280 770 657 208 211 783 449 13812 10066 855 3746 3343 2037 1306 1888 1164 588 448
internal_count=17905 17135 1207 297 15928 910 994 14934 1122 280 770 657 208 211 783 449 13812 10066 855 3746 3343 2037 1306 1888 1164 588 448
is_linear=0
shrinkage=0.0221739


Tree=16
num_leaves=28
num_cat=0
split_feature=7 7 7 2 1 6 7 2 6 2 2 1 6 1 2 7 8 8 2 7 1 2 6 7 1 8 7
split_gain=2.18453 2.41675 2.91328 1.9979 1.83516 1.68969 1.2955 1.26437 1.22855 2.16908 2.86854 2.4521 2.03829 2.82128 2.9469 2.02347 1.59746 1.4955 1.45612 1.43227 1.41156 1.35919 1.82117 1.74924 1.58406 1.7982 1.58394
threshold=0.019479282263522944 0.0020080514996451983 0.0024101614121790336 27.653481413104867 -7.3956891997600218 1.0227476295724622 0.0021973555427759685 71.883134923987129 1.1209462612371133 -13.518344337311326 -50.06838226236173 -3.1358853832407081 1.3005837775313245 -5.6997496072873473 39.056527358497512 0.011841283346541533 0.19130275539845928 0.28158129523753928 30.94272223638443 0.0037819507409562491 17.703074002403465 -67.945269109570702 0.88822961289253322 0.0026408219679864551 -2.9543224663389469 0.4462043226217427 0.0032613485365711619
decision_type=2 2 2 10 10 2 2 10 2 8 10 10 2 8 10 2 2 2 10 2 8 10 2 2 10 2 2
left_child=1 3 4 5 6 -1 -3 -6 16 10 -10 12 13 14 -11 -12 20 -13 -14 21 -4 -18 23 -23 -25 -26 -24
right_child=-2 2 8 -5 7 -7 -8 -9 9 11 15 17 18 -15 -16 -17 19 -19 -20 -21 -22 22 26 24 25 -27 -28
leaf_value=0.00060234609706052186 0.0011553967120957981 0.0026433087900415899 0.00042708490034874233 0.0019243126808765304 -0.0021752804883384794 -0.0023683693245021321 -0.00089257980868751561 0.00023426542414641742 -0.0022469619414315482 -0.0019339391751786728 0.00011573941239068604 -0.0021443298618154809 -0.0020357099845331986 -0.0048405227629068973 0.0014511324203458603 0.0023282467960464427 0.0011269872576570019 0.00038663945573247247 -0.005944176937910362 0.0001023613786052849 0.0026360835001399663 0.00077532512242107414 0.00021768186780880187 -0.0038044899091140214 0.00061253024742122274 -0.0023568114026901615 -0.0011225159503244176
leaf_weight=564 770 86 2213 530 655 113 125 128 204 330 931 142 99 92 205 260 235 599 89 6746 152 131 1206 179 153 291 677
leaf_count=564 770 86 2213 530 655 113 125 128 204 330 931 142 99 92 205 260 235 599 89 6746 152 131 1206 179 153 291 677
internal_value=-1.25486e-12 -5.19204e-05 -0.000124412 0.000904709 -0.00128679 0.000106496 0.000548588 -0.00178138 -4.70449e-05 -0.000452319 0.000182593 -0.00102154 -0.00186087 -0.00125366 -0.000636856 0.000598739 5.27602e-05 -9.83776e-05 -0.00388599 -7.4194e-05 0.000569059 -0.000488903 -0.000632905 -0.00155378 -0.00204353 -0.00133359 -0.000264163
internal_weight=17905 17135 15928 1207 994 677 211 783 14934 2951 1395 1556 815 627 535 1191 11983 741 188 9618 2365 2872 2637 754 623 444 1883
internal_count=17905 17135 15928 1207 994 677 211 783 14934 2951 1395 1556 815 627 535 1191 11983 741 188 9618 2365 2872 2637 754 623 444 1883
is_linear=0
shrinkage=0.0221739


Tree=17
num_leaves=28
num_cat=0
split_feature=7 7 4 2 7 4 1 4 4 7 7 2 4 1 4 4 4 4 6 2 6 6 6 2 2 2 2
split_gain=2.08873 2.31077 3.89061 2.95576 2.78552 2.74426 1.75468 1.6494 1.89686 2.41786 1.23869 1.20892 1.15158 1.08222 1.36793 1.28099 2.35373 1.27636 1.0706 1.79613 1.50357 1.43598 1.14112 2.38601 1.822 1.31083 1.48619
threshold=0.019479282263522944 0.0020080514996451983 0.50767646656827392 26.765706152501846 0.0024101614121790336 0.95517998789819714 -7.3956891997600218 0.0060940529263753271 2.8754725267532426e-09 0.0089886839519264013 0.0021973555427759685 71.883134923987129 0.99135456127175237 -2.0906397594995032 0.19269832612730028 0.080200149592378381 0.47781024414698753 0.76363483601923632 1.3005837775313245 30.94272223638443 1.2276334623700886 1.4598499841009114 1.1209462612371133 -51.691578078400987 -18.634599886341423 40.389345134642305 51.126396756038027
decision_type=2 2 10 10 2 10 10 8 10 2 2 10 10 10 10 10 10 10 2 10 2 2 2 10 10 10 10
left_child=1 2 3 -1 6 -4 10 8 9 -6 -3 -8 -7 15 -15 -2 -17 -16 20 21 22 -20 -9 -24 -25 -26 -27
right_child=13 4 5 -5 7 12 11 18 -10 -11 -12 -13 -14 14 17 16 -18 -19 19 -21 -22 -23 23 24 25 26 -28
leaf_value=-0.0027659663824675085 -0.0019108173572859341 0.0025846962661248149 0.0023553551444957131 0.0020627097159816913 -0.0011871045479190188 -0.0022302493089020239 -0.0021270460183440846 8.531079361443805e-05 -0.001389374964912649 0.0029467352484532378 -0.00087278782567996166 0.00022907080440950697 0.00084292857089606952 0.0040601697594959902 -0.00014661641689860537 0.0026290233670171184 -0.0011962445872417233 0.0032130575684247353 -0.0011457443122952313 -0.0034740648501666452 0.0012738208471159392 0.0020131649056979641 -0.0035840090597650796 0.00078999293621047242 -0.0016238012726852715 0.0013531984606338613 -0.0016862924177514155
leaf_weight=208 94 86 659 89 151 99 655 11429 842 129 125 128 152 112 151 189 136 88 248 112 481 99 119 477 515 202 130
leaf_count=208 94 86 659 89 151 99 655 11429 842 129 125 128 152 112 151 189 136 88 248 112 481 99 119 477 515 202 130
internal_value=-1.47631e-12 -5.07691e-05 0.000884648 -0.00131899 -0.000121654 0.00160386 -0.00125826 -4.60017e-05 -0.000863616 0.000717415 0.000536424 -0.00174188 -0.000369201 0.00112978 0.00203803 0.000368924 0.0010283 0.00109042 2.04162e-05 -0.00103254 5.66109e-05 -0.000244499 1.11262e-05 -0.000576438 -0.00030612 -0.000923412 0.000163036
internal_weight=17905 17135 1207 297 15928 910 994 14934 1122 280 211 783 251 770 351 419 325 239 13812 459 13353 347 12872 1443 1324 847 332
internal_count=17905 17135 1207 297 15928 910 994 14934 1122 280 211 783 251 770 351 419 325 239 13812 459 13353 347 12872 1443 1324 847 332
is_linear=0
shrinkage=0.0221739


Tree=18
num_leaves=28
num_cat=0
split_feature=5 7 2 7 7 4 7 2 5 5 7 7 5 7 5 7 5 4 4 7 5 4 7 4 5 5 8
split_gain=3.57007 4.31013 1.90803 2.49566 3.66964 1.60243 1.59905 1.48576 1.45964 1.42753 1.42125 1.78423 2.27876 1.37198 1.44925 1.3046 2.92274 3.6074 2.82224 1.56407 1.47426 1.45041 1.80573 1.4274 1.29495 1.23205 1.15145
threshold=70.755195220573498 0.005320498285539251 50.571053898972139 0.0046087103337862159 0.0019322842687723148 0.56933301152889604 0.0012583280496145635 38.123657920729322 52.361767091713567 67.917582902660598 0.0050333337265643539 0.012319243124339326 57.513000225285346 0.019479282263522944 35.558332279026509 0.0019746699173841795 53.187005158265855 0.53037284841255594 0.81224249112861024 0.0024101614121790336 45.713355615418862 0.92400317691053491 0.0093083696306344842 0.97141823152384188 42.77435776799333 47.069478170064905 0.12692903028096911
decision_type=2 2 8 2 2 10 2 10 2 2 2 2 2 2 2 2 2 10 10 2 2 10 2 10 2 2 2
left_child=2 5 6 4 8 -2 -1 -3 -4 -6 -5 -12 -13 15 -15 16 17 -8 -19 24 -20 26 23 -23 -17 -16 -21
right_child=1 7 3 10 9 -7 13 -9 -10 -11 11 12 -14 14 25 19 -18 18 20 21 -22 22 -24 -25 -26 -27 -28
leaf_value=-0.0030973708610656744 -0.0024217637612381584 -0.0027536775318249451 -0.00012506279343493551 0.002492349071639921 -0.00022912737905833483 -0.0066660696715122999 -0.0028934179959046831 -8.7217358866077902e-05 0.0029726895764765312 -0.0029750549330599652 0.00048230761803879713 -0.00032589338289927512 0.0035363820196702483 -0.0002414842539953473 0.0032997718160551223 -0.0030063283716193342 0.0034172588440666302 0.0036665822517605666 0.0017702241441162306 0.0004857726149708384 -0.0019643885792889489 0.001979846420155753 -0.002229646390829823 0.0002634935947236964 -0.00069036481973917103 0.00043216201458122369 -0.00029125432462428141
leaf_weight=86 89 127 106 262 2308 86 149 538 254 97 1787 113 224 245 170 150 163 140 90 1067 123 393 97 605 569 130 7737
leaf_count=86 89 127 106 262 2308 86 149 538 254 97 1787 113 224 245 170 150 163 140 90 1067 123 393 97 605 569 130 7737
internal_value=-2.62045e-12 -0.00141126 6.94673e-05 0.000426054 -2.73417e-05 -0.00450754 -8.47024e-05 -0.000596451 0.00206057 -0.000339878 0.000951468 0.000761397 0.00224132 -6.27976e-05 0.00102381 -0.000115284 0.000837467 -1.94001e-07 0.00122103 -0.000174954 -0.000386383 -0.000102424 0.000658646 0.000939372 -0.00117353 0.00205714 -0.000197083
internal_weight=17905 840 17065 5151 2765 175 11914 665 360 2405 2386 2124 337 11828 545 11283 665 502 353 10618 213 9899 1095 998 719 300 8804
internal_count=17905 840 17065 5151 2765 175 11914 665 360 2405 2386 2124 337 11828 545 11283 665 502 353 10618 213 9899 1095 998 719 300 8804
is_linear=0
shrinkage=0.0221739


Tree=19
num_leaves=28
num_cat=0
split_feature=5 7 0 6 7 6 7 7 2 6 7 6 6 5 2 7 2 5 2 7 0 7 7 0 8 6 0
split_gain=3.4135 4.13802 1.8336 2.90584 2.16548 2.00561 2.57042 3.12109 2.20175 2.11658 1.98655 2.20759 1.94423 1.75033 2.79291 2.88028 1.68282 2.32416 3.53928 2.35645 1.67114 2.40776 1.62008 1.52134 1.55731 1.51195 1.42793
threshold=70.755195220573498 0.0042155241191493527 28.425155183213391 0.87182585498065246 0.012319243124339326 1.0020272524533198 0.0032392327695101963 0.0036554710805885605 -50.867929325077036 1.0784372929404695 0.010033416016904264 1.2276334623700886 0.84729567994308164 48.657956715798527 1.6603842773636235 0.0089040090988316504 74.393302709147378 57.042385556290974 80.413892523807263 0.0046708260454953092 16.924929547534873 0.0040462188616718553 0.012319243124339326 45.708774926428561 0.63283058207988396 0.84729567994308164 43.51357941913691
decision_type=2 2 10 2 2 2 2 2 10 2 2 2 2 2 10 2 8 2 8 2 10 2 2 10 2 2 10
left_child=2 -2 5 12 10 16 -7 -8 9 -9 -5 -12 -4 -10 -15 -16 -1 25 20 -20 21 -19 -17 -6 -25 -18 -3
right_child=1 26 3 4 23 6 7 8 13 -11 11 -13 -14 14 15 22 17 18 19 -21 -22 -23 -24 24 -26 -27 -28
leaf_value=-5.517013582496609e-05 -0.0058449439419370336 -0.001441819063301609 -0.00072498090561402731 -0.00019866998873120309 0.00014473795226012368 0.0024940288270925534 -0.0031357023972411469 0.00023099402430602509 0.0018040371288457946 -0.0040550480925167706 -0.0032759789552896166 0.00086603929831488905 -0.0052475053645532968 -0.0028743974778939756 0.0017082987331005206 -0.0027708671919311652 0.00035178921755850949 -0.00043281792262869973 -0.0042075315527240822 0.00047903910707610108 -0.00078354620798147534 0.0037130758204069188 0.00059820233723730215 0.00094675788912039819 0.0041791913942033554 0.0026911370050130266 0.00071360793061338052
leaf_weight=6897 91 539 95 5200 469 375 110 166 736 86 213 90 92 115 573 136 213 114 134 87 155 174 145 199 116 375 210
leaf_count=6897 91 539 95 5200 469 375 110 166 736 86 213 90 92 115 573 136 213 114 134 87 155 174 145 199 116 375 210
internal_value=-3.54315e-12 -0.00137997 6.79269e-05 -0.000226057 -0.000145038 0.000247632 0.000805044 0.000498624 0.000702904 -0.0012317 -0.000300368 -0.00204568 -0.00294997 0.00098884 0.00036966 0.000806507 8.05928e-05 0.000828482 -7.0555e-05 -0.00236259 0.00107288 0.00207199 -0.00103238 0.000945246 0.00213711 0.00184372 -0.000837494
internal_weight=17905 840 17065 6474 6287 10591 2442 2067 1957 252 5503 303 187 1705 969 854 8149 1252 664 221 443 288 281 784 315 588 749
internal_count=17905 840 17065 6474 6287 10591 2442 2067 1957 252 5503 303 187 1705 969 854 8149 1252 664 221 443 288 281 784 315 588 749
is_linear=0
shrinkage=0.0221739


Tree=20
num_leaves=28
num_cat=0
split_feature=5 7 2 7 7 7 2 5 5 7 7 7 7 5 6 7 1 7 6 5 7 5 7 2 7 7 5
split_gain=3.2638 3.99355 1.80263 2.34941 3.49716 1.52827 1.40762 1.40697 1.35485 1.35362 1.75577 1.64046 1.63767 2.18143 1.29274 1.3975 1.7111 1.26285 1.4758 1.40612 1.32762 2.79291 1.40385 1.43906 1.50789 1.4918 3.56756
threshold=70.755195220573498 0.005320498285539251 50.571053898972139 0.0046087103337862159 0.0019322842687723148 0.0012583280496145635 38.123657920729322 51.645592993164271 67.917582902660598 0.0050333337265643539 0.0061722684219164296 0.0066514856536242176 0.012319243124339326 57.513000225285346 0.88428934733499365 0.0096341028225043288 2.1591963958842393 0.019479282263522944 1.4598499841009114 35.558332279026509 0.0019746699173841795 53.187005158265855 0.0024101614121790336 -36.973244537451492 0.0026004711534846989 0.0095373745716637263 44.734768810853694
decision_type=2 2 8 2 2 2 10 2 2 2 2 2 2 2 2 2 10 2 2 2 2 2 2 10 2 2 2
left_child=2 -2 5 4 7 -1 -3 -4 -6 -5 -11 -12 14 -14 15 16 -13 18 20 -19 21 -7 -22 25 -25 -24 -27
right_child=1 6 3 9 8 17 -8 -9 -10 10 11 12 13 -15 -16 -17 -18 19 -20 -21 22 -23 23 24 -26 26 -28
leaf_value=-0.0030286654658669174 -0.0043297625055358354 -0.0026647866613121489 -0.00044421749349285162 0.0024265779529411397 -0.00022410068783344905 -8.4625451754118526e-07 -6.9392118880295408e-05 0.0027939135196005187 -0.0028992058871199237 -0.00029430190556100207 0.002983073571361781 0.0015354881516797228 -0.00032773043118846073 0.0034511608606733837 0.00097607510309574838 -0.0030430601321645282 -0.0022596373537900516 -0.00026584340910164583 0.0020087970082000202 0.0019983176948674404 -0.0011492970129263458 0.0033398409877859435 0.00040047270278442427 0.0012840928542353029 -0.00042384286043814783 -8.8816294619559433e-05 -0.0048465753242071573
leaf_weight=86 175 127 87 262 2308 502 538 273 97 587 204 160 113 224 652 92 92 245 159 300 719 163 3150 266 5711 522 91
leaf_count=86 175 127 87 262 2308 502 538 273 97 587 204 160 113 224 652 92 92 245 159 300 719 163 3150 266 5711 522 91
internal_value=-1.69776e-12 -0.00134937 6.64207e-05 0.000413018 -2.68918e-05 -8.34302e-05 -0.000565054 0.00201137 -0.000331995 0.000922805 0.000737311 0.0011313 0.000847905 0.00218405 0.000395814 -0.000703983 0.000149966 -6.20157e-05 -0.000112371 0.000980484 -0.00014269 0.000817999 -0.000203772 -0.000133974 -0.000347833 0.00020571 -0.000795107
internal_weight=17905 840 17065 5151 2765 11914 665 360 2405 2386 2124 1537 1333 337 996 344 252 11828 11283 545 11124 665 10459 9740 5977 3763 613
internal_count=17905 840 17065 5151 2765 11914 665 360 2405 2386 2124 1537 1333 337 996 344 252 11828 11283 545 11124 665 10459 9740 5977 3763 613
is_linear=0
shrinkage=0.0221739


Tree=21
num_leaves=28
num_cat=0
split_feature=5 7 7 5 7 0 5 5 6 7 7 5 7 5 6 5 0 6 7 5 1 0 0 1 7 5 3
split_gain=3.13823 4.5701 1.63387 4.49041 3.0453 1.85645 2.53967 2.06611 1.83786 2.5414 1.7056 2.01912 1.61752 1.5847 1.7025 1.51914 1.65549 1.62827 3.18558 1.51302 1.94182 1.62767 1.71382 1.55998 1.48998 2.11015 2.19061
threshold=73.007785819469049 0.005320498285539251 0.0020080514996451983 52.361767091713567 0.0037819507409562491 12.926101783491676 67.917582902660598 49.23299193478131 0.96430505280778811 0.0081024165648351798 0.0055806500302305806 41.855934337785733 0.015205593560477905 62.207767031627277 0.91227989860167569 68.230781146219186 3.8391143693418281 1.1258883404658537 0.0033564385976887759 46.607242599500509 -8.2070346431774333 23.032693890551993 29.626717441994014 2.9828645898150108 0.002329834649019898 57.368286000590295 1.0000000180025095e-35
decision_type=2 2 2 2 2 8 2 2 2 2 2 2 2 2 2 2 8 2 2 2 10 10 10 10 2 2 2
left_child=2 -2 3 -1 15 6 7 10 9 19 -6 -12 -3 14 -11 16 -4 24 -19 -7 -21 -22 23 -23 25 26 -18
right_child=1 12 4 -5 5 8 -8 -9 -10 13 11 -13 -14 -15 -16 -17 17 18 -20 20 21 22 -24 -25 -26 -27 -28
leaf_value=-0.00030252817336217985 -0.0062113779138158404 -0.001467726108406811 -0.0026879589589268943 0.0024423340394559823 0.0011251266838025321 0.0001423946978713708 -0.0026689364790744791 0.0014697343742321172 0.00026528752449931161 0.0013349199090739471 0.0010148417754857954 -0.0023109009070097562 0.0016243525213225681 0.0025974720335159912 -0.0010085821702992093 -0.0032418541354171638 -0.00053563823652943412 -0.00038516535711399357 -0.0046761396101707908 -0.0033201222048450251 -0.00024380004463343165 -0.0056181324615486991 -0.00061027764489881035 -0.0019027276717348421 -2.4938543879617535e-05 0.001275334441698523 -0.0033046504601911683
leaf_weight=704 90 362 152 502 345 550 100 1327 6309 298 146 233 108 163 312 95 324 281 122 189 735 86 253 157 3571 143 248
leaf_count=704 90 362 152 502 345 550 100 1327 6309 298 146 233 108 163 312 95 324 281 122 189 735 86 253 157 3571 143 248
internal_value=-5.24091e-12 -0.00163377 5.27478e-05 0.000840026 -6.08223e-06 0.000196098 0.000781655 0.000949894 5.69541e-05 -0.00042222 -2.9065e-06 -0.00102974 -0.000757206 0.000655261 0.000136276 -0.000464961 -0.000410467 -0.00033664 -0.00168417 -0.000845009 -0.00122745 -0.000906158 -0.00188768 -0.00321764 -0.000209935 -0.00113388 -0.00173619
internal_weight=17905 560 17345 1206 16139 11203 2151 2051 9052 2743 724 379 470 773 610 4936 4841 4689 403 1970 1420 1231 496 243 4286 715 572
internal_count=17905 560 17345 1206 16139 11203 2151 2051 9052 2743 724 379 470 773 610 4936 4841 4689 403 1970 1420 1231 496 243 4286 715 572
is_linear=0
shrinkage=0.0221739


Tree=22
num_leaves=28
num_cat=0
split_feature=5 2 4 2 5 4 4 5 4 5 5 5 8 4 4 8 2 4 4 5 6 8 5 8 2 5 2
split_gain=3.0006 1.66715 1.74198 1.63063 1.62176 1.7098 1.84376 2.43055 1.58882 2.21143 4.14154 1.07846 3.0539 1.05478 1.62497 1.04401 2.29654 1.27064 1.23538 3.09246 1.95363 1.71949 1.86395 1.74419 1.67269 2.47239 1.9462
threshold=73.007785819469049 38.123657920729322 0.62702559181831219 41.869409514361251 62.909066127060932 0.011149450438552368 2.8754725267532426e-09 41.156925698111827 0.10626710225518544 42.9213094475734 30.971721361768811 35.558332279026509 0.5794657189591691 0.029719548999439075 0.080200149592378381 0.11210924836867982 -20.010900537110469 0.69589063623551439 0.69589063623551439 34.575134650619638 0.97766469232490427 0.74225203112307103 48.175922316288947 0.56644457456753938 -36.973244537451492 36.178762135005449 -38.342848423842533
decision_type=2 10 10 8 2 10 10 2 10 2 2 2 2 10 10 2 10 10 10 2 2 2 2 2 10 2 10
left_child=3 -2 -3 4 5 6 7 -1 9 10 -7 12 -8 -6 -15 16 -10 -18 24 -20 21 22 -21 -24 26 -26 -17
right_child=1 2 -4 -5 13 8 11 -9 15 -11 -12 -13 -14 14 -16 18 17 -19 19 20 -22 -23 23 -25 25 -27 -28
leaf_value=0.0023212035247244744 -0.0042742469675298893 -0.00025026718167255025 -0.0033519000914074251 0.00033381876175153202 0.00041413020309153807 -0.0012187303694982836 -0.0051050897509599385 -0.0021164766616408961 0.0014443388624122491 -7.590127322826074e-05 0.0027808406838029025 -0.00093575036587616287 0.00028131828914126488 -0.00453881026473854 -0.0011234241252496503 -8.7952244085619447e-05 0.00028243477904446422 -0.0025527929863489573 -0.0030484175895905651 -0.0008283689427351701 0.0014280162239099718 0.0012957501396806479 0.0013106058881485203 -0.0011239437615340455 -0.0042583344060390651 -0.00065931385465575222 0.0030414628712928404
leaf_weight=168 95 345 120 6369 131 175 120 95 594 762 467 592 91 88 309 1616 189 132 140 1131 621 425 510 202 98 2216 104
leaf_count=168 95 345 120 6369 131 175 120 95 594 762 467 592 91 88 309 1616 189 132 140 1131 621 425 510 202 98 2216 104
internal_value=-1.36559e-12 -0.00159754 -0.00105069 5.15782e-05 -0.000112196 -5.16047e-05 -0.000893131 0.000718239 4.40111e-05 0.000731865 0.00169061 -0.00142089 -0.00278204 -0.00131118 -0.00188049 -7.70401e-05 0.000627704 -0.000883453 -0.000168338 0.000170089 0.000326057 2.43302e-05 -0.000268862 0.000619905 -0.000422453 -0.000811736 0.000101268
internal_weight=17905 560 465 17345 10976 10448 1066 263 9382 1404 642 803 211 528 397 7978 915 321 7063 3029 2889 2268 1843 712 4034 2314 1720
internal_count=17905 560 465 17345 10976 10448 1066 263 9382 1404 642 803 211 528 397 7978 915 321 7063 3029 2889 2268 1843 712 4034 2314 1720
is_linear=0
shrinkage=0.0221739


Tree=23
num_leaves=28
num_cat=0
split_feature=5 7 0 6 7 6 4 7 7 4 7 7 7 4 4 4 5 7 7 5 6 6 0 5 7 0 7
split_gain=2.87839 3.72795 1.71228 2.78084 2.01531 1.92071 2.5559 2.46326 2.94592 1.94555 3.66757 2.18038 1.89976 2.58225 2.55489 1.84933 1.78281 2.01886 1.66371 2.74559 2.12514 1.4183 2.5507 1.41537 3.60414 1.39053 2.6093
threshold=70.755195220573498 0.0042155241191493527 28.425155183213391 0.87073723174558071 0.012319243124339326 1.0020272524533198 0.041630093588806712 0.0032392327695101963 0.0036554710805885605 0.11991282357772527 0.0088260479872470116 0.010181567810209633 0.010033416016904264 0.088740467679125537 0.1460140526974488 0.38177432332839295 59.737603001971827 0.0097437835753808478 0.0072158143592680824 39.428707290184754 1.3005837775313245 1.3419949663202047 43.926930883912021 52.220127658305408 0.0068462804222333322 13.32687368822995 0.016750556726176955
decision_type=2 2 10 2 2 2 8 2 2 8 2 2 2 10 10 10 2 2 2 2 2 2 10 2 2 10 2
left_child=2 -2 5 -4 12 6 -1 -7 -9 16 -11 -12 14 -14 18 21 17 -10 20 -20 -5 -6 -23 24 -16 26 -8
right_child=1 -3 3 4 15 7 25 8 9 10 11 -13 13 -15 23 -17 -18 -19 19 -21 -22 22 -24 -25 -26 -27 -28
leaf_value=-0.0024095293967294645 -0.0055051622805270366 -0.00075230072922796265 -0.0029392255783969772 -0.00086275248483660147 0.0023475321904620561 0.0024349263717022411 0.0003601263294313167 -0.0030493146047776924 0.0012932749157996109 0.0010950850894951021 -0.0040190024517368595 -0.00050689228077629154 0.0010755227727301476 -0.0033627218331508924 -0.00069058178205460175 -0.00089013238359399811 -0.00093585300572490021 0.0043050329964658702 -0.00010550602435320256 -0.0040068636066753534 0.0018666668222969709 -0.0028108259129585125 0.0022600585602579456 0.00066205963186278941 0.0017267403461903028 -0.00013106803072808601 0.0041039041354794291
leaf_weight=199 91 749 180 1190 379 375 3491 110 333 859 112 388 93 210 1622 207 102 163 162 196 159 87 111 1505 373 4365 94
leaf_count=199 91 749 180 1190 379 375 3491 110 333 859 112 388 93 210 1622 207 102 163 162 196 159 87 111 1505 373 4365 94
internal_value=-3.24789e-12 -0.00126719 6.23758e-05 -0.000221716 -0.000143999 0.000236034 7.25684e-05 0.00078152 0.000481555 0.00068002 0.000216244 -0.0012936 -0.000293668 -0.00200049 -0.000194347 0.000907885 0.00173399 0.00228303 -0.000897664 -0.00224144 -0.000541049 0.00155293 3.19427e-05 0.000148671 -0.000238621 0.000134699 0.00045829
internal_weight=17905 840 17065 6474 6294 10591 8149 2442 2067 1957 1359 500 5510 303 5207 784 598 496 1707 358 1349 577 198 3500 1995 7950 3585
internal_count=17905 840 17065 6474 6294 10591 8149 2442 2067 1957 1359 500 5510 303 5207 784 598 496 1707 358 1349 577 198 3500 1995 7950 3585
is_linear=0
shrinkage=0.0221739


Tree=24
num_leaves=28
num_cat=0
split_feature=4 4 7 7 4 7 4 0 2 6 7 6 4 7 7 2 2 1 2 1 6 7 4 0 0 4 1
split_gain=1.73937 1.80985 1.98664 1.65226 3.33749 2.8712 2.58755 2.31096 1.88957 1.5184 2.98748 1.86015 2.83926 1.81085 1.8783 1.43185 1.3114 1.21469 1.18103 1.29621 1.15925 1.15593 1.60031 2.53133 1.15046 4.33484 2.63295
threshold=0.0060940529263753271 2.8754725267532426e-09 0.0089886839519264013 0.0020080514996451983 0.50767646656827392 0.0037819507409562491 0.95517998789819714 8.426389735925726 74.081742984933342 1.1258883404658537 0.0032881290031598195 1.0210974026163904 0.68310802085428124 0.002329834649019898 0.0021973555427759685 22.528045743288647 23.48149673357003 12.062844754656895 -12.361166479722675 -7.6678042527029175 1.0494397569517415 0.019479282263522944 0.3679772969567322 15.946427984482392 10.288387822221383 0.88221784777660273 -1.1992169375030761
decision_type=8 10 2 2 10 2 10 8 10 2 2 2 10 2 2 10 10 10 10 10 2 2 10 10 8 8 10
left_child=1 2 -1 4 16 9 -6 8 -7 11 -11 13 -13 14 -5 17 -2 18 19 -3 -17 -9 -23 -24 25 26 -15
right_child=3 15 -4 5 6 7 -8 21 -10 10 -12 12 -14 24 -16 20 -18 -19 -20 -21 -22 22 23 -25 -26 -27 -28
leaf_value=-0.0012091247859886771 -0.00256384454562674 -0.00021115617067318497 0.0022127522717691412 -0.0005199057047324114 0.0022213498340227971 0.00093257838770570639 -0.0004242712703361146 3.6912146262740643e-05 0.0042588718200198689 -0.00028393083703476263 -0.004576951651057537 -4.960741484373782e-05 0.0032608997954105203 -0.0018015611696010421 -0.0029722106887865307 0.0014614550005237542 0.00080410170906917663 -0.00085703975895747963 -0.0049488648821458944 -0.0035360488655999736 -0.0012005608727329886 0.0019417065491744894 0.0028671495240604307 -0.00152799439202332 -8.6541353430027348e-05 0.00041379573368401524 -0.0063554539325694596
leaf_weight=157 164 107 178 333 659 787 251 9211 94 214 127 610 161 221 285 135 87 278 94 125 199 380 92 215 2255 399 87
leaf_count=157 164 107 178 333 659 787 251 9211 94 214 127 610 161 221 285 135 87 278 94 125 199 380 92 215 2255 399 87
internal_value=-2.58355e-13 -0.000789967 0.000609067 6.04634e-05 0.000867238 -7.98755e-08 0.00149162 0.000199219 0.00128748 -0.000457931 -0.0018828 -0.000346261 0.000641692 -0.000559029 -0.00165082 -0.00128962 -0.00139647 -0.00193386 -0.00285213 -0.00200259 -0.000124596 0.000102355 0.000979778 -0.000210883 -0.000331234 -0.00111169 -0.00308789
internal_weight=17905 1273 335 16632 1161 15471 910 10779 881 4692 341 4351 771 3580 618 938 251 604 326 232 334 9898 687 307 2962 707 308
internal_count=17905 1273 335 16632 1161 15471 910 10779 881 4692 341 4351 771 3580 618 938 251 604 326 232 334 9898 687 307 2962 707 308
is_linear=0
shrinkage=0.0221739


Tree=25
num_leaves=28
num_cat=0
split_feature=5 7 7 2 7 7 6 5 0 6 5 5 7 5 0 7 6 5 6 7 0 7 5 2 0 7 0
split_gain=2.7799 4.24271 1.5339 1.51481 2.30733 2.54144 2.29221 3.84667 2.19058 2.06142 1.62226 1.5215 1.45666 1.96687 1.47665 2.30216 4.55169 2.27483 2.06001 1.70811 1.45202 1.43035 3.31767 1.40791 1.66255 1.40349 1.50255
threshold=73.007785819469049 0.005320498285539251 0.015205593560477905 41.869409514361251 0.0061722684219164296 0.0020080514996451983 0.98564131673331856 68.230781146219186 55.036965835259046 0.97200105138744164 54.69194355974259 62.909066127060932 0.019479282263522944 35.558332279026509 30.875237505942213 0.012097484222852227 1.1693496585366117 30.971721361768811 1.0020272524533198 0.012319243124339326 29.626717441994014 0.002329834649019898 55.383271444542245 -52.976869200065089 16.617441367033258 0.0063160316307966811 17.224266830238047
decision_type=2 2 2 8 2 2 2 2 8 2 2 2 2 2 10 2 2 2 2 2 8 2 2 10 10 2 10
left_child=3 -2 -3 11 5 10 7 9 -8 21 -5 12 14 -14 15 17 23 -1 20 -16 -19 22 -7 -17 -25 -6 -27
right_child=1 2 -4 4 25 6 8 -9 -10 -11 -12 -13 13 -15 19 16 -18 18 -20 -21 -22 -23 -24 24 -26 26 -28
leaf_value=-0.0032962817805454684 -0.0059482684430734846 -0.0013849946448060279 0.0016260909062970359 0.00019891216733172666 0.0037078615869886211 -0.0048124695047999065 0.0011764846890441505 -0.0043362069031518931 -0.0019120471068097039 -0.0026776590023782905 0.0028781029877841149 -0.0012695354832450176 -0.00031332210805234278 0.0024555698824344782 -0.00058529667278376936 -0.0050489446418460265 0.0029767141100546543 -6.9609575859132708e-05 0.00093115806354355688 0.0011710049417828624 0.0025611656996091877 1.5602173011841809e-05 0.00063107546322828791 0.00044102006465583806 -0.0033644741104568673 0.001553604928601397 0.00030400311317473972
leaf_weight=89 90 362 108 210 86 101 859 121 130 168 236 528 245 260 3534 91 88 3843 1664 295 106 2378 121 96 137 799 1160
leaf_count=89 90 362 108 210 86 101 859 121 130 168 236 528 245 260 3534 91 88 3843 1664 295 106 2378 121 96 137 799 1160
internal_value=-2.95262e-12 -0.00153767 -0.000693086 4.96451e-05 0.000321677 3.14322e-05 -0.000150874 -0.000466295 0.00077051 -0.000297126 0.0016166 -0.000108206 -4.9517e-05 0.00111225 -0.000108522 0.000105324 -0.00149538 0.000220984 0.000276754 -0.000449985 1.00632e-06 -0.000143307 -0.00184549 -0.00271003 -0.00179655 0.000935379 0.000813667
internal_weight=17905 560 470 17345 6369 4324 3878 2889 989 2768 446 10976 10448 505 9943 6114 412 5702 5613 3829 3949 2600 222 324 233 2045 1959
internal_count=17905 560 470 17345 6369 4324 3878 2889 989 2768 446 10976 10448 505 9943 6114 412 5702 5613 3829 3949 2600 222 324 233 2045 1959
is_linear=0
shrinkage=0.0221739


Tree=26
num_leaves=28
num_cat=0
split_feature=7 7 0 2 8 7 8 7 2 0 1 8 1 8 2 0 8 2 8 1 7 0 0 3 2 1 7
split_gain=1.58603 2.7182 1.98939 1.94954 1.93784 1.60446 1.29616 1.19979 3.40052 2.3003 1.40923 1.25741 1.64865 2.06885 1.69787 1.01658 0.94703 1.27715 1.5248 0.976291 0.902457 1.47085 0.896862 3.09872 0.888683 0.887612 0.876613
threshold=0.0020080514996451983 0.0037819507409562491 8.426389735925726 74.081742984933342 0.19875746391768132 0.0012583280496145635 0.10285089049686273 0.01366010399198843 -50.867929325077036 31.544459087493259 7.4966941781019543 0.50946150582701144 -9.3652567803772122 0.64309323029894327 4.9771482191303766 5.0949360903281606 0.73133000303808504 29.708914074051354 0.59659477322299315 -3.8513944473045281 0.001809628161456981 20.437205443050885 55.704729844206348 1.0000000180025095e-35 12.841981342545685 3.2341481604319084 0.0072748671089425425
decision_type=2 2 8 10 2 2 2 2 10 10 10 2 10 2 10 8 2 10 2 10 2 10 10 2 10 10 2
left_child=5 4 3 -3 6 -1 24 26 9 -9 11 -10 -13 -14 -15 -6 17 18 20 -19 21 -7 -17 -24 -2 -21 -4
right_child=1 2 7 -5 15 16 -8 8 10 -11 -12 12 13 14 -16 22 -18 19 -20 25 -22 -23 23 -25 -26 -27 -28
leaf_value=-0.0014377987087826056 0.00064807851053627586 0.00077601493994363746 0.00010928940986840093 0.0041489135800833361 -0.0023158020009539176 -0.0017107995326336516 0.0012005714872488189 -0.0045854785700860014 0.0013529343053964948 0.0003757225726049894 0.0025617321039897107 0.0016855863066783864 -0.0039014859926501948 0.0023446234664753775 -0.0017169826048802693 -0.00054486685271962221 0.0024216769646560532 5.5268832882286631e-05 -0.0025308747740170807 0.0038389401064152732 0.0021079800919700585 0.0015903009030475053 0.00037116052208673332 -0.004764026915656863 -0.0012066795012262569 0.0012016957654075314 -0.00034093819747611201
leaf_weight=142 226 813 6083 94 185 139 487 95 594 89 242 151 93 91 114 3549 206 116 94 125 132 127 127 106 290 126 3269
leaf_count=142 226 813 6083 94 185 139 487 95 594 89 242 151 93 91 114 3549 206 116 94 125 132 127 127 106 290 126 3269
internal_value=-4.98255e-12 -5.6109e-05 0.00012806 0.00112558 -0.000490704 0.000776229 0.000380067 4.44498e-05 0.000633568 -0.00218577 0.00103727 0.00068356 -0.000201982 -0.00115843 8.59742e-05 -0.000710866 0.00107143 0.000747626 9.18338e-06 0.00173758 0.000609097 -0.00013471 -0.000632359 -0.00196502 -0.000394324 0.00251506 -4.80881e-05
internal_weight=17905 16698 11728 907 4970 1207 1003 10821 1469 184 1285 1043 449 298 205 3967 1065 859 492 367 398 266 3782 233 516 251 9352
internal_count=17905 16698 11728 907 4970 1207 1003 10821 1469 184 1285 1043 449 298 205 3967 1065 859 492 367 398 266 3782 233 516 251 9352
is_linear=0
shrinkage=0.0221739


Tree=27
num_leaves=28
num_cat=0
split_feature=5 7 7 7 5 4 4 7 7 6 5 4 6 6 7 6 5 1 7 4 7 7 7 5 1 5 1
split_gain=2.66576 4.03782 1.44239 1.37996 4.62395 4.07877 2.60109 2.53953 1.3419 1.78421 1.28505 1.16354 3.44117 1.84525 2.45788 2.22652 2.19576 2.00518 1.45287 3.9557 1.52146 1.67074 1.43113 2.11178 2.15948 2.07384 2.03274
threshold=73.007785819469049 0.005320498285539251 0.015205593560477905 0.0019746699173841795 52.361767091713567 0.52507795089167086 0.95770077587330105 0.0037819507409562491 0.0088260479872470116 1.0700434913939583 68.230781146219186 0.67437073810818826 1.0227476295724622 0.87073723174558071 0.0033349122474686985 1.1149425794289851 62.207767031627277 -1.1992169375030761 0.002539242332420292 0.40999961175679928 0.003116578386564072 0.002968301625749094 0.002329834649019898 57.042385556290974 -1.4800064165874438 48.175922316288947 -5.3466619293423205
decision_type=2 2 2 2 2 10 10 2 2 2 2 8 2 2 2 2 2 10 2 10 2 2 2 2 8 2 8
left_child=3 -2 8 4 5 -1 -7 10 9 -3 11 13 22 -5 16 -16 17 18 19 -15 21 -20 -13 25 -25 26 -24
right_child=1 2 -4 7 -6 6 -8 -9 -10 -11 -12 12 -14 14 15 -17 -18 -19 20 -21 -22 -23 23 24 -26 -27 -28
leaf_value=-0.0033626473199546529 -0.0058085520005268197 0.0019977456651196425 0.0015671050181538101 -0.0031680808403140304 0.0024673962532222485 0.0015808435259166307 -0.0020953811006370377 0.00018182484542704819 -0.0029577701365255593 -0.0020854356264450608 -0.0029596302575212816 -0.0013458717980320116 0.0031156558759057144 0.0012742389973343304 -0.0010038717490478304 -0.0041726868628814383 0.0026235522785049994 -0.0011248115615757276 0.0010969191925485507 -0.004698113000483937 -0.00075062941376121512 0.004707025053651866 -0.0034010597711823178 -0.0030504151369690636 -3.3136696212475077e-05 0.0011329417379627386 2.2182427401195089e-05
leaf_weight=170 90 97 108 143 474 363 128 11203 150 115 96 473 159 149 422 147 131 802 236 86 134 86 103 196 288 860 496
leaf_count=170 90 97 108 143 474 363 128 11203 150 115 96 473 159 149 422 147 131 802 236 86 134 86 103 196 288 860 496
internal_value=-4.13367e-12 -0.00150577 -0.000681834 4.86153e-05 0.000796064 -0.00040244 0.000622479 -3.72003e-06 -0.00135279 -0.000217188 -0.000418871 -0.000369204 -4.41202e-05 -0.000727548 -0.000568407 -0.00182253 -0.000129001 -0.000370517 0.000504944 -0.000911388 0.00123485 0.00206111 -0.000252069 1.42041e-05 -0.00125501 0.000435246 -0.000566455
internal_weight=17905 560 470 17345 1135 661 491 16210 362 212 5007 4911 2575 2336 2193 569 1624 1493 691 235 456 322 2416 1943 484 1459 599
internal_count=17905 560 470 17345 1135 661 491 16210 362 212 5007 4911 2575 2336 2193 569 1624 1493 691 235 456 322 2416 1943 484 1459 599
is_linear=0
shrinkage=0.0221739


Tree=28
num_leaves=28
num_cat=0
split_feature=7 7 7 1 7 0 6 1 8 8 7 1 6 2 0 6 0 2 2 1 8 2 6 7 8 1 2
split_gain=1.49059 1.63416 2.17739 1.62423 1.52807 1.48572 2.4005 1.4727 1.19378 1.71837 1.16874 1.14438 1.56634 1.05937 1.02777 0.985657 1.78283 4.61164 2.73677 1.82632 2.31665 1.93599 1.72141 1.67543 1.41341 1.40305 1.34054
threshold=0.019479282263522944 0.0020080514996451983 0.0024101614121790336 -7.3956891997600218 0.0012583280496145635 14.438808441795119 1.0638180419889385 -1.1109708542089638 0.82753717745863054 0.6102514642244995 0.0021973555427759685 4.835181044321712 1.3740448883781451 3.4034980411363107 21.509417730864623 1.1209462612371133 25.525365669951164 -10.076365488376561 -32.525556412755797 6.777174679883804 0.40724460979374982 -46.25076007998981 1.1734956413075415 0.0082432082208031953 0.19130275539845928 17.703074002403465 -37.483104377758337
decision_type=2 2 2 10 2 10 2 10 2 2 2 10 2 10 10 2 8 10 10 10 2 10 2 2 2 8 10
left_child=1 4 3 10 -1 -2 7 -7 9 13 -3 12 -8 -5 -15 24 17 18 -17 21 22 -18 -21 -19 25 -4 -22
right_child=5 2 15 8 -6 6 11 -9 -10 -11 -12 -13 -14 14 -16 16 19 23 -20 20 26 -23 -24 -25 -26 -27 -28
leaf_value=-0.0014169336064835318 0.003302995864499557 0.0026088761123202607 0.00039788579025848702 -0.0022907407867037233 0.0010318393376225132 -0.0036410792647782915 0.0017943855308260852 0.00014772347262156051 0.00074344542170005196 -0.0036964965132463205 -0.00074956646952317513 0.0034640815609134029 -0.0015144715151325756 -0.001529074071256895 0.0012566529297348369 0.00035691277727920246 -0.0034628038013974085 0.00036109122016110139 0.0053823635284237694 -0.0039287770305202804 0.0026888288250287561 -0.00080863022680351473 -0.00016880229161013148 -0.0035046390768773859 -6.5633259849139479e-05 0.0026002132534182617 0.00032056238642217316
leaf_weight=142 113 86 2213 236 1065 86 243 122 96 189 125 107 99 141 121 94 148 126 123 91 172 1553 175 98 9618 152 371
leaf_count=142 113 86 2213 236 1065 86 243 122 96 189 125 107 99 141 121 94 148 126 123 91 172 1553 175 98 9618 152 371
internal_value=-1.8823e-12 -4.28881e-05 -0.000102498 -0.0011074 0.000743748 0.0009544 0.000550455 -0.0014188 -0.0015727 -0.00189636 0.000619277 0.00146272 0.000836558 -0.00121317 -0.000242536 -3.56122e-05 -0.00039862 0.00090164 0.00320544 -0.000627072 0.000240232 -0.00103956 -0.00145511 -0.00133017 5.37839e-05 0.000539431 0.00107073
internal_weight=17905 17135 15928 994 1207 770 657 208 783 687 211 449 342 498 262 14934 2951 441 217 2510 809 1701 266 224 11983 2365 543
internal_count=17905 17135 15928 994 1207 770 657 208 783 687 211 449 342 498 262 14934 2951 441 217 2510 809 1701 266 224 11983 2365 543
is_linear=0
shrinkage=0.0221739


Tree=29
num_leaves=28
num_cat=0
split_feature=5 7 7 1 7 4 4 7 5 1 5 5 5 4 1 4 4 5 4 7 4 7 5 7 5 7 7
split_gain=2.5482 3.86447 1.35742 1.30099 2.15954 1.27081 2.10876 2.16445 1.6209 1.76007 1.60907 1.59998 1.52287 5.81501 4.31335 2.33476 2.46431 2.30486 2.04051 2.79533 2.84771 2.71949 2.06085 1.94801 1.5 1.46915 2.76698
threshold=73.007785819469049 0.005320498285539251 0.015205593560477905 5.13225043389851 0.0086349276317758215 0.0060940529263753271 2.8754725267532426e-09 0.0089886839519264013 30.31741862288531 8.023172019106422 54.69194355974259 49.571243981628683 39.63978873985166 0.64450162867434124 -3.8513944473045281 0.13432113583812985 0.19771685592318308 34.575134650619638 0.52009673504317566 0.0019746699173841795 0.95517998789819714 0.002329834649019898 57.368286000590295 0.018619218584525237 53.745972480628048 0.0072748671089425425 0.0069491861747278524
decision_type=2 2 2 10 2 8 10 2 2 10 2 2 2 10 10 10 10 2 8 2 10 2 2 2 2 2 2
left_child=5 -2 3 4 -3 6 7 -1 9 -7 11 -8 13 15 -15 -10 -17 -16 23 20 -20 22 -21 25 -22 26 -14
right_child=1 2 -4 -5 -6 8 10 -9 12 -11 -12 -13 18 14 17 16 -18 -19 19 21 24 -23 -24 -25 -26 -27 -28
leaf_value=-0.00099049399460110509 -0.0056816008145586412 -0.00042140854825892607 0.0015155478462535515 0.00031855621814059609 -0.0048623241309743602 -0.002179744140469187 -0.0013120349949227706 0.0027587261819458186 0.0029428029206279749 0.00073622759225651564 0.00028813255563239402 -0.0042985479283594525 -0.00028378472302940727 -0.0040962085300168408 -0.002918633534123095 -0.001986202671866642 0.001448286461442202 0.00094293814234300082 0.0023026512915523462 -0.0020715656863339047 -0.001989965382612651 0.00023746548311275232 0.0011976332680093361 0.0020839013012878436 0.0017110576685164275 -0.0010505185108514005 0.0030398864002043119
leaf_weight=148 90 121 108 144 97 304 502 155 431 153 246 107 3254 164 97 122 650 351 590 438 144 7754 121 161 86 1239 128
leaf_count=148 90 121 108 144 97 304 502 155 431 153 246 107 3254 164 97 122 650 351 590 438 144 7754 121 161 86 1239 128
internal_value=4.79801e-13 -0.00147219 -0.000666137 -0.00131703 -0.00239741 4.75312e-05 -0.000662086 0.000927424 9.82965e-05 -0.0012035 -0.00122539 -0.00183676 0.000136117 0.000740222 -0.00101947 0.00163543 0.00090553 0.000106839 5.7321e-05 0.000251619 0.00148678 0.000129782 -0.00136392 -0.000313763 -0.000606105 -0.0003973 -0.000157992
internal_weight=17905 560 470 362 218 17345 1158 303 16187 457 855 609 15730 1815 612 1203 772 448 13915 9133 820 8313 559 4782 230 4621 3382
internal_count=17905 560 470 362 218 17345 1158 303 16187 457 855 609 15730 1815 612 1203 772 448 13915 9133 820 8313 559 4782 230 4621 3382
is_linear=0
shrinkage=0.0221739


Tree=30
num_leaves=28
num_cat=0
split_feature=5 0 0 6 6 4 2 4 4 5 0 8 2 0 5 2 2 0 5 5 5 0 2 6 6 0 0
split_gain=2.44583 1.74792 1.49597 2.65494 1.72512 2.34883 1.37858 1.92903 1.95178 1.58357 1.45225 1.3239 1.27535 1.26385 1.94128 1.98455 2.01881 1.85217 1.34477 2.82676 1.21315 2.37703 1.95764 1.91501 3.01032 2.1173 1.38
threshold=70.755195220573498 31.934727037555387 28.425155183213391 0.87073723174558071 1.0020272524533198 0.041630093588806712 59.066609631146491 0.15100778751826358 0.24070123201205665 62.207767031627277 26.951865714393367 0.45283018743647552 -31.93739278208324 13.32687368822995 66.739580864373451 74.081742984933342 79.443800793905112 11.753163675546265 54.470344149126596 53.853440703691078 49.468594261870287 4.472227115049848 -34.232252145542652 0.86350288089473437 0.92205079229127207 8.5777078348194458 7.2953091123752296
decision_type=2 10 10 2 2 8 10 8 10 2 10 2 10 10 2 8 10 8 2 2 2 10 10 2 2 10 10
left_child=2 -2 4 -4 5 11 7 9 -9 12 -10 -1 -6 14 15 17 -17 18 19 20 22 -22 23 -7 25 -25 -23
right_child=1 -3 3 -5 6 13 -8 8 10 -11 -12 -13 -14 -15 -16 16 -18 -19 -20 -21 21 26 -24 24 -26 -27 -28
leaf_value=-0.00070417104446671066 -0.0021233601457071784 -9.7061077281015813e-05 -0.0028633217541645405 -0.0001321058220712136 -0.00051423487791017991 0.0014950614487170256 0.0024238042553054685 -0.0017418306833839798 0.00017695458064266221 -0.0012974074314125357 0.0026529916756634431 -0.0043457869519284015 0.0021755426456443838 -0.00012891400550371946 -0.0024809039002397356 0.0026038728315288208 -0.00049526839612326796 0.0015067390409955821 0.00073963609086238023 -0.0040532092282193569 -0.0024365599614643214 0.0032104644296014405 -0.0020411680314795376 -0.00065529371260676238 0.0020402338392794734 -0.0049246518328236689 0.00055648246342746195
leaf_weight=111 444 396 180 6294 101 278 217 240 1050 92 131 88 611 4365 109 387 141 516 875 95 95 144 306 141 111 96 291
leaf_count=111 444 396 180 6294 101 278 217 240 1050 92 131 88 611 4365 109 387 141 516 875 95 95 144 306 141 111 96 291
internal_value=-1.07033e-12 -0.0011681 5.74983e-05 -0.000208043 0.000219817 6.48978e-05 0.000736784 0.000572253 8.11435e-05 0.00144025 0.000451604 -0.00231453 0.00179399 0.000124458 0.000432958 0.00052433 0.00177626 0.000300104 4.4091e-05 -0.00034679 -0.000105949 0.000741076 -0.000587626 0.000122891 -0.000973267 -0.00238465 0.00143504
internal_weight=17905 840 17065 6474 10591 8149 2442 2225 1421 804 1181 199 712 7950 3585 3476 528 2948 2432 1557 1462 530 932 626 348 237 435
internal_count=17905 840 17065 6474 10591 8149 2442 2225 1421 804 1181 199 712 7950 3585 3476 528 2948 2432 1557 1462 530 932 626 348 237 435
is_linear=0
shrinkage=0.0221739


Tree=31
num_leaves=28
num_cat=0
split_feature=5 2 0 2 2 5 4 1 5 4 5 5 0 0 1 2 4 4 5 4 5 5 5 2 1 5 0
split_gain=2.35703 1.59965 1.69419 1.63922 1.36247 1.39856 1.46004 1.74872 1.55424 1.39675 1.9394 3.77141 1.53755 1.47442 1.29224 1.14527 1.02289 1.54147 0.960542 0.941041 1.14423 1.15831 1.17997 0.895955 1.94085 0.970937 2.60351
threshold=73.007785819469049 37.573788903756657 31.747058297757984 49.521072147999156 41.869409514361251 62.909066127060932 0.011149450438552368 12.062844754656895 28.781826276245148 0.10626710225518544 43.088689598296206 30.971721361768811 24.609140210676387 45.708774926428561 -31.735668380102364 14.970242672183776 0.029719548999439075 0.080200149592378381 75.518259676187355 2.8754725267532426e-09 35.558332279026509 45.108590723759143 54.060619597937595 38.123657920729322 -4.1573456433028815 32.880053036162032 36.720826142219003
decision_type=2 10 10 10 8 2 10 10 2 10 2 2 10 10 10 8 10 10 2 10 2 2 2 10 10 2 10
left_child=4 -2 18 -4 5 6 7 19 -9 10 11 13 -12 -8 -11 -14 -7 -18 -3 -1 -21 -22 -23 25 -25 26 -16
right_child=1 2 3 -5 -6 16 9 8 -10 14 12 -13 15 -15 23 -17 17 -19 -20 20 21 22 -24 24 -26 -27 -28
leaf_value=0.00026886844034849748 -0.0041792217488906573 -0.0040943424758870884 0.0017155858105295609 -0.0018433584003719333 0.000303704665057125 0.00048161154247640777 -0.0032143532839708721 0.0025408691832189494 -0.00050349055255987448 0.0025543851852841623 0.0011154255279850933 0.0025921220843713399 -0.0018266633356818157 0.00085690056423563473 -0.0025938205908251476 0.0004859731915823232 -0.0043671649912786926 -0.0010406929590471988 -0.0010661278835093122 -0.0041372245783399455 0.00015220743976265857 -0.0036079368421483081 -0.00035396518681947789 0.00091247051750932193 -0.0028270878430299651 8.7688970758520648e-06 0.00061611164344750342
leaf_weight=103 87 92 157 107 6369 131 89 105 384 91 310 477 269 86 251 173 88 309 117 103 134 151 86 114 170 7106 246
leaf_count=103 87 92 157 107 6369 131 89 105 384 91 310 477 269 86 251 173 88 309 117 103 134 151 86 114 170 7106 246
internal_value=-3.3217e-13 -0.00141589 -0.00090763 0.000273135 4.57135e-05 -0.00010399 -4.77221e-05 -0.00082536 0.000150206 4.06345e-05 0.000685571 0.00157064 -8.18047e-05 -0.00121362 -7.28639e-05 -0.000921491 -0.00121741 -0.00177805 -0.00239912 -0.00165214 -0.00206957 -0.00149554 -0.00242717 -0.000103177 -0.001326 -5.75002e-05 -0.001005
internal_weight=17905 560 473 264 17345 10976 10448 1066 489 9382 1404 652 752 175 7978 442 528 397 209 577 474 371 237 7887 284 7603 497
internal_count=17905 560 473 264 17345 10976 10448 1066 489 9382 1404 652 752 175 7978 442 528 397 209 577 474 371 237 7887 284 7603 497
is_linear=0
shrinkage=0.0221739


Tree=32
num_leaves=28
num_cat=0
split_feature=4 4 7 7 7 4 4 7 2 3 0 4 2 4 6 0 4 4 2 7 4 7 6 6 2 6 6
split_gain=1.48039 1.53074 1.73781 1.37328 1.42593 2.96982 2.29581 2.09919 1.34775 1.49255 1.33241 2.88699 1.17569 1.09438 1.07019 1.03835 1.03811 1.68695 1.78506 2.10816 1.5915 1.20989 1.0204 1.5155 1.4806 1.32312 1.02383
threshold=0.0060940529263753271 2.8754725267532426e-09 0.0089886839519264013 0.019479282263522944 0.0020080514996451983 0.50767646656827392 0.95517998789819714 0.0024101614121790336 22.528045743288647 1.0000000180025095e-35 14.438808441795119 0.45959487033028873 23.48149673357003 0.99135456127175237 1.0494397569517415 29.845371894114397 0.30435799039264871 0.63552939158566579 -22.078854750060483 0.002329834649019898 0.84188249590858089 0.0022521702840735849 1.3005837775313245 1.2216887530231271 30.94272223638443 1.4598499841009114 1.1209462612371133
decision_type=8 10 2 2 2 10 10 2 10 2 10 10 10 10 2 10 10 10 10 2 10 2 2 2 10 2 2
left_child=1 2 -1 4 5 12 15 16 9 -3 -5 -12 -2 -8 -10 -7 -6 -18 21 20 -20 -19 23 26 25 -24 -9
right_child=3 8 -4 10 7 6 13 22 14 -11 11 -13 -14 -15 -16 -17 17 18 19 -21 -22 -23 24 -25 -26 -27 -28
leaf_value=-0.0011426669518124081 -0.0024793379947524825 -0.0012931925742675004 0.0020577476881107576 0.0032166237053053042 0.00068441579967288375 0.0024508977926865618 -0.0022685404461245252 7.9856093758045763e-05 0.0014658971901776411 -0.0041492356087002033 0.0017122638284531812 -0.0015196962646324018 0.0007095783863623992 0.0007273310955828601 -0.0010918194125284573 0.0001627353434296202 -0.003198046063878906 -0.0010621350993725526 -0.0027659882659763759 0.003052806456020702 0.00051887766296185062 -0.004413669485526097 -0.001154108224187832 0.0012184991676871572 -0.003221207218205068 0.001878125077095988 -0.0005570763485839848
leaf_weight=157 164 494 178 113 143 540 99 11429 135 110 392 208 87 152 199 119 189 133 121 91 181 88 248 532 112 99 1392
leaf_count=157 164 494 178 113 143 540 99 11429 135 110 392 208 87 152 199 119 189 133 121 91 181 88 248 532 112 99 1392
internal_value=-3.8015e-12 -0.000728789 0.000557852 5.57809e-05 1.3139e-05 0.000761362 0.00135035 -4.57231e-05 -0.0011883 -0.00181333 0.00100784 0.000591851 -0.00137402 -0.000454307 -5.80118e-05 0.00203771 -0.00105622 -0.0013662 -0.000802328 9.42434e-05 -0.000797244 -0.00239668 2.34873e-05 5.88232e-05 -0.00100449 -0.000289004 1.07031e-05
internal_weight=17905 1273 335 16632 15919 1161 910 14758 938 604 713 600 251 251 334 659 946 803 614 393 302 221 13812 13353 459 347 12821
internal_count=17905 1273 335 16632 15919 1161 910 14758 938 604 713 600 251 251 334 659 946 803 614 393 302 221 13812 13353 459 347 12821
is_linear=0
shrinkage=0.0221739


Tree=33
num_leaves=28
num_cat=0
split_feature=5 7 7 6 6 7 5 8 7 8 7 8 1 1 6 1 7 1 7 5 6 1 7 7 6 7 6
split_gain=2.2464 3.23088 1.25406 1.43005 1.21579 1.10708 3.82661 2.49534 2.35712 1.89732 1.36107 1.32408 1.50191 1.07065 1.07308 1.0349 1.71177 2.56148 1.43402 1.08167 0.840556 1.43156 0.985388 1.27712 0.742274 2.00527 1.77507
threshold=70.755195220573498 0.0042155241191493527 0.0072158143592680824 1.0972181023788303 0.96430505280778811 0.0020080514996451983 52.361767091713567 0.71786720819656769 0.0037819507409562491 0.19875746391768132 0.0017539583584727611 0.50946150582701144 1.8322829888422325 -2.3867164427109517 0.90209804694722184 0.21273257455506925 0.003116578386564072 -7.0330330488909434 0.0026914487041563516 49.02060716905148 0.82947133955713914 7.6508232968637921 0.0090541900862279538 0.0055440694080109701 1.1292405514252801 0.0033114902865845571 1.0158482670704208
decision_type=2 2 2 2 2 2 2 2 2 2 2 2 10 10 2 10 2 8 2 2 2 10 2 2 2 2 2
left_child=5 -2 3 4 -3 6 7 10 9 15 13 -8 -13 -1 -15 16 19 -18 -17 -7 21 22 23 -10 26 -26 -11
right_child=1 2 -4 -5 -6 8 11 -9 20 24 -12 12 -14 14 -16 18 17 -19 -20 -21 -22 -23 -24 -25 25 -27 -28
leaf_value=-0.0034353345114224777 -0.0050647964732072753 -0.0026755553982184188 4.3043422713037365e-05 -0.0042076317156356027 0.00092849349695333749 0.00040717138629749004 0.0033575951515821345 0.002333694341950496 0.0020208947189706093 -0.00077774368071790014 0.00045387466845488145 0.0026722699789604827 -0.00071051304182776452 -0.0023268236194106807 0.00067608276081315244 -0.0018960162954636088 -0.0030034973160863246 0.0018434416357211601 0.00070434794652508078 0.0029947440173239818 0.00013888794235401437 -0.0016646256892601831 0.0034635856402930633 -0.00036852928191669695 -0.00038982555829119697 -0.0040678458778523763 0.00044009020810437588
leaf_weight=129 91 86 478 86 99 124 243 137 249 2844 203 137 122 125 110 175 102 113 258 221 10327 87 94 197 216 110 742
leaf_count=129 91 86 478 86 99 124 243 137 249 2844 203 137 122 125 110 175 102 113 258 221 10327 87 94 197 216 110 742
internal_value=-1.69776e-12 -0.00111947 -0.000640131 -0.00184514 -0.000746902 5.51043e-05 0.000702757 -0.000351973 5.85347e-06 -0.000398129 -0.00100089 0.0021819 0.00107884 -0.0018122 -0.000921208 0.000467471 0.00109693 -0.000456036 -0.000346608 0.00206472 0.000186749 0.000975051 0.00140033 0.000965476 -0.000617848 -0.00163088 -0.000525755
internal_weight=17905 840 749 271 185 17065 1206 704 15859 4905 567 502 259 364 235 993 560 215 433 345 10954 627 540 446 3912 326 3586
internal_count=17905 840 749 271 185 17065 1206 704 15859 4905 567 502 259 364 235 993 560 215 433 345 10954 627 540 446 3912 326 3586
is_linear=0
shrinkage=0.0221739


Tree=34
num_leaves=28
num_cat=0
split_feature=5 7 7 7 6 7 5 8 7 8 6 6 8 1 8 5 5 5 8 6 5 5 1 6 8 5 1
split_gain=2.17382 3.54302 1.27782 1.25366 1.69389 1.09313 4.15681 3.1589 2.21663 1.75463 1.06012 1.46039 1.03068 1.52877 0.986806 1.28231 1.10099 1.07956 0.982649 0.971248 0.963238 0.849747 0.973207 0.773611 0.748559 0.735443 2.41307
threshold=73.007785819469049 0.005320498285539251 0.015205593560477905 0.0088260479872470116 1.0700434913939583 0.0019746699173841795 52.361767091713567 0.71786720819656769 0.0037819507409562491 0.19875746391768132 1.0081397782021455 0.90587238422268335 0.51243305348500623 3.34188802475084 0.10285089049686273 47.303931913521069 48.281327049292209 51.997164280730964 0.27777777667548004 0.89770592418812678 67.584956494340545 57.278362276822847 -3.747226935724703 0.79170004321053156 0.22650803895552837 32.880053036162032 10.671597489580837
decision_type=2 2 2 2 2 2 2 2 2 2 2 2 2 10 2 2 2 2 2 2 2 2 10 2 2 2 10
left_child=5 -2 3 4 -3 6 7 10 9 14 11 18 -8 -14 15 -7 -16 -17 -1 -19 24 22 -18 -10 -11 26 -25
right_child=1 2 -4 -5 -6 8 12 -9 23 20 -12 -13 13 -15 16 17 21 19 -20 -21 -22 -23 -24 25 -26 -27 -28
leaf_value=-0.00011471630155586419 -0.0053902863400857705 0.0020363032772622212 0.001528804371708329 -0.0027707789937887234 -0.0019421834322287748 0.0014374969674833952 0.0033543130388626976 0.0026708266467510232 0.0015136459886702801 -0.0020183222357938674 -0.0033788228055392608 0.00072854267903722997 0.0027564420763291097 -0.00081751046813047397 -0.00028003580520436319 -0.0028668383958289005 0.004315712030321878 -0.0019604080569192894 -0.0029586508178778962 0.00088009919633501028 -0.0027049993961838206 0.00038084270873448874 0.0012740112081038723 -0.0012668304788607543 -0.00047867039140420597 0.00020034586778255371 0.0011230601468549422
leaf_weight=98 90 97 108 150 115 155 231 130 207 162 90 190 143 100 174 105 101 95 153 157 104 115 106 610 3733 10071 315
leaf_count=98 90 97 108 150 115 155 231 130 207 162 90 190 143 100 174 105 101 95 153 157 104 115 106 610 3733 10071 315
internal_value=-2.95262e-13 -0.00135975 -0.000587948 -0.00121947 -0.000121838 4.39009e-05 0.000709152 -0.0004272 -2.67895e-06 -0.000390539 -0.00118566 -0.000738079 0.00229381 0.00128568 0.000436244 -0.00024662 0.00114113 -0.000977819 -0.00184827 -0.000190727 -0.000598941 0.0019091 0.00275813 0.000170669 -0.000542707 0.000145387 -0.000452976
internal_weight=17905 560 470 362 212 17345 1135 661 16210 5007 531 441 474 243 1008 512 496 357 251 252 3999 322 207 11203 3895 10996 925
internal_count=17905 560 470 362 212 17345 1135 661 16210 5007 531 441 474 243 1008 512 496 357 251 252 3999 322 207 11203 3895 10996 925
is_linear=0
shrinkage=0.0221739


Tree=35
num_leaves=28
num_cat=0
split_feature=5 7 7 1 0 6 1 1 6 5 7 6 7 7 1 7 0 7 1 1 1 1 0 5 7 7 1
split_gain=2.07848 3.38763 1.22178 1.207 1.09726 2.58093 2.46157 2.12919 1.83364 1.71278 3.5284 1.84509 1.79584 2.76874 2.32012 2.11677 1.61064 1.54695 1.40219 1.56631 1.58054 1.45997 1.38225 1.7947 1.29988 1.37774 1.19013
threshold=73.007785819469049 0.005320498285539251 0.015205593560477905 -2.0906397594995032 28.425155183213391 0.87073723174558071 -3.1358853832407081 -7.8354774723587957 0.84729567994308164 68.230781146219186 0.0057711656158840191 1.0063976578842502 0.0032392327695101963 0.0040236210126799619 -11.493554176233571 0.0056506362055175905 14.97677538120624 0.012097484222852227 -25.509249489147447 -0.10354849544439103 -2.726394346902445 3.4656736421426584 40.164555646645127 39.256974510455784 0.012319243124339326 0.025261134038611646 -1.7441849858661225
decision_type=2 2 2 10 10 2 8 10 2 2 2 2 2 2 10 2 8 2 10 10 10 10 10 2 2 2 10
left_child=4 -2 3 -3 9 8 7 17 -6 11 -11 -1 -13 14 -14 -15 -12 22 -17 20 -20 -21 -7 -24 26 -26 -8
right_child=1 2 -4 -5 5 6 24 -9 -10 10 16 12 13 15 -16 18 -18 -19 19 21 -22 -23 23 -25 25 -27 -28
leaf_value=7.8814993425299997e-05 -0.0052707626196710619 -0.002663762584817419 0.0014949047633162397 -7.8208601290908849e-05 -0.00067943646410321881 -6.5261791585552055e-05 0.0018995957450314476 -0.0018849986815138702 -0.0051375442379125889 -0.0041107203530142376 -0.0021162346457144132 0.0022656538781533086 -0.0044101921062936183 0.0021438589304058468 0.00012690079895056746 0.0029685573799901302 0.0016547857801385839 0.0011433257189652894 8.7058179310765569e-05 0.0035885978461539189 -0.0026571385843062478 0.00014054934401960044 0.00068553347256871127 -0.0025039599750467062 0.0019886024260392073 -0.0010957617402135571 -1.8721809987392106e-05
leaf_weight=8108 90 156 108 206 96 731 166 577 86 138 86 346 95 449 133 94 158 294 777 112 119 131 119 320 341 90 3779
leaf_count=8108 90 156 108 206 96 731 166 577 86 138 86 346 95 449 133 94 158 294 777 112 119 131 119 320 341 90 3779
internal_value=-2.98953e-12 -0.0013296 -0.000574911 -0.00119243 4.29275e-05 -0.00018213 -0.000108279 -0.000744195 -0.00278601 0.000181133 -0.00127701 0.000234878 0.000795764 0.00052949 -0.00176355 0.000840319 0.000325656 -0.000294575 0.000365632 0.000150816 -0.000277405 0.00172977 -0.000655893 -0.00163938 0.000188318 0.00134454 6.19983e-05
internal_weight=17905 560 470 362 17345 6599 6417 2041 182 10746 382 10364 2256 1910 228 1682 244 1464 1233 1139 896 243 1170 439 4376 431 3945
internal_count=17905 560 470 362 17345 6599 6417 2041 182 10746 382 10364 2256 1910 228 1682 244 1464 1233 1139 896 243 1170 439 4376 431 3945
is_linear=0
shrinkage=0.0221739


Tree=36
num_leaves=28
num_cat=0
split_feature=4 1 4 6 2 1 2 1 0 4 1 1 4 0 6 4 2 6 1 4 1 2 2 2 4 6 1
split_gain=1.38744 1.67639 2.02508 1.6296 1.00232 0.982249 1.82873 1.22163 1.38505 1.15958 0.885766 0.790326 1.51933 0.963911 2.21865 1.98797 2.42858 2.05595 2.48777 2.29336 1.95982 1.85807 1.75214 1.70432 1.46536 1.83155 1.72723
threshold=0.0060940529263753271 -3.1358853832407081 2.0692559887791621e-09 1.1020045714547122 -13.518344337311326 26.785142395741463 -30.121712950722536 22.114152027102516 48.081542447407379 0.55608913927176717 20.238371578062324 16.29237168835181 0.22881675835203061 17.224266830238047 0.96179944160499931 0.73630893394079233 57.67683239424418 0.92205079229127207 -3.747226935724703 0.90099556869757713 -1.7441849858661225 21.55779821815845 -72.354367564174581 -22.970081343231008 0.45959487033028873 0.92475056651882237 -7.9782069288005211
decision_type=8 10 10 2 10 10 10 8 8 10 10 10 10 10 2 10 10 2 10 10 10 10 10 10 10 2 10
left_child=1 3 -3 -1 -5 7 -7 10 9 -9 11 13 -13 15 24 16 20 18 23 -19 -2 -22 -16 -17 25 -15 -26
right_child=5 2 -4 4 -6 6 -8 8 -10 -11 -12 12 -14 14 22 17 -18 19 -20 -21 21 -23 -24 -25 26 -27 -28
leaf_value=-0.00028637117939497788 0.00044683109974539057 0.0021241746388176797 -0.00066416789347621729 -0.0018639121507069477 -0.0049125950424918656 0.0010417398684723811 -0.001999391505076639 -0.0018103608578124211 0.0026019179337462019 0.0016912402603374013 -0.0015544004686807915 0.0030769972676653215 0.00023607849928255036 0.00018109914035689711 -0.0023434862264687757 -0.0019717428259522682 -0.0024864852738616635 0.00049664073137957432 0.00074323513236407681 0.0028637009757180518 6.4955117744741465e-05 -0.0026331869855881172 0.00017295340506111561 -2.1982378033190516e-05 -0.0020447867387277411 -0.0032412767337906493 -0.00021735415962257439
