tree
version=v4
num_class=1
num_tree_per_iteration=1
label_index=0
max_feature_idx=8
objective=regression
feature_names=market_energy energy_slope mpo mpo_bias compression_index rsi_14 atr_ratio bb_width candle_body_ratio
feature_infos=[0.13384117038498144:97.927199902011566] [-57.543238020617338:79.636328852638528] [-89.994772978980222:91.456099829562717] [-1:1] [3.1641844699947796e-10:1] [10.978976161214863:93.003605777006939] [0.5148272213526508:2.4855732164493012] [0.00016216785388484814:0.11571183405186618] [0:0.99999999951783991]
tree_sizes=1274 1335 1343 1327 1329 1329 1333 1334 1325 1329 1353 1340 1331 1333 1326 1352 1338 1330 1337 1330 1337 1324 1327 1336 1338 1314 1333 1337 1330 1317 1320 1329 1325 1317 1347 1332 1340 1339 1326 1310 1334 1316 1340 1322 1350 1328 1343 1326 1325 1333 1327 1331 1339 1343 1326 1307 1339 1325 1333 1328 1340 1339 1323 1325 1318 1322 1328 1320 1322 1311 1328 1312 1329 1326 1344 1343 1352 1320 1332 1330 1332 1348 1325 1304 1343 1306 1332 1318 1330 1312 1328 1335 1338 1334 1329 1331 1321 1321 1323 1319

Tree=0
num_leaves=13
num_cat=0
split_feature=4 4 8 8 6 6 1 1 1 6 4 1
split_gain=5.21209 2.29985 2.27821 2.07298 2.4152 2.10873 1.78518 2.28275 2.21966 1.91314 1.84664 1.84883
threshold=0.73528879864615504 0.98293943914760395 0.48330235269521865 0.18137906191521622 1.0912958114268225 0.96629251968995566 30.106718075080554 38.660510589633382 0.70223989109056506 0.98043318252900291 0.0030009624534625416 -0.096218079078389515
decision_type=10 10 2 2 2 2 8 10 10 2 10 10
left_child=3 2 -2 4 -1 -5 8 -8 10 -10 -7 -12
right_child=1 -3 -4 5 -6 6 7 -9 9 -11 11 -13
leaf_value=0.65873521163288462 0.65918419752799107 0.65637046391785103 0.65725078491832145 0.65470408753855713 0.65532699536454353 0.65223589238249535 0.65063689801201752 0.65745718544208231 0.65279259513643062 0.65787215811904143 0.65629284164068857 0.65056402443490946
leaf_weight=1286 2826 1727 2356 2249 665 282 251 176 167 2443 3446 123
leaf_count=1286 2826 1727 2356 2249 665 282 251 176 167 2443 3446 123
internal_value=0.656832 0.657822 0.658305 0.656215 0.657574 0.655925 0.656323 0.653448 0.656513 0.657547 0.655813 0.656095
internal_weight=17997 6909 5182 11088 1951 9137 6888 427 6461 2610 3851 3569
internal_count=17997 6909 5182 11088 1951 9137 6888 427 6461 2610 3851 3569
is_linear=0
shrinkage=1


Tree=1
num_leaves=13
num_cat=0
split_feature=5 2 8 2 4 2 5 0 8 5 2 8
split_gain=5.57018 6.84421 2.5472 2.32477 1.95322 2.06163 2.00515 2.80545 1.94342 1.74977 1.6107 1.86576
threshold=66.637329997923203 70.872684926571509 0.18137906191521622 34.320163300750501 4.3807579230836788e-09 64.153486304377751 75.662940462823826 38.658819952832694 0.54169947443389377 61.998855222947853 -37.579365067505968 0.016691995906757243
decision_type=2 10 2 8 8 10 2 10 2 2 10 2
left_child=1 2 9 -2 -5 6 -6 -8 -7 10 -1 -12
right_child=3 -3 -4 4 5 8 7 -9 -10 -11 11 -13
leaf_value=0.0023965768159723436 -0.0075584610273981313 0.0028057304192425497 -0.00037891579424908286 -0.0093726515655666778 0.0010995772125757639 -0.006255509234162117 -0.009347521338391793 0.0010074374014428114 -0.00083615938989496392 0.0052939155677400587 -0.0047058317356249895 0.00050282260204813898
leaf_weight=904 173 1958 11710 71 654 301 106 115 260 203 162 1380
leaf_count=904 173 1958 11710 71 654 301 106 115 260 203 162 1380
internal_value=-1.80122e-10 0.000259192 -8.80551e-05 -0.0025174 -0.0019387 -0.00157115 -0.000178124 -0.00395919 -0.00374387 0.00119771 0.00085775 -4.43901e-05
internal_weight=17997 16317 14359 1680 1507 1436 875 221 561 2649 2446 1542
internal_count=17997 16317 14359 1680 1507 1436 875 221 561 2649 2446 1542
is_linear=0
shrinkage=0.0459148


Tree=2
num_leaves=13
num_cat=0
split_feature=4 2 0 4 6 0 2 4 0 4 4 4
split_gain=4.51986 2.60044 2.65886 2.69864 2.59378 2.4668 2.11616 2.7327 2.47274 2.32975 2.05471 2.15582
threshold=0.73528879864615504 13.11879491871027 12.122705120507252 0.8632916593341603 1.0519341189387983 15.245598872420549 -34.955936158260528 0.47763113128639018 67.797989084495171 0.50049822297404178 0.9787147562475228 0.92142274306701777
decision_type=10 10 10 10 2 8 8 10 10 10 10 10
left_child=5 4 3 -3 10 -1 7 -7 -8 -9 11 -2
right_child=1 2 -4 -5 -6 6 8 9 -10 -11 -12 -13
leaf_value=-0.0022134584819080891 -0.00076060441695282471 0.0065452291442295012 0.00075509564340363593 0.0020620804467353692 0.0060321024422359537 0.0018756550135646194 -0.00054314430249727264 -0.0091108115253362813 -0.0049811861450402995 -0.00052611574513763081 -0.002709885425637608 0.0027165138836636321
leaf_weight=1648 1287 372 2726 1184 133 1750 6446 72 276 896 676 531
leaf_count=1648 1287 372 2726 1184 133 1750 6446 72 276 896 676 531
internal_value=1.5967e-11 0.000921794 0.0016195 0.00313389 -0.000215471 -0.000574376 -0.000288231 0.000792869 -0.000725367 -0.00116465 -0.000548641 0.00025499
internal_weight=17997 6909 4282 1556 2627 11088 9440 2718 6722 968 2494 1818
internal_count=17997 6909 4282 1556 2627 11088 9440 2718 6722 968 2494 1818
is_linear=0
shrinkage=0.0459148


Tree=3
num_leaves=13
num_cat=0
split_feature=5 7 6 5 7 7 6 6 7 6 5 7
split_gain=4.99887 5.97094 3.10791 2.06837 2.69502 2.21586 1.75055 1.72164 1.62 2.20683 1.78098 1.60382
threshold=66.637329997923203 0.0070028776879439503 0.90555449701682045 52.435175642460024 0.0019548910753084824 0.002783101624671179 1.112062903992298 1.1872711601567782 0.0037457547899026672 1.1372384175996415 68.743122172412654 0.0040523243441399686
decision_type=2 2 2 2 2 2 2 2 2 2 2 2
left_child=3 8 -3 5 -5 -1 -6 -4 10 -10 -2 -8
right_child=1 2 7 4 6 -7 11 -9 9 -11 -12 -13
leaf_value=-0.0015849816472835445 -0.0040421102277528745 0.009389852745500556 0.00083061327332390345 0.0044145867663403704 0.00092394379866108831 0.00016145713836373358 -0.0047752356958311549 -0.0038131630829759755 -0.0027418260258378147 -0.0098749280914265068 -0.012769299323676202 -0.00013828123012208596
leaf_weight=1909 90 72 558 423 5431 7747 214 241 498 112 109 593
leaf_count=1909 90 72 558 423 5431 7747 214 241 498 112 109 593
internal_value=3.87769e-11 -0.00238481 0.000253248 0.000245541 0.000867949 -0.000183815 0.000627451 -0.000570075 -0.00522505 -0.00405151 -0.00882233 -0.00136791
internal_weight=17997 1680 871 16317 6661 9656 6238 799 809 610 199 807
internal_count=17997 1680 871 16317 6661 9656 6238 799 809 610 199 807
is_linear=0
shrinkage=0.0459148


Tree=4
num_leaves=13
num_cat=0
split_feature=5 2 8 2 5 8 2 5 1 8 1 2
split_gain=4.55037 5.82997 2.33077 2.07294 1.57893 1.57585 1.71946 2.26957 1.84664 1.59098 1.50756 1.48367
threshold=66.637329997923203 70.872684926571509 0.18137906191521622 34.320163300750501 61.998855222947853 0.5444747508412181 64.842576824802606 74.794009809909312 0.29600608442232007 0.31583392532713256 -4.0232584319921942 -37.579365067505968
decision_type=2 10 2 8 2 2 10 2 10 2 10 10
left_child=1 2 4 -2 11 6 7 -5 -8 -9 -3 -1
right_child=3 10 -4 5 -6 -7 8 9 -10 -11 -12 -13
leaf_value=0.0022976695754519088 -0.0070355119152535374 0.00031445712814843715 -0.00036444978292964313 0.00031654827494170113 0.0050348085448483314 -3.548147213331589e-05 -0.0021382698886505736 -0.0021570683188776654 -0.0095200460970789377 -0.011206385169787118 0.0032995866935486779 -4.5063708759000741e-05
leaf_weight=904 173 469 11710 399 203 655 139 95 147 72 1489 1542
leaf_count=904 173 469 11710 399 203 655 139 95 147 72 1489 1542
internal_value=2.9805e-11 0.000234267 -8.62202e-05 -0.00227531 0.0011437 -0.00172886 -0.00303069 -0.00156445 -0.0059324 -0.00605857 0.00258456 0.000820771
internal_weight=17997 16317 14359 1680 2649 1507 852 566 286 167 1958 2446
internal_count=17997 16317 14359 1680 2649 1507 852 566 286 167 1958 2446
is_linear=0
shrinkage=0.0459148


Tree=5
num_leaves=13
num_cat=0
split_feature=5 2 6 2 2 6 5 2 0 2 2 1
split_gain=4.1421 5.3069 2.08781 2.11004 3.17152 2.00439 1.79715 2.71037 1.73202 1.78343 1.44584 1.37455
threshold=66.637329997923203 70.872684926571509 1.2496993703598596 35.718732918525852 64.153486304377751 1.2912839045387117 30.37350214817944 -37.579365067505968 67.797989084495171 -37.027453139157146 12.036994377490929 -6.1553236701802687
decision_type=2 10 2 8 10 2 2 10 10 10 10 10
left_child=1 5 3 -2 -5 6 7 -1 -8 -10 -11 -3
right_child=2 11 -4 4 -6 -7 8 -9 9 10 -12 -13
leaf_value=-0.0014696659854185141 -0.0062269501357169674 -0.00048160399408713535 -0.0063405815531159537 0.001119143457969926 -0.0034852043771282219 0.0022416566691088524 -4.0394102491646165e-05 -0.011215451747885444 0.0016673198889307534 -0.010601790317713055 -0.0023250413238755431 0.0029680020111737047
leaf_weight=342 178 285 220 722 560 742 12939 73 85 88 90 1673
leaf_count=342 178 285 220 722 560 742 12939 73 85 88 90 1673
internal_value=-3.2162e-11 0.00022351 -0.00217084 -0.00154253 -0.000892116 -8.22615e-05 -0.000208893 -0.00318398 -0.000115373 -0.00380414 -0.00641692 0.00246589
internal_weight=17997 16317 1680 1460 1282 14359 13617 415 13202 263 178 1958
internal_count=17997 16317 1680 1460 1282 14359 13617 415 13202 263 178 1958
is_linear=0
shrinkage=0.0459148


Tree=6
num_leaves=13
num_cat=0
split_feature=5 7 6 5 7 7 0 1 0 0 6 7
split_gain=3.77047 5.42594 2.80265 1.70473 2.43208 2.03264 1.9755 2.05906 1.86064 1.76747 1.52074 1.50053
threshold=66.637329997923203 0.0070028776879439503 0.90555449701682045 52.435175642460024 0.0019548910753084824 0.002783101624671179 41.266994652454279 4.7948748549011171 47.131846413336838 15.245598872420549 1.112062903992298 0.0042053757041979663
decision_type=2 2 2 2 2 2 10 8 10 10 2 2
left_child=3 11 -3 5 -5 6 7 9 -8 -1 -6 -2
right_child=1 2 -4 4 10 -7 8 -9 -10 -11 -12 -13
leaf_value=-0.00020383853082347382 -0.0075882051159594449 0.0091199373244076481 -0.00033823174164143818 0.0041474841905060813 0.00082618225141289079 0.00015414686348154877 -0.01090426969277691 0.0015313114670708571 -0.0024834385483900883 -0.0037761381610039156 -0.001309938104768913 -0.0033869041901895525
leaf_weight=580 268 72 799 423 5431 7747 84 495 162 588 807 541
leaf_count=580 268 72 799 423 5431 7747 84 495 162 588 807 541
internal_value=-3.33785e-11 -0.00207117 0.000443615 0.000213248 0.000778301 -0.000176543 -0.00151853 -0.000950449 -0.00535884 -0.00200222 0.000549836 -0.00477868
internal_weight=17997 1680 871 16317 6661 9656 1909 1663 246 1168 6238 809
internal_count=17997 1680 871 16317 6661 9656 1909 1663 246 1168 6238 809
is_linear=0
shrinkage=0.0459148


Tree=7
num_leaves=13
num_cat=0
split_feature=5 2 8 6 6 2 2 5 8 8 8 5
split_gain=3.43217 4.70075 2.12826 2.28543 1.93185 1.92909 2.84226 1.68444 2.10951 1.59741 1.53192 1.47863
threshold=66.637329997923203 70.872684926571509 0.18137906191521622 1.2912839045387117 1.2496993703598596 35.718732918525852 64.153486304377751 30.37350214817944 0.74773603075318085 0.80143429222974671 0.54169947443389377 75.662940462823826
decision_type=2 10 2 2 2 8 10 2 2 2 2 2
left_child=1 2 -1 7 5 -2 9 8 -4 11 -8 -7
right_child=4 -3 3 -5 -6 6 10 -9 -10 -11 -12 -13
leaf_value=0.0010909537793595064 -0.0058507394363751328 0.0023138907389340536 -0.006059529229192351 0.0023219600311955059 -0.0059870504741816322 0.0012714193555548139 -0.0054402253446533388 -0.00040459613191773657 0.0020132157243318554 0.0061944283925329177 -0.00062498305268976874 -0.0046724883094310353
leaf_weight=2649 178 1958 236 638 220 503 300 10740 96 112 260 107
leaf_count=2649 178 1958 236 638 220 503 300 10740 96 112 260 107
internal_value=1.26975e-11 0.000203457 -8.43231e-05 -0.000350191 -0.00197607 -0.00137168 -0.000749781 -0.000504168 -0.00372524 0.00115422 -0.00320458 0.000228799
internal_weight=17997 16317 14359 11710 1680 1460 1282 11072 332 722 560 610
internal_count=17997 16317 14359 11710 1680 1460 1282 11072 332 722 560 610
is_linear=0
shrinkage=0.0459148


Tree=8
num_leaves=13
num_cat=0
split_feature=2 5 8 5 8 8 2 2 5 1 1 2
split_gain=3.17649 3.37706 2.18966 2.06863 2.29276 1.92494 1.65272 1.54794 2.7011 1.42907 1.2818 1.23667
threshold=74.191252342489619 70.033503679006088 0.88204197371121584 68.129742552740012 0.36152131019558231 0.18137906191521622 37.778715802674334 43.249116763958519 74.794009809909312 -3.524748928512929 6.5944588351274236 41.796985756256909
decision_type=10 2 2 2 2 2 10 10 2 10 10 10
left_child=1 5 6 9 -5 -1 -3 -8 10 -2 -9 -7
right_child=3 2 -4 4 -6 11 7 8 -10 -11 -12 -13
leaf_value=0.0010324503164218202 -0.00021432446659449679 -0.0078534849920311334 0.0048241063885155399 -0.0092258165033917254 0.001246447744605891 -0.00057337022160199936 0.0017788209364854931 -0.0027049946742827569 -0.0078884872195374295 0.0032140164265094086 0.0044484739757344035 0.00043443004145952546
leaf_weight=2866 328 161 69 70 119 9001 132 215 202 1173 70 3591
leaf_count=2866 328 161 69 70 119 9001 132 215 202 1173 70 3591
internal_value=9.12397e-13 -0.000196374 -0.00301578 0.00189483 -0.00263217 -4.15231e-05 -0.00370931 -0.00263142 -0.00382681 0.00246485 -0.000948002 -0.000285965
internal_weight=17997 16307 849 1690 189 15458 780 619 487 1501 285 12592
internal_count=17997 16307 849 1690 189 15458 780 619 487 1501 285 12592
is_linear=0
shrinkage=0.0459148


Tree=9
num_leaves=13
num_cat=0
split_feature=2 7 0 7 7 8 0 1 7 2 0 7
split_gain=2.89149 2.52052 1.9848 2.65674 2.39576 1.737 2.31316 2.19975 2.39414 1.79782 2.88944 1.66768
threshold=74.191252342489619 0.0098838830602148309 10.351308340530709 0.0039473643415035226 0.002683641120057399 0.18137906191521622 66.295648764360365 -15.953025962928697 0.0021560892460012497 -37.027453139157146 18.232344273900178 0.019467273340153711
decision_type=10 2 10 2 2 2 10 8 2 10 10 2
left_child=5 2 3 4 -2 6 7 9 -9 -1 -11 -7
right_child=1 -3 -4 -5 -6 11 -8 8 -10 10 -12 -13
leaf_value=0.0034390867992980171 0.0060283049437763331 0.0078258358101505835 0.00049828503145476198 0.0094201898406151095 -0.0053666891040003795 -0.00052515013874402674 -0.0073812857071739648 -0.0029572517900604799 0.0019446771373188394 0.0023585994905296667 -0.0071069873977921182 0.0019442268188863757
leaf_weight=92 82 135 1264 135 74 12690 71 231 2316 103 200 604
leaf_count=92 82 135 1264 135 74 12690 71 231 2316 103 200 604
internal_value=-2.5167e-11 0.00180783 0.00128537 0.00470416 0.000622987 -0.000187357 0.000808035 0.00100567 0.0015001 -0.00218244 -0.00388931 -0.000412956
internal_weight=17997 1690 1555 291 156 16307 3013 2942 2547 395 303 13294
internal_count=17997 1690 1555 291 156 16307 3013 2942 2547 395 303 13294
is_linear=0
shrinkage=0.0459148


Tree=10
num_leaves=13
num_cat=0
split_feature=4 4 7 7 2 4 7 2 7 7 2 2
split_gain=3.07625 2.09641 2.51052 2.44612 2.07394 2.59898 3.51712 2.55405 2.3091 2.0364 1.75167 1.69736
threshold=0.73034149730299991 0.98293943914760395 0.0016593424782920462 0.0019548910753084824 -34.955936158260528 0.47763113128639018 0.01340320056156547 -60.468784200790694 0.01340320056156547 0.003473601547011968 13.11879491871027 30.079043592892358
decision_type=10 10 2 2 8 10 2 10 2 2 10 8
left_child=4 3 -3 -2 5 -1 7 -7 11 -5 -11 -6
right_child=1 2 -4 9 8 6 -8 -9 -10 10 -12 -13
leaf_value=0.0016320599438388976 0.004303528587621455 -0.0085762341087551718 -0.00024730681805673843 -0.00057637676234454402 -0.001882547578633761 0.0027415179176529659 -0.0081930807972254733 -0.0019589447613188268 0.0014909149990343068 0.00013911502220564004 0.0023109590282489995 -0.0004699382739018162
leaf_weight=1832 489 80 1647 1402 3332 384 132 667 791 1243 2115 3883
leaf_count=1832 489 80 1647 1402 3332 384 132 667 791 1243 2115 3883
internal_value=-3.83967e-11 0.00075452 -0.000633129 0.00121108 -0.000477591 0.000548781 -0.00112879 -0.000241554 -0.000864115 0.000893386 0.00150703 -0.0011223
internal_weight=17997 6976 1727 5249 11021 3015 1183 1051 8006 4760 3358 7215
internal_count=17997 6976 1727 5249 11021 3015 1183 1051 8006 4760 3358 7215
is_linear=0
shrinkage=0.0459148


Tree=11
num_leaves=13
num_cat=0
split_feature=5 2 8 8 5 0 5 2 5 5 8 2
split_gain=2.94639 3.55596 1.66135 1.55813 1.32826 1.86927 2.46194 1.7422 1.61879 2.10207 1.58452 1.45435
threshold=66.637329997923203 70.872684926571509 0.14285714253013834 0.57293136235182773 40.518262827797905 17.390129239796753 34.605021682331831 32.694074335792564 58.334905946053688 57.638971181425909 0.47416413229729309 -71.419838065731241
decision_type=2 10 2 2 2 8 2 10 2 2 2 10
left_child=1 2 -1 -2 5 -4 11 8 9 -6 -10 -7
right_child=3 -3 4 -5 7 6 -8 -9 10 -11 -12 -13
leaf_value=0.001135491643908577 -0.0029599035772624131 0.0020240624804734354 -0.0023087913711337541 -9.9068964823953012e-05 -0.00092149124078995967 -0.0060581937181365198 0.0025806667457059763 0.00025012291845291152 -4.2608772994273621e-06 0.0069756984657801243 -0.0063872573341937798 5.18104684256858e-05
leaf_weight=2088 1017 1958 383 663 5427 90 1196 3812 130 72 222 939
leaf_count=2088 1017 1958 383 663 5427 90 1196 3812 130 72 222 939
internal_value=2.28099e-13 0.000188509 -6.17877e-05 -0.0018309 -0.000265514 0.000653997 0.001164 -0.000513685 -0.00101132 -0.000818091 -0.0040299 -0.000482592
internal_weight=17997 16317 14359 1680 12271 2608 2225 9663 5851 5499 352 1029
internal_count=17997 16317 14359 1680 12271 2608 2225 9663 5851 5499 352 1029
is_linear=0
shrinkage=0.0459148


Tree=12
num_leaves=13
num_cat=0
split_feature=4 0 5 5 6 8 4 8 8 5 5 0
split_gain=2.70441 2.31184 2.26093 2.31216 1.96113 1.97963 1.9534 1.94383 1.80479 1.83347 2.19751 2.01265
threshold=0.73528879864615504 15.245598872420549 40.125618055441812 70.455314248631112 1.0444482742464121 0.21978943826287872 0.98293943914760395 0.48330235269521865 0.83140648386398286 41.967769886959623 48.861076052990036 15.245598872420549
decision_type=10 8 2 2 2 2 10 2 2 2 2 10
left_child=1 2 -1 4 5 -4 7 -2 9 11 -11 -8
right_child=6 -3 3 -5 -6 -7 8 -9 -10 10 -12 -13
leaf_value=-0.0078183438887365394 0.0019706855044251555 -0.00016728167167524217 0.0013449234995626886 -0.0092306163914217844 0.0037296570914696486 -0.0027737516204039024 0.0083965642658406937 0.00018478582736376374 0.0040530691133583447 -0.0048758704396953999 -0.00062355094985096357 -0.0013047627832754496
leaf_weight=131 2826 9440 332 78 157 950 85 2356 158 339 1049 96
leaf_count=131 2826 9440 332 78 157 950 85 2356 158 339 1049 96
internal_value=-6.00662e-12 -0.000444293 -0.00203106 -0.0015313 -0.00111396 -0.00170714 0.00071303 0.00115872 -0.000624313 -0.00109533 -0.00166212 0.00325111
internal_weight=17997 11088 1648 1517 1439 1282 6909 5182 1727 1569 1388 181
internal_count=17997 11088 1648 1517 1439 1282 6909 5182 1727 1569 1388 181
is_linear=0
shrinkage=0.0459148


Tree=13
num_leaves=13
num_cat=0
split_feature=5 7 2 4 2 6 6 4 2 7 4 6
split_gain=2.63208 4.98736 3.16271 2.45509 2.10679 2.01059 1.64072 1.68141 2.93214 1.40723 3.65562 2.13065
threshold=66.637329997923203 0.0070028776879439503 71.285983646544182 0.022747062027904278 37.778715802674334 1.2220383232679211 1.2912839045387117 0.0082343150120735027 30.079043592892358 0.0042053757041979663 0.75373904118137058 1.1372384175996415
decision_type=2 2 10 10 10 2 2 10 10 2 10 2
left_child=2 9 6 5 -5 -3 7 8 -1 10 -2 -11
right_child=1 3 -4 4 -6 -7 -8 -9 -10 11 -12 -13
leaf_value=-0.0030965156358922145 -0.0028767302907868357 0.00062868204441234271 0.0019395469790558487 -0.0030823007633076684 0.0030256706080470605 -0.010222148214087319 0.0020489626842143511 -2.9439359521494254e-05 0.0041697664631363341 -0.00152276456830701 -0.013942511082388026 -0.0086820972945912331
leaf_weight=805 167 72 1899 150 577 72 742 12734 137 431 101 110
leaf_count=805 167 72 1899 150 577 72 742 12734 137 431 101 110
internal_value=-2.26579e-11 -0.00173048 0.000178171 0.000680525 0.00176543 -0.00479673 -5.38208e-05 -0.000167909 -0.00203974 -0.00432627 -0.00704704 -0.00297845
internal_weight=17997 1680 16317 871 727 144 14418 13676 942 809 268 541
internal_count=17997 1680 16317 871 727 144 14418 13676 942 809 268 541
is_linear=0
shrinkage=0.0459148


Tree=14
num_leaves=13
num_cat=0
split_feature=2 0 8 0 8 6 0 2 2 6 6 6
split_gain=2.13006 1.52508 1.40867 2.07314 1.35163 1.76529 1.66628 1.22795 1.26083 1.21124 1.17929 1.69367
threshold=74.191252342489619 10.351308340530709 0.18137906191521622 66.295648764360365 0.034996066382404496 1.1372384175996415 34.526024998056599 -31.130142925660262 -54.573243449963606 0.98043318252900291 1.1741881378913879 1.243854498740838
decision_type=10 10 2 10 2 2 8 10 8 2 2 2
left_child=2 -2 3 4 7 6 -6 8 -1 -8 -7 -12
right_child=1 -3 -4 -5 5 10 9 -9 -10 -11 11 -13
leaf_value=-0.0017533547281783381 0.0044446623875692764 0.00089404422106376482 -0.00036396852050232385 -0.0070172434320915503 0.0013375600225203758 -0.0062373421309266227 0.00063948946661112889 -0.0024386414935405921 0.0053975170604335671 0.0065629669452768177 0.0043479233983983864 -0.0032563704481996429
leaf_weight=102 313 1377 13294 71 1632 87 103 411 106 248 107 146
leaf_count=102 313 1377 13294 71 1632 87 103 411 106 248 107 146
internal_value=-2.64595e-11 0.00155164 -0.000160807 0.000735585 0.000922686 0.00143071 0.00195481 -0.000983824 0.00189084 0.00482474 -0.00162603 -4.03252e-05
internal_weight=17997 1690 16307 3013 2942 2323 1983 619 208 351 340 253
internal_count=17997 1690 16307 3013 2942 2323 1983 619 208 351 340 253
is_linear=0
shrinkage=0.0459148


Tree=15
num_leaves=13
num_cat=0
split_feature=4 0 4 0 2 1 2 4 2 0 4 6
split_gain=2.27806 2.19058 1.80791 1.8082 1.86556 1.69293 1.57335 2.1891 2.40846 1.69677 1.58657 1.55253
threshold=0.73034149730299991 9.8634646368829699 0.98293943914760395 12.260507776448295 -61.123843253428255 -3.3287867350913127 -34.955936158260528 0.47763113128639018 -61.123843253428255 67.797989084495171 0.069499027124066151 0.90786364535183683
decision_type=10 8 10 10 10 10 8 10 10 10 10 2
left_child=1 5 3 4 -2 -1 7 10 -9 -8 -3 -4
right_child=2 6 11 -5 -6 -7 9 8 -10 -11 -12 -13
leaf_value=-0.0012488410042813779 -0.0011106540613069458 -0.00022346289672874761 -0.0015094850784709405 0.0004742116015284857 0.0029526239216943993 -0.0061571787268763145 -0.0004663474638312432 0.0018938090667642688 -0.0025973440449227636 -0.0041347394776830824 0.002630253341363202 0.0015386717698136448
leaf_weight=413 285 630 1234 3513 1451 231 7202 395 694 276 1180 493
leaf_count=413 285 630 1234 3513 1451 231 7202 395 694 276 1180 493
internal_value=-9.12397e-12 -0.000410987 0.000649296 0.00107328 0.00228555 -0.00300944 -0.000249726 0.000658301 -0.000968322 -0.000601741 0.00163697 -0.00063934
internal_weight=17997 11021 6976 5249 1736 644 10377 2899 1089 7478 1810 1727
internal_count=17997 11021 6976 5249 1736 644 10377 2899 1089 7478 1810 1727
is_linear=0
shrinkage=0.0459148


Tree=16
num_leaves=13
num_cat=0
split_feature=2 7 8 1 7 2 6 7 1 8 1 6
split_gain=1.89509 2.22813 1.28482 1.64684 2.21448 1.5124 1.40005 1.38785 1.44478 1.30615 1.42043 1.20907
threshold=74.191252342489619 0.0098838830602148309 0.18137906191521622 -15.953025962928697 0.0021560892460012497 -37.027453139157146 1.0478905107020509 0.019467273340153711 14.183562092723108 0.034996066382404496 -3.0341991011644107 1.1047556274471362
decision_type=10 2 2 8 2 10 2 2 10 2 10 2
left_child=2 -2 3 5 -5 -1 -7 -4 -9 10 -6 -11
right_child=1 -3 7 4 9 6 -8 8 -10 11 -12 -13
leaf_value=0.0031028874072230135 0.00097233469454567232 0.0071217641788942848 -0.00044805252873753352 -0.0031007864057036516 0.0023396578778338644 6.2418586135264251e-05 -0.0062554790616154085 0.00093354134853590844 0.0075936184048246052 0.0026370532924397815 -0.002715764832833398 -0.00035112642394634558
leaf_weight=92 1555 135 12690 238 202 127 177 525 79 1548 279 350
leaf_count=92 1555 135 12690 238 202 127 177 525 79 1548 279 350
internal_value=-1.77157e-11 0.00146356 -0.000151678 0.000704402 0.00112197 -0.00205512 -0.00361609 -0.000345703 0.00180464 0.00154442 -0.000592697 0.00208602
internal_weight=17997 1690 16307 3013 2617 396 304 13294 604 2379 481 1898
internal_count=17997 1690 16307 3013 2617 396 304 13294 604 2379 481 1898
is_linear=0
shrinkage=0.0459148


Tree=17
num_leaves=13
num_cat=0
split_feature=4 6 2 4 4 4 6 7 7 7 4 6
split_gain=1.98847 1.77504 1.78707 1.8535 1.84738 2.29539 2.16973 1.91069 2.19742 1.74315 1.64269 1.49922
threshold=0.73528879864615504 1.0362424143326308 13.11879491871027 0.8664380889185227 0.9787147562475228 0.91516461509264557 0.85655001167452915 0.0054329771702949928 0.0079879312330998885 0.0018820458698183371 0.78958015762006284 0.94190307478027735
decision_type=10 2 10 10 10 10 2 2 2 2 10 2
left_child=-1 2 4 10 5 6 -2 -7 -9 -8 -4 -12
right_child=1 -3 3 -5 -6 7 9 8 -10 -11 11 -13
leaf_value=-0.00038097261048140218 0.0030232588994863062 0.0036081121581857316 0.00029077685834854325 0.00034087023616208263 -0.0026104509029291306 0.004324609954009657 0.0042465522213346015 -0.0057900997047970002 0.0048402653683865442 -0.0024959864611597527 0.004925187957616972 0.00069337939892704552
leaf_weight=11088 237 393 480 2746 667 405 89 101 69 881 589 252
leaf_count=11088 237 393 480 2746 667 405 89 101 69 881 589 252
internal_value=-2.20496e-11 0.000611409 0.000430668 0.00102072 -0.000549218 0.000222299 -0.000915086 0.00260982 -0.00147542 -0.00187734 0.00243394 0.00365715
internal_weight=17997 6909 6516 4067 2449 1782 1207 575 170 970 1321 841
internal_count=17997 6909 6516 4067 2449 1782 1207 575 170 970 1321 841
is_linear=0
shrinkage=0.0459148


Tree=18
num_leaves=13
num_cat=0
split_feature=5 7 2 4 2 7 2 5 7 4 5 7
split_gain=2.36229 4.55597 2.36547 2.15991 1.85352 1.41525 1.53502 1.46871 1.3064 2.67266 1.23124 2.32859
threshold=66.637329997923203 0.0070028776879439503 70.872684926571509 0.022747062027904278 37.778715802674334 0.0037699986188415393 50.781842696241021 59.748408472764488 0.0037457547899026672 0.74586000463043967 62.925616994728976 0.0029492612285826167
decision_type=2 2 10 10 10 2 10 2 2 10 2 2
left_child=2 8 5 -3 -5 10 7 -7 9 -2 -1 -12
right_child=1 3 -4 4 -6 6 -8 -9 -10 -11 11 -13
leaf_value=-0.00079249199320521023 -0.0031234677486864032 -0.00447247676266419 0.0016658799319498965 -0.0028644375100078585 0.0028646408928627611 0.00023054162884231734 0.0015930271811208279 -0.0020221020276824406 -0.0030665336276230934 -0.014048577641090011 0.00786823817927647 -0.0018125845927470391
leaf_weight=4930 122 144 1958 150 577 6940 1610 669 610 77 100 110
leaf_count=4930 122 144 1958 150 577 6940 1610 669 610 77 100 110
internal_value=-1.33058e-11 -0.0016394 0.000168793 0.000664978 0.00168258 -3.53506e-05 0.000305016 3.24842e-05 -0.00412038 -0.00735077 -0.000645826 0.00279733
internal_weight=17997 1680 16317 871 727 14359 9219 7609 809 199 5140 210
internal_count=17997 1680 16317 871 727 14359 9219 7609 809 199 5140 210
is_linear=0
shrinkage=0.0459148


Tree=19
num_leaves=13
num_cat=0
split_feature=5 7 6 0 6 2 6 0 7 7 7 6
split_gain=2.21934 4.76919 2.85992 2.13822 2.48076 1.59471 2.38955 1.64913 2.55562 4.66472 2.9426 2.55204
threshold=70.033503679006088 0.0042053757041979663 1.2496993703598596 42.258115307398924 0.89895714453734687 41.796985756256909 1.2912839045387117 11.534865348734565 0.004150840634462691 0.002683641120057399 0.0033487446548557012 0.8975767360246899
decision_type=2 2 2 10 2 10 2 10 2 2 2 2
left_child=5 -2 3 4 -3 6 -1 8 9 -7 -11 -9
right_child=1 2 -4 -5 -6 7 -8 11 -10 10 -12 -13
leaf_value=-0.00038839573731415709 -0.011420710365315051 0.0061653618466807145 -0.0062905667673586897 0.0051053342863863508 -0.0023654603473468529 0.0041041853398493169 0.0023235701877821926 -0.001480568573009092 0.003956202454449137 -0.0076423917451107692 0.00030230752690662221 0.00095661912344789332
leaf_weight=10248 104 85 174 152 465 338 734 1247 742 177 221 3310
leaf_count=10248 104 85 174 152 465 338 734 1247 742 177 221 3310
internal_value=-1.1557e-11 -0.00212468 -0.00102104 0.000285082 -0.00104706 0.000122359 -0.000207137 0.000721949 0.00205468 0.000137665 -0.00323089 0.000289695
internal_weight=17997 980 876 702 550 17017 10982 6035 1478 736 398 4557
internal_count=17997 980 876 702 550 17017 10982 6035 1478 736 398 4557
is_linear=0
shrinkage=0.0459148


Tree=20
num_leaves=13
num_cat=0
split_feature=5 7 2 1 2 5 5 7 5 7 2 1
split_gain=2.02022 4.34129 1.55778 2.02433 1.45163 1.49066 1.77399 1.53832 1.77473 2.06571 1.85829 1.50177
threshold=70.033503679006088 0.0042053757041979663 74.191252342489619 6.7573208976854024 41.796985756256909 40.518262827797905 30.37350214817944 0.0076711265379046977 45.665465060779347 0.020361126339787067 -51.901884183114603 30.106718075080554
decision_type=2 2 10 10 10 2 2 2 2 2 10 10
left_child=4 -2 3 -3 5 6 -1 -7 10 -10 -9 -8
right_child=1 2 -4 -5 -6 7 11 8 9 -11 -12 -13
leaf_value=-0.0014827054372490405 -0.01089633048983109 -0.0031564217355212186 0.0042725363893192985 0.0020825660890885916 0.00068880113554205984 -0.00021375505903951163 0.0015308545163967447 -0.0036893940161839937 -0.0036578808951215664 0.002948735826927069 0.0021949175922920125 -0.0032897577374407026
leaf_weight=639 104 555 105 216 6035 6392 2255 165 914 112 360 145
leaf_count=639 104 555 105 216 6035 6392 2255 165 914 112 360 145
internal_value=-2.44066e-11 -0.00202712 -0.000974159 -0.00168869 0.000116741 -0.000197626 0.000667198 -0.000528509 -0.00182568 -0.00293669 0.000345563 0.00123961
internal_weight=17997 980 876 771 17017 10982 3039 7943 1551 1026 525 2400
internal_count=17997 980 876 771 17017 10982 3039 7943 1551 1026 525 2400
is_linear=0
shrinkage=0.0459148


Tree=21
num_leaves=13
num_cat=0
split_feature=5 7 6 6 5 1 5 5 5 7 6 7
split_gain=1.88123 4.07661 2.0743 1.14714 1.68124 1.15792 1.82476 1.35992 1.00399 0.998968 1.30016 0.98343
threshold=66.637329997923203 0.0070028776879439503 0.90555449701682045 1.2912839045387117 30.37350214817944 -14.639991978236365 35.260348463415156 63.161108963421178 37.930038601730153 0.0034987547285441202 1.1401261261467448 0.019467273340153711
decision_type=2 2 2 2 2 8 2 2 2 2 2 2
left_child=3 9 -3 4 -1 6 -6 8 -8 -2 -11 -4
right_child=1 2 11 -5 5 -7 7 -9 -10 10 -12 -13
leaf_value=-0.0028166310359113785 -0.0070218267809513107 0.0081810678727168799 -0.00063300816103828764 0.0019144425502294067 0.0053642357676748744 0.00028317390804438909 -0.006574417454500602 0.0038000088318289665 -0.0014546104967138997 -0.002045832081280403 -0.007449140407668242 0.0038759119640053978
leaf_weight=415 163 72 679 742 89 13564 86 99 1322 532 114 120
leaf_count=415 163 72 679 742 89 13564 86 99 1322 532 114 120
internal_value=-2.20496e-11 -0.00146298 0.000716801 0.000150629 6.65998e-05 0.000145527 -0.0010243 -0.00140159 -0.00176733 -0.00380982 -0.00299936 4.41763e-05
internal_weight=17997 1680 871 16317 15575 15160 1596 1507 1408 809 646 799
internal_count=17997 1680 871 16317 15575 15160 1596 1507 1408 809 646 799
is_linear=0
shrinkage=0.0459148


Tree=22
num_leaves=13
num_cat=0
split_feature=5 6 4 2 6 4 2 4 2 5 6 2
split_gain=1.7334 2.16498 4.40766 1.32491 2.03342 1.4601 1.67747 1.61653 1.92971 1.59492 1.77023 1.74838
threshold=70.033503679006088 1.2496993703598596 0.019660323185527965 41.796985756256909 1.2912839045387117 1.0657454363460774e-08 23.011890179548356 1.8756908248818153e-09 -38.02153261477401 58.176438158572587 0.94286328700780786 22.157426543055049
decision_type=2 2 8 10 2 8 10 10 10 2 2 10
left_child=3 -2 -3 4 5 6 7 -1 -9 -7 -11 -12
right_child=1 2 -4 -5 -6 9 -8 8 -10 10 11 -13
leaf_value=0.0023244362587162763 -0.00083667627705231323 -0.014934350348075458 -0.00049938003862116053 0.00065465666267332245 0.0021423218355754586 -3.2063021781477393e-05 0.0030348790907079267 -2.462008982849093e-05 -0.0064755431913281402 0.0020651935654391902 0.0029606199089019639 -0.0040424858014870349
leaf_weight=86 795 75 110 6035 734 8746 99 140 324 171 86 596
leaf_count=86 795 75 110 6035 734 8746 99 140 324 171 86 596
internal_value=-5.93058e-12 -0.00187772 -0.0063514 0.000108137 -0.000192195 -0.000359402 -0.00246713 -0.00345749 -0.00452914 -0.000216896 -0.00211203 -0.0031594
internal_weight=17997 980 185 17017 10982 10248 649 550 464 9599 853 682
internal_count=17997 980 185 17017 10982 10248 649 550 464 9599 853 682
is_linear=0
shrinkage=0.0459148


Tree=23
num_leaves=13
num_cat=0
split_feature=5 7 4 0 4 4 0 7 7 7 5 7
split_gain=1.58898 3.77098 1.76896 1.90828 1.45113 2.07604 1.85098 1.90525 2.63381 1.83514 2.17072 2.32763
threshold=66.637329997923203 0.0070028776879439503 0.022747062027904278 51.006172420934753 0.73528879864615504 0.87227562614359222 9.8634646368829699 0.0037457547899026672 0.0028085688335003512 0.0021227224112281401 47.857302204595214 0.003448188676574147
decision_type=2 2 10 10 10 10 8 2 2 2 2 2
left_child=4 -2 3 -3 6 9 7 8 -1 -6 -11 -12
right_child=1 2 -4 -5 5 -7 -8 -9 -10 10 11 -13
leaf_value=-0.0014422098733062572 -0.0036016967433370965 -0.0091100623859631767 0.0016728370599968299 0.0014621306369792628 0.0052337570775439863 4.8930226196165593e-05 -5.1544620109511503e-05 -0.0003216950945575746 -0.010492856437634925 -0.00073649062147598864 -0.00060045870771830898 0.0035957667339626543
leaf_weight=151 809 73 727 71 282 4102 9252 329 123 727 393 958
leaf_count=151 809 73 727 71 282 4102 9252 329 123 727 393 958
internal_value=-4.71405e-12 -0.00134455 0.000751928 -0.00389738 0.000138435 0.000673161 -0.000212189 -0.002677 -0.00550509 0.00175816 0.00128649 0.0023751
internal_weight=17997 1680 871 144 16317 6462 9855 603 274 2360 2078 1351
internal_count=17997 1680 871 144 16317 6462 9855 603 274 2360 2078 1351
is_linear=0
shrinkage=0.0459148


Tree=24
num_leaves=13
num_cat=0
split_feature=2 7 6 7 4 7 7 4 2 7 4 6
split_gain=1.38394 1.88452 1.09042 1.03713 1.33646 2.21334 1.9055 1.7929 1.69791 1.64583 1.54059 1.22194
threshold=74.191252342489619 0.0098838830602148309 1.6782210103494746 0.0037699986188415393 0.97639727150067201 0.0019892455068044874 0.0017468407545810347 0.92469798622697352 -65.279429066694931 0.0012114451709899052 0.47763113128639018 0.864144929129257
decision_type=10 2 2 2 10 2 2 8 8 2 10 2
left_child=2 -2 3 4 5 9 -6 -7 -9 -1 -11 -10
right_child=1 -3 -4 -5 6 7 -8 8 11 10 -12 -13
leaf_value=-0.0038754761375154362 0.00079894094279730262 0.0064543633639508212 -0.0058479169010261399 0.00015745463058918627 -0.0088443230263723274 -0.0011301216781943553 -0.0015745426277230228 0.0079604891451665657 -0.0037126961855090414 -0.00070504839492155152 0.0036367120462730959 0.0030345242557306947
leaf_weight=101 1555 135 70 10743 90 3668 489 86 92 246 575 147
leaf_count=101 1555 135 70 10743 90 3668 489 86 92 246 575 147
internal_value=-4.71405e-12 0.00125071 -0.000129619 -0.000104966 -0.000618106 -0.000372316 -0.00270456 -0.000840515 0.00242803 0.00165536 0.00233577 0.000437268
internal_weight=17997 1690 16307 16237 5494 4915 579 3993 325 922 821 239
internal_count=17997 1690 16307 16237 5494 4915 579 3993 325 922 821 239
is_linear=0
shrinkage=0.0459148


Tree=25
num_leaves=13
num_cat=0
split_feature=5 7 6 0 6 6 6 5 0 7 6 7
split_gain=1.49667 3.68233 2.31926 1.95957 2.15014 1.59521 1.04676 1.47757 1.1438 1.38726 1.94903 0.924693
threshold=70.033503679006088 0.0042053757041979663 1.2496993703598596 42.258115307398924 0.89895714453734687 1.3789253319248307 1.2912839045387117 30.37350214817944 67.797989084495171 0.0037978148789448913 1.1401261261467448 0.0054706180877920922
decision_type=2 2 2 10 2 2 2 2 10 2 2 2
left_child=6 -2 3 4 -3 -4 7 -1 -9 -10 -11 -6
right_child=1 2 5 -5 11 -7 -8 8 9 10 -12 -13
leaf_value=-0.002682344884606089 -0.0099131877666614378 0.0058405139581728348 -0.009346879135873459 0.005015666032352168 -0.0065265602353774335 -0.00046943083663908956 0.0017557652581373345 0.00014557881233197981 -0.007323196050242343 0.0049114666774833756 -0.0045628021584581324 -0.0011541184516836711
leaf_weight=415 104 85 99 152 82 75 769 15551 95 80 107 383
leaf_count=415 104 85 99 152 82 75 769 15551 95 80 107 383
internal_value=4.86612e-12 -0.0017448 -0.000775033 0.000401168 -0.000874112 -0.00552039 0.000100482 2.21391e-05 9.30266e-05 -0.00280499 -0.000509639 -0.00210152
internal_weight=17997 980 876 702 550 174 17017 16248 15833 282 187 465
internal_count=17997 980 876 702 550 174 17017 16248 15833 282 187 465
is_linear=0
shrinkage=0.0459148


Tree=26
num_leaves=13
num_cat=0
split_feature=2 7 0 7 7 7 7 8 0 1 7 0
split_gain=1.25414 1.70744 1.53573 2.26285 2.00163 1.17622 2.57501 1.1565 1.71309 1.63769 2.03834 1.4709
threshold=74.191252342489619 0.0098838830602148309 10.351308340530709 0.0039473643415035226 0.002683641120057399 0.0035930777115758174 0.0040035923174278612 0.18137906191521622 66.295648764360365 -15.953025962928697 0.0021560892460012497 18.232344273900178
decision_type=10 2 10 2 2 2 2 2 10 8 2 10
left_child=7 2 3 4 -2 -4 -7 8 9 11 -11 -1
right_child=1 -3 5 -5 -6 6 -8 -9 -10 10 -12 -13
leaf_value=0.0021314581500602612 0.0049420881345440329 0.0061437472253994775 0.0017996102464075919 0.0081202660086736097 -0.005473507248357521 -0.0081385394510930069 -6.0341403771365806e-05 -0.00030747175152274608 -0.0063586989453474898 -0.0028273141059440205 0.0016957218108933786 -0.0038431294918605074
leaf_weight=129 82 135 500 135 74 95 669 13294 71 231 2316 266
leaf_count=129 82 135 500 135 74 95 669 13294 71 231 2316 266
internal_value=-1.80199e-11 0.00119061 0.000760594 0.00376786 1.35699e-06 6.82559e-05 -0.00106483 -0.000123391 0.000688815 0.000858895 0.00128551 -0.00189194
internal_weight=17997 1690 1555 291 156 1264 764 16307 3013 2942 2547 395
internal_count=17997 1690 1555 291 156 1264 764 16307 3013 2942 2547 395
is_linear=0
shrinkage=0.0459148


Tree=27
num_leaves=13
num_cat=0
split_feature=5 7 6 4 4 6 5 7 7 6 4 7
split_gain=1.37943 3.32237 1.71989 1.20605 1.92707 1.79299 1.81852 1.86876 2.1548 1.67662 2.26269 1.90204
threshold=66.637329997923203 0.0070028776879439503 0.90555449701682045 0.73528879864615504 0.87227562614359222 0.84181817347430832 50.383851980211269 0.0021227224112281401 0.0036690685664798098 0.92465926727199343 0.90669824304899393 0.016374783204179118
decision_type=2 2 2 10 10 2 2 2 2 2 10 2
left_child=3 -2 -3 -1 5 -5 7 -7 -9 11 -11 -6
right_child=1 2 -4 4 9 6 -8 8 -10 10 -12 -13
leaf_value=-0.00019066234133348535 -0.0033713982312022651 0.0075118071566128387 0.00010259510083897137 0.0048746628008157801 -0.00072241332029432577 0.005485576140010392 0.0024291453686000422 -0.0047801516121547026 0.00041086285945340722 -0.0023793645692705141 0.0027184244957296822 0.0064523586222911449
leaf_weight=9855 809 72 799 317 2960 104 1102 234 603 236 826 80
leaf_count=9855 809 72 799 317 2960 104 1102 234 603 236 826 80
internal_value=-1.97686e-12 -0.00125276 0.000715067 0.000128984 0.000616468 0.00166181 0.0011633 -0.000319134 -0.00104039 1.50497e-05 0.00158558 -0.000533604
internal_weight=17997 1680 871 16317 6462 2360 2043 941 837 4102 1062 3040
internal_count=17997 1680 871 16317 6462 2360 2043 941 837 4102 1062 3040
is_linear=0
shrinkage=0.0459148


Tree=28
num_leaves=13
num_cat=0
split_feature=2 7 8 7 1 2 8 1 7 1 7 2
split_gain=1.13411 1.49528 1.04837 1.41496 1.68251 1.45261 1.16483 1.2813 1.09907 1.35887 1.12243 1.1927
threshold=74.191252342489619 0.0098838830602148309 0.18137906191521622 0.0021560892460012497 -15.953025962928697 -37.027453139157146 0.034996066382404496 -3.0341991011644107 0.019467273340153711 14.183562092723108 0.02137630748045399 -43.936510588785403
decision_type=10 2 2 2 8 10 2 10 2 10 2 10
left_child=2 -2 3 -1 5 -5 7 -6 -4 10 -10 -12
right_child=1 -3 8 4 6 -7 -8 -9 9 -11 11 -13
leaf_value=-0.0025817677401917135 0.00072978750811251449 0.0057674030240658161 -0.00038368274859322283 0.0034569196726925979 0.0021786561989925743 -0.0034292574239293046 0.0019232665633965088 -0.0026228038613940905 0.0056406201844383707 0.0072352189934843788 -0.004801065389554709 0.0010755921403576565
leaf_weight=260 1555 135 12690 83 202 291 1898 279 84 79 92 349
leaf_count=260 1555 135 12690 83 202 291 1898 279 84 79 92 349
internal_value=-2.05289e-12 0.0011322 -0.000117337 0.00065597 0.00096175 -0.00190104 0.00141181 -0.00060639 -0.000292602 0.00162099 0.000776182 -0.000150377
internal_weight=17997 1690 16307 3013 2753 374 2379 481 13294 604 525 441
internal_count=17997 1690 16307 3013 2753 374 2379 481 13294 604 525 441
is_linear=0
shrinkage=0.0459148


Tree=29
num_leaves=13
num_cat=0
split_feature=5 7 6 4 6 4 7 4 4 6 6 5
split_gain=1.29786 3.2361 2.09988 3.77669 1.19472 1.33021 1.24293 1.64107 1.23142 1.0615 0.98448 1.33128
threshold=70.033503679006088 0.0042053757041979663 1.2496993703598596 0.019660323185527965 0.89527748857376632 0.017001423367074556 0.0054706180877920922 0.64902764554134684 0.34343846319400179 1.1372384175996415 1.2912839045387117 30.37350214817944
decision_type=2 2 2 10 2 10 2 10 10 2 2 2
left_child=10 -2 4 -4 -3 -6 -7 8 9 -8 11 -1
right_child=1 2 3 -5 5 6 7 -9 -10 -11 -12 -13
leaf_value=-0.0025495165597292212 -0.0092822677093976555 0.0056482067014990804 -0.013282362908442372 0.00045225901384919078 0.0046889167850187848 -0.0061677454973068152 0.0029315353170168592 0.0044127930351775899 -0.0054582723413530944 -0.0041733383710685591 0.0016988531586995918 8.4880912112437215e-05
leaf_weight=415 104 81 72 102 96 88 124 119 125 69 769 15833
leaf_count=415 104 81 72 102 96 88 124 119 125 69 769 15833
internal_value=8.17356e-12 -0.00162478 -0.000715676 -0.00523103 0.000403515 -0.000280575 -0.00118928 -0.000186754 -0.00190797 0.000391451 9.35704e-05 1.75942e-05
internal_weight=17997 980 876 174 702 621 525 437 318 193 17017 16248
internal_count=17997 980 876 174 702 621 525 437 318 193 17017 16248
is_linear=0
shrinkage=0.0459148


Tree=30
num_leaves=13
num_cat=0
split_feature=5 2 8 4 6 2 2 5 4 5 8 8
split_gain=1.18962 1.53747 1.49078 2.21503 1.37764 1.37743 1.37854 1.27972 1.26087 1.18944 1.07123 1.37616
threshold=66.637329997923203 71.285983646544182 0.57293136235182773 0.022747062027904278 1.1872711601567782 64.153486304377751 36.70983723435203 74.794009809909312 8.785446259373943e-09 65.86816709593711 0.51131432237679786 0.61420043460719076
decision_type=2 10 2 8 2 10 8 2 10 2 2 2
left_child=1 9 3 4 -2 6 -5 -8 -4 -1 -3 -12
right_child=2 10 8 5 -6 -7 7 -9 -10 -11 11 -13
leaf_value=-8.683921737738668e-05 -0.0032581589213716762 0.0023263741294895644 0.0064054913154232025 -0.0042760193855503328 -0.012219507352823813 -0.0037730357651226476 0.0027359679887688586 -0.0029972450534113126 -0.00015183795820052361 0.0038340220266045188 -0.0027519945698640438 0.0013199780926595106
leaf_weight=14253 76 1052 69 123 69 323 315 111 594 165 247 600
leaf_count=14253 76 1052 69 123 69 323 315 111 594 165 247 600
internal_value=-5.70248e-12 0.000119782 -0.00116338 -0.00226772 -0.00752252 -0.00139393 5.80206e-06 0.0012421 0.000530599 -4.19688e-05 0.00134786 0.00013252
internal_weight=17997 16317 1680 1017 145 872 549 426 663 14418 1899 847
internal_count=17997 16317 1680 1017 145 872 549 426 663 14418 1899 847
is_linear=0
shrinkage=0.0459148


Tree=31
num_leaves=13
num_cat=0
split_feature=5 2 1 0 1 5 1 1 0 2 0 1
split_gain=1.08289 1.39953 1.38578 2.55538 1.22451 1.08272 1.59795 1.04116 1.34362 1.03607 1.02718 1.45683
threshold=66.637329997923203 71.285983646544182 28.553337270538936 41.934374478626104 11.230479987807298 65.86816709593711 -2.2780015297146146 -3.524748928512929 16.980069176503367 72.423868595274669 4.7503596897342861 -0.57657583537082313
decision_type=2 10 10 8 8 2 10 10 10 10 8 10
left_child=1 5 3 -2 -5 10 -7 8 -3 -9 11 -1
right_child=2 7 -4 4 -6 6 -8 9 -10 -11 -12 -13
leaf_value=-0.00097857947750189483 -0.0016684703408033996 0.0010152981289778542 -0.0063516869240514418 0.0007185053226437684 0.0067644937631071104 0.0080950431950399891 -0.00094341163987679652 0.0063760868219839041 -0.0042649527609452424 0.0015715452244163856 -1.04002464317299e-05 -0.0075510117068724051
leaf_weight=389 1282 345 100 183 115 84 81 102 144 1308 13777 87
leaf_count=389 1282 345 100 183 115 84 81 102 144 1308 13777 87
internal_value=-5.0562e-12 0.000114282 -0.00110997 -0.000778212 0.00305169 -4.00418e-05 0.00365798 0.00128598 -0.000539622 0.00191911 -8.2852e-05 -0.00217984
internal_weight=17997 16317 1680 1580 298 14418 165 1899 489 1410 14253 476
internal_count=17997 16317 1680 1580 298 14418 165 1899 489 1410 14253 476
is_linear=0
shrinkage=0.0459148


Tree=32
num_leaves=13
num_cat=0
split_feature=4 0 6 4 2 2 0 0 2 2 6 4
split_gain=1.05957 2.04852 1.89361 1.04354 1.89494 2.37572 1.1054 0.929486 1.5159 1.02225 0.881708 2.54249
threshold=0.0082343150120735027 43.489155280387102 1.0408100125142805 1.8756908248818153e-09 27.311249590053624 -35.966375818413958 67.797989084495171 26.22016460599394 15.444479682430613 -11.701464699531359 1.0294118816439923 0.83384604165009424
decision_type=10 8 2 8 10 8 8 10 10 10 2 10
left_child=1 7 -3 -4 5 -5 -7 8 -1 -9 -2 -12
right_child=10 2 3 4 -6 6 -8 9 -10 -11 11 -13
leaf_value=-0.0047051843896816657 -0.00013311075211936191 0.0038940953389630839 0.0026335135836232904 1.5296496449788103e-06 0.0021981048601839243 -0.0042455638642322465 -0.011203337477692423 -0.0022625643757585535 0.00269950511462519 -0.0081147620806647294 0.00038029476613919217 0.0055204226335450277
leaf_weight=136 11148 211 128 184 161 111 85 113 102 142 5265 211
leaf_count=136 11148 211 128 184 161 111 85 113 102 142 5265 211
internal_value=-9.54216e-12 -0.00122589 0.000101567 -0.00109458 -0.00197664 -0.00374542 -0.00726297 -0.00359538 -0.00153175 -0.00552144 0.000101248 0.000578353
internal_weight=17997 1373 880 669 541 380 196 493 238 255 16624 5476
internal_count=17997 1373 880 669 541 380 196 493 238 255 16624 5476
is_linear=0
shrinkage=0.0459148


Tree=33
num_leaves=13
num_cat=0
split_feature=5 7 8 6 7 6 8 8 5 5 7 7
split_gain=1.02626 2.94517 1.93567 1.52801 1.74206 1.93336 1.10297 1.13772 2.22715 1.93461 1.34772 1.00592
threshold=70.033503679006088 0.0042053757041979663 0.82278480752291405 0.89527748857376632 0.019467273340153711 1.2496993703598596 0.26766108409533318 0.3004866889327466 48.512971714956642 39.684577500679573 0.0029995198060961833 0.0040812827680517588
decision_type=2 2 2 2 2 2 2 2 2 2 2 2
left_child=6 -2 3 -3 5 -5 -1 8 9 -8 -10 -11
right_child=1 2 -4 4 -6 -7 7 -9 10 11 -12 -13
leaf_value=0.00068170085124147643 -0.0087499803239776165 0.0048104659254798645 0.0050025749175103057 -0.0016008628422669641 0.0044159901337441822 -0.0080048223473052314 -0.0001600241705598439 -4.4905099557405354e-05 0.0056132045192808728 -0.0045070744226093544 -0.001235894604863606 -0.011808853500487593
leaf_weight=4699 104 75 114 485 77 125 95 11714 78 74 271 86
leaf_count=4699 104 75 114 485 77 125 95 11714 78 74 271 86
internal_value=-1.25835e-11 -0.00144481 -0.000577525 -0.00141234 -0.00209169 -0.00291315 8.32056e-05 -0.000145105 -0.00208839 -0.00535015 0.00029485 -0.00843178
internal_weight=17997 980 876 762 687 610 17017 12318 604 255 349 160
internal_count=17997 980 876 762 687 610 17017 12318 604 255 349 160
is_linear=0
shrinkage=0.0459148


Tree=34
num_leaves=13
num_cat=0
split_feature=6 8 1 1 8 1 1 1 5 3 5 6
split_gain=0.988162 1.05569 1.20682 1.53413 1.64726 1.10794 0.843046 2.17683 1.20547 1.76382 1.41971 1.89025
threshold=1.6782210103494746 0.18137906191521622 -15.953025962928697 -11.124786846962413 0.034996066382404496 -9.081217455359937 30.106718075080554 38.660510589633382 40.518262827797905 1.0000000180025095e-35 30.37350214817944 1.1544980775301492
decision_type=2 2 8 10 2 10 10 10 2 2 2 2
left_child=1 2 -1 -4 -5 -6 8 -8 10 -10 -3 -12
right_child=-2 6 3 4 5 -7 7 -9 9 -11 11 -13
leaf_value=-0.0016111069320153364 -0.0054446709537549209 -0.0014560680015486035 0.0043840820455103898 -0.0015162592595067618 -0.0027562343064489541 0.001604948088364398 -0.0044837817203962601 0.001357319174577458 -0.0010984364574732808 0.00011348357142304606 0.00055745862023726762 0.0038788696900010017
leaf_weight=397 70 439 270 538 131 1963 306 240 3677 8128 1344 494
leaf_count=397 70 439 270 538 131 1963 306 240 3677 8128 1344 494
internal_value=-9.73224e-12 2.12599e-05 0.000763198 0.00108801 0.000749886 0.00133211 -0.000146067 -0.00191626 -7.74311e-05 -0.000264003 0.000889843 0.00145016
internal_weight=17997 17927 3299 2902 2632 2094 14628 546 14082 11805 2277 1838
internal_count=17997 17927 3299 2902 2632 2094 14628 546 14082 11805 2277 1838
is_linear=0
shrinkage=0.0459148


Tree=35
num_leaves=13
num_cat=0
split_feature=5 7 8 8 0 1 7 8 0 0 1 5
split_gain=0.933251 2.8113 2.33183 1.10208 1.52956 1.59107 2.48965 2.58863 2.13328 2.07317 1.87229 1.48236
threshold=66.637329997923203 0.0069580586850804234 0.46419134766290565 0.26766108409533318 66.295648764360365 -1.2152921472263174 0.0032991350785175643 0.034996066382404496 9.8634646368829699 10.351308340530709 -3.2331595266437554 42.241503806597315
decision_type=2 2 2 2 10 8 2 2 8 8 10 2
left_child=3 2 -2 4 5 10 7 -7 -9 -8 -1 -12
right_child=1 -3 -4 -5 -6 6 9 8 -10 -11 11 -13
leaf_value=0.00061387630513782122 -0.0056843071609888581 0.00076468485423203749 -0.00071586811604056879 -0.00012751561290701933 -0.0050489007287282733 -0.0072276595477005013 0.0088904758813041478 -0.0060996846774229799 0.0018198035278011006 0.0024292694023867927 -0.0088970068694906781 -0.0015348976897038933
leaf_weight=2036 368 878 434 11796 95 100 115 83 527 1168 70 327
leaf_count=2036 368 878 434 11796 95 100 115 83 527 1168 70 327
internal_value=-2.12893e-12 -0.00103043 -0.00299565 0.000106093 0.000715614 0.000839344 0.0018012 -0.000380286 0.000742234 0.00300841 5.14386e-05 -0.002833
internal_weight=17997 1680 802 16317 4521 4426 1993 710 610 1283 2433 397
internal_count=17997 1680 802 16317 4521 4426 1993 710 610 1283 2433 397
is_linear=0
shrinkage=0.0459148


Tree=36
num_leaves=13
num_cat=0
split_feature=4 0 4 4 1 1 1 0 2 4 0 4
split_gain=0.931002 2.08666 2.3726 2.33882 1.76074 1.79516 1.67255 1.65707 2.40436 2.46598 1.61502 2.4111
threshold=0.73034149730299991 22.81654404182844 0.14906253738583994 1.0657454363460774e-08 -7.7374533434476334 -6.9462265654352029 -6.3036212214946863 21.858248673735439 -35.453431581310923 0.56696304023547406 9.4048925472570577 0.8632916593341603
decision_type=10 8 10 10 10 10 10 10 10 10 10 10
left_child=1 2 3 -1 -4 -6 -7 8 9 -8 11 -2
right_child=10 -3 4 -5 5 6 7 -9 -10 -11 -12 -13
leaf_value=-0.0047612390765835472 0.0051685837702745594 0.0001632954897871225 -0.00034914381499770875 0.0019015429942664433 -0.0090169750300362738 0.0044350112639034069 0.0060636413062060864 -0.0082540781676709828 -0.0033962792979536616 -0.0022932867905281003 4.014405458772935e-05 0.00077283808744675663
leaf_weight=131 335 7576 970 730 93 71 129 108 1037 176 5416 1225
leaf_count=131 335 7576 970 730 93 71 129 108 1037 176 5416 1225
internal_value=-4.56199e-12 -0.000262737 -0.00119964 0.00088781 -0.00189518 -0.00282434 -0.0024457 -0.00278261 -0.00234229 0.00124128 0.000415083 0.0017168
internal_weight=17997 11021 3445 861 2584 1614 1521 1450 1342 305 6976 1560
internal_count=17997 11021 3445 861 2584 1614 1521 1450 1342 305 6976 1560
is_linear=0
shrinkage=0.0459148


Tree=37
num_leaves=13
num_cat=0
split_feature=6 8 1 1 8 1 6 5 5 8 5 1
split_gain=0.894125 0.9156 1.10052 1.39662 1.41063 1.00829 0.778398 1.67158 1.22561 1.93224 1.18168 0.870444
threshold=1.6782210103494746 0.18137906191521622 -15.953025962928697 -11.124786846962413 0.034996066382404496 -9.4433420378233972 1.2912839045387117 70.033503679006088 30.37350214817944 0.74773603075318085 31.612949405913877 30.106718075080554
decision_type=2 2 8 10 2 10 2 2 2 2 2 10
left_child=1 2 -1 -4 -5 -6 8 -8 9 -3 -10 -12
right_child=-2 6 3 4 5 -7 7 -9 10 -11 11 -13
leaf_value=-0.0015561386434364334 -0.0051791291298705702 -0.0052017635354860946 0.0041662397049299655 -0.0013983317124150576 -0.0031475692070198472 0.0014690268783874934 0.002223817047839664 -0.0042600870066091959 0.0046620038089092907 0.0025243357848393389 -0.00011344054147125736 -0.0021608260383239896
leaf_weight=397 70 236 270 538 105 1989 617 97 107 96 13022 453
leaf_count=397 70 236 270 538 105 1989 617 97 107 96 13022 453
internal_value=4.10579e-12 2.02231e-05 0.000711184 0.00102136 0.000698745 0.00123754 -0.000135607 0.00134295 -0.000211479 -0.00296771 -0.000144106 -0.000182269
internal_weight=17997 17927 3299 2902 2632 2094 14628 714 13914 332 13582 13475
internal_count=17997 17927 3299 2902 2632 2094 14628 714 13914 332 13582 13475
is_linear=0
shrinkage=0.0459148


Tree=38
num_leaves=13
num_cat=0
split_feature=2 0 5 1 5 1 0 2 1 5 2 5
split_gain=0.860803 1.10611 1.50711 1.38638 1.04827 1.71733 1.55737 1.08433 1.65629 0.79094 0.936861 0.841515
threshold=74.191252342489619 10.351308340530709 68.129742552740012 -3.524748928512929 70.033503679006088 6.9301145661700465 43.489155280387102 46.43623484866324 20.731448335135923 68.129742552740012 63.678838964131607 40.518262827797905
decision_type=10 10 2 10 2 10 10 10 10 2 10 2
left_child=4 -2 3 -3 9 6 -6 -7 -9 11 -11 -1
right_child=1 2 -4 -5 5 7 -8 8 -10 10 -12 -13
leaf_value=0.00062043154362155972 0.0034501832164250444 -0.0021154440952795462 -0.0036485494393921469 0.0017704076925889023 -0.0040055272821677666 0.0054259633354086095 0.0026447630708158736 0.0037566689703006123 -0.0055016214943945296 0.0038251314476936372 -0.0022374351042456944 -0.00023305458460817923
leaf_weight=3048 313 242 168 967 506 93 87 83 80 221 71 12118
leaf_count=3048 313 242 168 967 506 93 87 83 80 221 71 12118
internal_value=-9.31406e-12 0.000986389 0.000426355 0.000992595 -0.000102226 -0.00167304 -0.00302985 0.00146988 -0.000787277 -1.59519e-05 0.00235101 -6.15245e-05
internal_weight=17997 1690 1377 1209 16307 849 593 256 163 15458 292 15166
internal_count=17997 1690 1377 1209 16307 849 593 256 163 15458 292 15166
is_linear=0
shrinkage=0.0459148


Tree=39
num_leaves=13
num_cat=0
split_feature=4 0 6 8 4 8 1 8 1 0 1 6
split_gain=0.889908 1.83393 1.72509 1.93353 1.05977 1.7994 1.4126 1.25704 0.998341 0.880892 1.37564 1.24364
threshold=0.0082343150120735027 43.489155280387102 1.0408100125142805 0.84426094962802856 5.5741313786938926e-09 0.5444747508412181 26.670544969671671 0.71653681100494937 30.106718075080554 26.22016460599394 -2.4871519505947872 1.0151485345482538
decision_type=10 8 2 2 8 2 10 2 10 10 10 2
left_child=1 9 8 4 5 6 -4 -7 -3 11 -11 -1
right_child=-2 2 3 -5 -6 7 -8 -9 -10 10 -12 -13
leaf_value=-0.0048768104749003392 9.2788206636564799e-05 0.007635793602396572 -0.00074326145150148165 0.0047442341695287495 -0.0047754636786460462 0.006415445387622616 -0.0088714240046314143 -0.0015847705890973986 0.0011838277268596518 -0.0085733739519306892 -0.001828166694628882 0.0017727605135325812
leaf_weight=112 16624 84 130 104 198 94 69 74 127 129 126 126
leaf_count=112 16624 84 130 104 198 94 69 74 127 129 126 126
internal_value=-6.53885e-12 -0.00112346 0.000132543 -0.00100914 -0.00206817 -0.000607557 -0.00356157 0.00289154 0.00375238 -0.00336541 -0.00524045 -0.00135645
internal_weight=17997 1373 880 669 565 367 199 168 211 493 255 238
internal_count=17997 1373 880 669 565 367 199 168 211 493 255 238
is_linear=0
shrinkage=0.0459148


Tree=40
num_leaves=13
num_cat=0
split_feature=6 2 0 5 1 6 5 0 5 0 2 0
split_gain=0.801477 0.745379 1.00687 1.37189 1.26199 0.984151 0.958384 1.53991 1.88636 1.82702 2.21092 1.56851
threshold=1.6782210103494746 74.191252342489619 10.351308340530709 68.129742552740012 -3.524748928512929 0.90675224798467002 40.518262827797905 17.390129239796753 33.855430728406354 13.138073373159143 -71.419838065731241 14.583674631951718
decision_type=2 10 10 2 10 2 2 8 2 10 10 10
left_child=1 6 -3 4 5 -4 7 9 -9 10 -1 -11
right_child=-2 2 3 -5 -6 -7 -8 8 -10 11 -12 -13
leaf_value=0.0071441783620226499 -0.0049034665816547274 0.0032875083107566276 -0.0054529361682248536 -0.0034852872961641163 0.0016848593890241141 0.00047668936295530495 -0.00024454285810760731 -0.00038932130484026244 0.0021609683005960421 -0.010507561088388132 -0.0020091664398661589 -0.0021855241116010508
leaf_weight=82 70 313 102 168 967 140 13230 1036 1492 69 173 155
leaf_count=82 70 313 102 168 967 140 13230 1036 1492 69 173 155
internal_value=-4.18182e-12 1.91467e-05 0.000936839 0.000402518 0.000942759 -0.00202257 -7.63697e-05 0.000663547 0.00111583 -0.00172347 0.000934262 -0.00474901
internal_weight=17997 17927 1690 1377 1209 242 16237 3007 2528 479 255 224
internal_count=17997 17927 1690 1377 1209 242 16237 3007 2528 479 255 224
is_linear=0
shrinkage=0.0459148


Tree=41
num_leaves=13
num_cat=0
split_feature=8 0 8 6 0 6 6 6 2 6 0 6
split_gain=0.755153 1.44804 0.978826 1.08392 1.47453 1.22886 0.969557 1.32165 0.859609 0.782331 1.12682 1.28078
threshold=0.18137906191521622 66.295648764360365 0.031513797170062703 1.1278553366540824 35.458122512998912 0.98043318252900291 1.1741881378913879 1.243854498740838 -71.419838065731241 1.1704718439193806 12.848632284453361 0.88780013847815253
decision_type=2 10 2 2 8 2 2 2 10 2 10 2
left_child=1 2 9 4 8 -6 -5 -8 -4 10 11 -1
right_child=-2 -3 3 6 5 -7 7 -9 -10 -11 -12 -13
leaf_value=-0.0020046028550705806 -0.00014122061345304968 -0.0058600668723372915 -0.002802636313038692 -0.0046465500342232485 0.00025924697262511953 0.0063030324740638664 0.0042393140349050529 -0.0023867502958738536 0.0012905272850159775 0.0037004534107617421 -0.0028682401867843412 0.0062741203344718766
leaf_weight=87 14686 71 115 115 104 223 110 150 1820 69 375 72
leaf_count=87 14686 71 115 115 104 223 110 150 1820 69 375 72
internal_value=-5.0562e-12 0.000626387 0.000768528 0.00115015 0.00152918 0.00438085 -0.00113611 0.000416585 0.00104726 -0.000900369 -0.00149486 0.00174425
internal_weight=17997 3311 3240 2637 2262 327 375 260 1935 603 534 159
internal_count=17997 3311 3240 2637 2262 327 375 260 1935 603 534 159
is_linear=0
shrinkage=0.0459148


Tree=42
num_leaves=13
num_cat=0
split_feature=1 5 1 1 6 1 1 8 8 1 5 8
split_gain=0.728652 1.44957 1.50165 1.33602 1.32404 1.85769 1.83728 2.34213 1.90211 1.62126 2.53939 1.59323
threshold=-1.6012508630447868 25.765169107086479 -2.707687323504731 -0.57657583537082313 0.97913228485513948 30.106718075080554 0.61680073460812601 0.66755686907225831 0.84426094962802856 2.5205654365839423 59.145277944043094 0.49769822139299769
decision_type=8 2 10 10 2 10 10 2 2 10 2 2
left_child=1 -1 -3 -2 11 6 7 -6 9 10 -8 -5
right_child=3 2 -4 4 5 -7 8 -9 -10 -11 -12 -13
leaf_value=-0.0055704408807169883 0.0021302664422183891 -4.4440761957527612e-05 -0.0021649705125145326 0.00040434308288454692 -2.9086201398663333e-05 -0.0020615721566705409 0.0059664290539648487 -0.0097175747313773889 0.0044897135749345793 0.00056184095249843849 -0.0023173405902614267 -0.0012828944231443673
leaf_weight=109 754 7590 776 2458 203 448 288 71 367 2557 107 2269
leaf_count=109 754 7590 776 2458 203 448 288 71 367 2557 107 2269
internal_value=-6.50083e-12 -0.000309676 -0.000241133 0.000275625 0.000116136 0.000726378 0.001074 -0.00253961 0.00137232 0.000984757 0.00372247 -0.000405545
internal_weight=17997 8475 8366 9522 8768 4041 3593 274 3319 2952 395 4727
internal_count=17997 8475 8366 9522 8768 4041 3593 274 3319 2952 395 4727
is_linear=0
shrinkage=0.0459148


Tree=43
num_leaves=13
num_cat=0
split_feature=7 5 2 7 5 5 7 7 6 6 6 6
split_gain=0.907536 3.09543 1.3984 1.80672 1.5507 2.63817 1.14544 1.37272 2.55364 1.32328 1.29321 1.1859
threshold=0.0040812827680517588 68.743122172412654 -53.790673815135413 0.0046715215248435121 47.857302204595214 46.041473936279239 0.0052547071846278295 0.01340320056156547 1.0047775979071034 0.95900077937390527 1.0825055147811726 0.92312923379619594
decision_type=2 2 10 2 2 2 2 2 2 2 2 2
left_child=1 -1 3 -2 5 6 -5 9 -9 11 -11 -8
right_child=2 -3 -4 4 -6 -7 7 8 -10 10 -12 -13
leaf_value=-0.00027093481618627782 0.0025142619549530548 -0.0072160545465304671 0.0004711837771310305 -0.0055465190018508014 0.0027082148738285156 -0.009530471842191076 -0.00062377658378626633 0.0019475479583018467 -0.0095104680428923522 0.0033132633092301544 -0.0022106448660312843 -0.0067382770259728246
leaf_weight=6891 255 138 9420 136 148 97 238 70 99 281 131 93
leaf_count=6891 255 138 9420 136 148 97 238 70 99 281 131 93
internal_value=1.3686e-12 -0.000407288 0.000261016 -0.00101791 -0.00171451 -0.00228618 -0.00161567 -0.00102949 -0.00476454 -0.000179927 0.00155688 -0.00234175
internal_weight=17997 7029 10968 1548 1293 1145 1048 912 169 743 412 331
internal_count=17997 7029 10968 1548 1293 1145 1048 912 169 743 412 331
is_linear=0
shrinkage=0.0459148


Tree=44
num_leaves=13
num_cat=0
split_feature=4 4 8 8 5 2 1 2 2 4 5 2
split_gain=0.811675 1.37676 1.92122 1.65737 1.30528 4.77139 1.66587 1.43254 1.21032 1.90333 2.16075 2.03596
threshold=0.73034149730299991 0.97639727150067201 0.83140648386398286 0.48330235269521865 41.967769886959623 -22.278671943665831 -7.5809687504512882 -55.161279271627791 -34.955936158260528 0.47763113128639018 49.085672656809457 -61.723709632880016
decision_type=10 10 2 2 2 10 10 10 8 10 2 8
left_child=8 3 4 -2 -3 7 -7 -6 9 -1 11 -11
right_child=1 2 -4 -5 5 6 -8 -9 -10 10 -12 -13
leaf_value=0.0014657866497482773 0.0015462621755397243 0.0023139464814120074 0.0039883348512129262 -0.00012383381354564131 -0.0044439854750985934 -0.0053504659019650794 0.00037350183846597123 -0.010973455659296612 -0.00054059810643248012 0.0013636965208097208 0.0055608199833492395 -0.0028804076536150468
leaf_weight=1832 2751 207 171 2300 249 119 1080 99 8006 354 100 729
leaf_count=1832 2751 207 171 2300 249 119 1080 99 8006 354 100 729
internal_value=-1.1443e-11 0.000387571 -0.000657276 0.000785775 -0.00111018 -0.00156836 -0.000194598 -0.00630151 -0.000245322 0.000538751 -0.000896861 -0.00149314
internal_weight=17997 6976 1925 5051 1754 1547 1199 348 11021 3015 1183 1083
internal_count=17997 6976 1925 5051 1754 1547 1199 348 11021 3015 1183 1083
is_linear=0
shrinkage=0.0459148


Tree=45
num_leaves=13
num_cat=0
split_feature=7 7 6 3 8 8 1 1 7 7 6 7
split_gain=0.823931 1.25005 1.10635 1.26431 1.06277 1.44878 1.21072 2.07983 1.47036 1.30024 0.924556 0.875636
threshold=0.0040812827680517588 0.0019892455068044874 1.0182610752787553 1.0000000180025095e-35 0.19299381851294126 0.024819054371462018 15.62483005992946 22.74516562985443 0.0025004871243452993 0.0035930777115758174 0.93279833161142056 0.0021893074775831398
decision_type=2 2 2 2 2 2 8 10 2 2 2 2
left_child=1 2 -1 -4 5 -3 -6 9 -9 10 -8 -7
right_child=-2 4 3 -5 6 11 7 8 -10 -11 -12 -13
leaf_value=0.0015098744131078726 0.00024870306744499357 -0.0034623601106201179 -0.0066794876332547312 0.0013625708329302582 -0.0012789976384255622 -0.0034712285639372114 0.0015196313359491199 -0.0063357484904780241 0.00024997704489137639 -0.0018574513212257873 0.0074341557157349821 0.001626081813804291
leaf_weight=1042 10968 161 80 85 3994 77 89 98 264 71 149 919
leaf_count=1042 10968 161 80 85 3994 77 89 98 264 71 149 919
internal_value=-7.29918e-12 -0.000388074 0.00095671 -0.00253661 -0.000666871 0.000578777 -0.000975813 0.000828834 -0.0015329 0.00359565 0.00522242 0.00123201
internal_weight=17997 7029 1207 165 5822 1157 4665 671 362 309 238 996
internal_count=17997 7029 1207 165 5822 1157 4665 671 362 309 238 996
is_linear=0
shrinkage=0.0459148


Tree=46
num_leaves=13
num_cat=0
split_feature=7 5 0 2 2 7 5 7 7 0 0 0
split_gain=0.750006 2.80786 1.41889 1.74343 1.12535 2.16213 2.76851 1.92549 1.64902 1.64417 1.63242 1.52088
threshold=0.0040812827680517588 68.743122172412654 9.2367050859083246 -63.314498970428112 -52.592830487392739 0.0030495577434051222 51.415510713317012 0.0031328266884762036 0.0025004871243452993 5.849538927846571 15.623462610131929 4.7503596897342861
decision_type=2 2 8 10 10 2 2 2 2 10 10 8
left_child=1 4 3 -2 7 6 8 -1 10 -7 -6 -8
right_child=2 -3 -4 -5 5 9 11 -9 -10 -11 -12 -13
leaf_value=-0.0003972150178305823 -0.003636096751989035 -0.0068550337003331326 7.306033453083639e-05 0.0025708832052121528 0.00031900567859722699 -0.0066836353576834968 -0.0036571273707814459 0.0034299099437116645 0.00072793748990501316 -0.0012909832007196734 -0.0037919021599246996 0.0017248826086494677
leaf_weight=732 107 138 9981 880 303 126 118 446 552 2206 621 1787
leaf_count=732 107 138 9981 880 303 126 118 446 552 2206 621 1787
internal_value=1.55868e-12 -0.000370256 0.000237284 0.00189799 -0.000240391 -0.000506829 0.000234999 0.00105176 -0.00125765 -0.00158235 -0.00244384 0.00139151
internal_weight=17997 7029 10968 987 6891 5713 3381 1178 1476 2332 924 1905
internal_count=17997 7029 10968 987 6891 5713 3381 1178 1476 2332 924 1905
is_linear=0
shrinkage=0.0459148


Tree=47
num_leaves=13
num_cat=0
split_feature=4 0 6 8 8 7 8 8 7 0 0 4
split_gain=0.783655 1.68478 1.57857 1.63574 1.10822 1.09054 1.04976 1.27766 1.00355 1.47699 1.2163 1.51261
threshold=0.0082343150120735027 43.489155280387102 1.102135048228764 0.25824397868349974 0.31583392532713256 0.012537477065246192 0.65263860533594531 0.80558863430693195 0.004150840634462691 61.292788932119514 9.2367050859083246 0.15454244644825607
decision_type=10 8 2 2 2 2 2 2 2 10 10 10
left_child=1 -1 4 -4 -3 6 -5 -8 9 -2 -10 -12
right_child=8 2 3 5 -6 -7 7 -9 10 -11 11 -13
leaf_value=-0.0032031119582777898 -0.00025871723036504317 0.0067979439716435225 -0.0067239274396426341 0.0010227478435051926 0.00094234061455217006 0.0042208176036495825 -0.0079788597816126891 -6.2173049763361525e-05 0.0019473674794746863 -0.0058802505934036067 0.0013898169156631077 -8.9557417043248036e-05
leaf_weight=493 6708 97 98 190 229 94 84 88 948 100 1838 7030
leaf_count=493 6708 97 98 190 229 94 84 88 948 100 1838 7030
internal_value=-2.47108e-12 -0.00105426 0.000149585 -0.00134217 0.00268465 -0.000185563 -0.00132976 -0.00392846 8.70728e-05 -0.00034129 0.000384169 0.000217061
internal_weight=17997 1373 880 554 326 456 362 172 16624 6808 9816 8868
internal_count=17997 1373 880 554 326 456 362 172 16624 6808 9816 8868
is_linear=0
shrinkage=0.0459148


Tree=48
num_leaves=13
num_cat=0
split_feature=6 2 0 6 1 6 0 0 0 0 6 1
split_gain=0.715687 0.647948 0.867883 1.04355 1.67185 1.06992 1.0216 0.751307 1.28261 1.00336 0.75078 1.53349
threshold=1.6782210103494746 74.191252342489619 10.351308340530709 0.90675224798467002 -1.6805020889129156 0.87256178799607798 29.116551746588136 25.131886730865382 28.823049830851637 19.13194617574511 0.97913228485513948 0.70223989109056506
decision_type=2 10 10 2 10 2 10 10 10 10 2 10
left_child=1 10 -3 4 5 -4 -6 9 -9 -5 -1 -12
right_child=-2 2 3 7 6 -7 -8 8 -10 -11 11 -13
leaf_value=-0.00040281237250260272 -0.0046336049564342733 0.0030561110505784822 -0.0015812175416833386 0.0010173419076647664 0.0010865820209540252 -0.009109237217807634 -0.0048769799345793523 -0.0053573763929213045 0.0016881485230692108 0.0060012121508899669 -0.00029429478127273657 0.00094868253988808124
leaf_weight=7624 70 313 89 197 495 72 69 71 234 150 5030 3583
leaf_count=7624 70 313 89 197 495 72 69 71 234 150 5030 3583
internal_value=-4.02976e-12 1.80929e-05 0.000873708 0.000377636 -0.00082103 -0.00494779 0.000356997 0.00171051 4.80427e-05 0.00317175 -7.09623e-05 0.000222783
internal_weight=17997 17927 1690 1377 725 161 564 652 305 347 16237 8613
internal_count=17997 17927 1690 1377 725 161 564 652 305 347 16237 8613
is_linear=0
shrinkage=0.0459148


Tree=49
num_leaves=13
num_cat=0
split_feature=5 5 7 6 0 6 2 6 7 7 6 5
split_gain=0.703814 0.69251 2.3776 1.46058 2.19546 0.972611 1.22531 1.55901 3.52632 2.20015 2.01402 1.9618
threshold=19.038842123909081 66.637329997923203 0.0070028776879439503 0.93046879940075855 15.511358987397466 1.2912839045387117 41.796985756256909 0.99334911631235967 0.0079090389310412252 0.0065365645610888498 1.1278553366540824 59.145277944043094
decision_type=2 2 2 2 10 2 10 2 2 2 2 2
left_child=-1 5 -3 -4 -5 6 -2 -8 9 10 -9 -10
right_child=1 2 3 4 -6 -7 7 8 11 -11 -12 -13
leaf_value=-0.0045624092658726077 -0.00026595865677544762 -0.0026616423585206894 0.0053252868246030337 -0.0068835974957720276 0.00091791056532844223 0.0017941328169004561 0.00016065596939721102 0.0032871140834118697 -0.0073015059099231392 0.0085029802563112624 -0.003017165345828634 0.00061146465457861672
leaf_weight=71 10067 809 128 86 657 692 4210 735 112 144 125 161
leaf_count=71 10067 809 128 86 657 692 4210 735 112 144 125 161
internal_value=4.14381e-12 1.80705e-05 -0.000869377 0.000795309 1.49096e-05 0.000109842 3.49071e-05 0.000586906 0.00199216 0.00325031 0.00237079 -0.00263488
internal_weight=17997 17926 1680 871 743 16246 15554 5487 1277 1004 860 273
internal_count=17997 17926 1680 871 743 16246 15554 5487 1277 1004 860 273
is_linear=0
shrinkage=0.0459148


Tree=50
num_leaves=13
num_cat=0
split_feature=6 5 1 6 2 5 2 6 6 6 1 6
split_gain=0.646939 0.583751 1.20439 1.60719 1.10825 2.13999 1.7589 1.50129 1.4527 1.79015 1.77106 1.41234
threshold=1.6782210103494746 40.518262827797905 28.553337270538936 1.1576698099084219 34.320163300750501 59.013505120323039 32.694074335792564 0.96259248017686028 1.2496993703598596 0.99334911631235967 -10.326113434808972 1.2317703881225983
decision_type=2 2 10 2 10 2 10 2 2 2 10 2
left_child=1 2 -1 -4 5 6 -3 -7 9 -6 -11 -9
right_child=-2 4 3 -5 8 7 -8 11 -10 10 -12 -13
leaf_value=0.00086671143487927044 -0.0044054401665484626 -0.00037292362438835297 -0.0055444390843120053 0.002293745597529298 -8.108472773594316e-05 0.0015120474871171997 0.0056746003515100729 -0.0054463779193104026 -0.0029915705164174338 0.0037990865825153195 0.00077384680827071036 0.0016800481953940492
leaf_weight=2778 70 6483 145 89 5125 114 103 390 276 525 1830 69
leaf_count=2778 70 6483 145 89 5125 114 103 390 276 525 1830 69
internal_value=-1.1405e-13 1.7202e-05 0.00060024 -0.00256325 -0.000100539 -0.000512498 -0.000278345 -0.00320382 0.00027971 0.000400415 0.00144826 -0.00437509
internal_weight=17997 17927 3012 234 14915 7159 6586 573 7756 7480 2355 459
internal_count=17997 17927 3012 234 14915 7159 6586 573 7756 7480 2355 459
is_linear=0
shrinkage=0.0459148


Tree=51
num_leaves=13
num_cat=0
split_feature=4 0 1 0 4 8 2 1 4 4 4 1
split_gain=0.714479 1.7403 2.12865 1.30392 1.95028 2.22009 2.2329 1.21173 2.66102 1.64744 1.58698 1.38993
threshold=0.73034149730299991 15.245598872420549 3.7979860308039624 13.362390036059178 0.8632916593341603 0.21978943826287872 -37.027453139157146 -1.6012508630447868 0.87490930072196693 0.83384604165009424 0.8533543975039305 -0.57657583537082313
decision_type=10 8 10 10 10 2 10 8 10 10 10 10
left_child=1 2 -1 4 5 -2 -7 8 9 -5 -11 -9
right_child=3 -3 -4 7 -6 6 -8 11 -10 10 -12 -13
leaf_value=-0.0011645733507426781 0.00765112965549804 1.0124373861944327e-05 -0.007723963062717238 -0.000583332722679424 0.00045194197941457324 -0.0038768125983471508 0.0034170629212528047 0.004302670434796629 -0.0030535374269032214 0.0091129692285661073 0.00089867447869433972 0.00014691439707692784
leaf_weight=1517 180 9392 112 494 2144 116 373 182 779 85 119 2504
leaf_count=1517 180 9392 112 494 2144 116 373 182 779 85 119 2504
internal_value=-3.91571e-12 -0.000230165 -0.00161556 0.000363626 0.00112727 0.00329157 0.00168682 -0.000152382 -0.00120875 0.000850112 0.0043213 0.000428503
internal_weight=17997 11021 1629 6976 2813 669 489 4163 1477 698 204 2686
internal_count=17997 11021 1629 6976 2813 669 489 4163 1477 698 204 2686
is_linear=0
shrinkage=0.0459148


Tree=52
num_leaves=13
num_cat=0
split_feature=4 0 2 4 8 2 0 0 2 2 4 0
split_gain=0.680015 1.49185 1.19956 1.75084 1.68459 0.97779 1.29634 0.856856 1.43215 0.82964 0.738599 1.30367
threshold=0.0082343150120735027 43.489155280387102 27.311249590053624 1.8756908248818153e-09 0.50524937844674456 -37.027453139157146 67.797989084495171 26.22016460599394 15.444479682430613 -11.701464699531359 0.15454244644825607 28.441189981020308
decision_type=10 8 10 8 2 10 10 10 10 10 10 10
left_child=1 7 3 -3 -4 -5 -7 8 -1 -9 11 -2
right_child=10 2 4 5 -6 6 -8 9 -10 -11 -12 -13
leaf_value=-0.0041073193727723693 0.0020633210860060234 0.0039078736784399146 -0.0013130577819833076 -0.00010671805117422212 0.0062910263661525205 -0.0017140566903105891 -0.0086041333711428889 -0.0019175860079002828 0.0030899278411803213 -0.0071896953882380496 -4.9040223409184257e-05 -5.4227431842826345e-05
leaf_weight=136 1028 127 112 253 136 163 89 113 102 142 14078 1518
leaf_count=136 1028 127 112 253 136 163 89 113 102 142 14078 1518
internal_value=5.81653e-12 -0.000982075 0.000150748 -0.000911169 0.00285692 -0.00212309 -0.00414746 -0.00300415 -0.00102278 -0.00485343 8.1111e-05 0.000800776
internal_weight=17997 1373 880 632 248 505 252 493 238 255 16624 2546
internal_count=17997 1373 880 632 248 505 252 493 238 255 16624 2546
is_linear=0
shrinkage=0.0459148


Tree=53
num_leaves=13
num_cat=0
split_feature=4 0 6 0 4 5 6 5 4 6 4 6
split_gain=0.658844 1.66859 1.54098 1.41205 2.10582 2.53206 3.00718 1.10752 1.28045 1.04144 1.79486 2.05011
threshold=0.73034149730299991 9.8634646368829699 1.0940100303752411 9.4048925472570577 0.8632916593341603 41.783071917112366 0.76952265123572128 44.210066120012272 0.050441834429053874 0.90786364535183683 0.75373904118137058 0.88371517503350161
decision_type=10 8 2 10 10 2 2 2 10 2 10 2
left_child=1 7 3 4 -2 -6 -7 -1 -9 10 -5 -12
right_child=2 -3 -4 9 5 6 -8 8 -10 -11 11 -13
leaf_value=-0.0073717893679711797 0.0046970629445288337 -8.0280555968484816e-05 0.0054012554519639903 0.0056513376966101691 0.0079140055578340654 -0.0074469692032130318 0.00074602525267987896 -0.0072443844093461668 -0.00086805014921207909 0.00053199415839519913 -0.00018535461620560031 -0.0031406479730440267
leaf_weight=85 335 10377 125 89 92 104 1028 77 482 2693 1832 678
leaf_count=85 335 10377 125 89 92 104 1028 77 482 2693 1832 678
internal_value=-9.12397e-12 -0.000221023 0.000349182 0.000257004 0.00147148 0.000588658 -6.68802e-06 -0.00248885 -0.00174636 -0.000100775 -0.000756429 -0.000983637
internal_weight=17997 11021 6976 6851 1559 1224 1132 644 559 5292 2599 2510
internal_count=17997 11021 6976 6851 1559 1224 1132 644 559 5292 2599 2510
is_linear=0
shrinkage=0.0459148


Tree=54
num_leaves=13
num_cat=0
split_feature=5 4 1 2 5 4 5 5 4 5 4 5
split_gain=0.648951 0.689974 1.33472 1.56612 2.48281 1.55486 1.92757 0.976667 1.1475 0.953426 0.942347 1.773
threshold=19.038842123909081 0.0082343150120735027 17.690947034762171 15.444479682430613 44.653233043658894 3.0741744150297738e-09 35.260348463415156 70.455314248631112 7.3508652498333057e-09 28.905797433188493 0.15454244644825607 61.727143669460908
decision_type=2 10 10 8 2 10 2 2 10 2 10 2
left_child=-1 2 3 4 5 -2 -7 8 -5 -4 11 -3
right_child=1 10 9 7 -6 6 -8 -9 -10 -11 -12 -13
leaf_value=-0.0043809788586331132 0.0033804528723456718 0.0015479158973541959 0.0055145767689919224 -0.00074775237267885129 -0.0085725469023899513 -0.0087540961314495798 0.00023465187130378609 -0.003799293347472013 0.0058213615883054839 -1.8709739967115078e-05 -4.8088370482997875e-05 -0.0014301037226151809
leaf_weight=71 95 1986 76 146 159 90 114 92 91 482 14060 535
leaf_count=71 95 1986 76 146 159 90 114 92 91 482 14060 535
internal_value=1.63471e-12 1.73519e-05 -0.000982813 -0.00220073 -0.0039367 -0.00147149 -0.00373097 0.000215918 0.00177457 0.000734928 9.84822e-05 0.000915928
internal_weight=17997 17926 1345 787 458 299 204 329 237 558 16581 2521
internal_count=17997 17926 1345 787 458 299 204 329 237 558 16581 2521
is_linear=0
shrinkage=0.0459148


Tree=55
num_leaves=13
num_cat=0
split_feature=2 5 5 8 6 5 4 8 2 2 6 8
split_gain=0.618854 0.828362 1.68351 0.899022 1.60919 1.52795 1.18838 0.994407 0.890892 1.31531 1.12789 0.87662
threshold=74.191252342489619 58.055214645751981 58.744072338814455 0.3749015736710129 0.89527748857376632 68.129742552740012 0.94966544232491923 0.24332344159493277 81.463637405807262 76.784385496454533 0.85155681050772936 0.51131432237679786
decision_type=10 2 2 2 2 2 10 2 10 10 2 2
left_child=-1 8 -3 5 -5 7 -6 -4 9 10 -2 -11
right_child=1 2 3 4 6 -7 -8 -9 -10 11 -12 -13
leaf_value=-8.6676831016130443e-05 -0.00088492658855754457 -0.0068831236782513471 0.0023008125895669054 -0.0010965350953970811 0.0021226125100513456 -0.0073651209143220974 0.0087147427561270127 -0.003667835576780742 0.0047569756071557164 0.0013233661674754626 0.0059979802199324282 -0.0032804107217221895
leaf_weight=16307 74 71 170 240 200 71 81 90 182 201 156 154
leaf_count=16307 74 71 170 240 200 71 81 90 182 201 156 154
internal_value=-7.22315e-13 0.000836354 -9.02971e-05 0.000475772 0.00166458 -0.00139544 0.00402284 0.000234742 0.00195148 0.00107866 0.00378348 -0.000673765
internal_weight=17997 1690 923 852 521 331 281 260 767 585 230 355
internal_count=17997 1690 923 852 521 331 281 260 767 585 230 355
is_linear=0
shrinkage=0.0459148


Tree=56
num_leaves=13
num_cat=0
split_feature=1 0 4 4 4 1 1 1 4 4 4 5
split_gain=0.600661 1.37782 1.29707 1.78787 1.50287 1.43778 1.45589 1.27638 1.30998 1.71427 2.1974 1.8354
threshold=-1.6012508630447868 9.0496486049461833 0.87490930072196693 0.83384604165009424 0.84722877861709733 -6.3036212214946863 -14.360456634889747 -24.84870246009972 0.0056526017488126032 0.22902432882005438 0.11044658475305376 39.106712774609328
decision_type=8 10 10 10 10 10 10 10 10 10 10 2
left_child=1 -1 3 5 -5 6 7 -3 -9 10 11 -10
right_child=-2 2 -4 4 -6 -7 -8 8 9 -11 -12 -13
leaf_value=0.0010855206019114889 0.00025024948677356863 0.00086201172412488309 -0.0018718143128699557 0.0083053166055949579 0.0010533127917256887 -0.0015821171073616789 0.00089935462920148551 -0.0067878582239298763 0.0039545509360830481 -0.0026659532976066897 0.0046123288399500225 -0.0038086053209830622
leaf_weight=1314 9522 626 1256 88 191 1614 2043 97 90 736 196 224
leaf_count=1314 9522 626 1256 88 191 1614 2043 97 90 736 196 224
internal_value=-4.6e-12 -0.000281165 -0.000531944 -0.000246952 0.00334068 -0.000424867 4.06868e-05 -0.000850252 -0.00164837 -0.00124827 0.000797644 -0.0015835
internal_weight=17997 8475 7161 5905 279 5626 4012 1969 1343 1246 510 314
internal_count=17997 8475 7161 5905 279 5626 4012 1969 1343 1246 510 314
is_linear=0
shrinkage=0.0459148


Tree=57
num_leaves=13
num_cat=0
split_feature=5 4 1 2 6 5 4 5 2 5 5 4
split_gain=0.590642 0.60774 1.18099 1.42805 2.37337 2.2545 1.41578 1.75866 1.18206 0.867883 0.852695 1.52831
threshold=19.038842123909081 0.0082343150120735027 17.690947034762171 15.444479682430613 1.2496993703598596 44.653233043658894 3.0741744150297738e-09 35.260348463415156 30.079043592892358 28.905797433188493 40.518262827797905 0.089854544866889111
decision_type=2 10 10 8 2 2 10 2 10 2 2 10
left_child=-1 2 3 5 8 6 -2 -8 -5 -4 11 -3
right_child=1 10 9 4 -6 -7 7 -9 -10 -11 -12 -13
leaf_value=-0.0041795304206272664 0.0032535662134167724 0.0033067130338206166 0.0052538655510630692 -0.00066200778331597918 -0.0073301588577445601 -0.0081429956480210969 -0.0083303584696732356 0.00025552973597881375 0.0055415375785924049 -2.5361090693526701e-05 -4.7574829148418621e-05 0.00034739074163654091
leaf_weight=71 95 446 76 138 69 159 90 114 122 482 14034 2101
leaf_count=71 95 446 76 138 69 159 90 114 122 482 14034 2101
internal_value=2.47108e-12 1.6554e-05 -0.000922119 -0.00206775 0.000239907 -0.00372544 -0.0013763 -0.00353236 0.00224889 0.000693673 9.26963e-05 0.000865592
internal_weight=17997 17926 1345 787 329 458 299 204 260 558 16581 2547
internal_count=17997 17926 1345 787 329 458 299 204 260 558 16581 2547
is_linear=0
shrinkage=0.0459148


Tree=58
num_leaves=13
num_cat=0
split_feature=8 0 1 7 5 7 0 5 0 5 0 8
split_gain=0.597698 1.21442 1.21493 1.10126 2.25313 1.2705 1.77086 1.66869 1.5982 1.40879 1.2111 1.13854
threshold=0.18137906191521622 66.295648764360365 17.186372565252302 0.0019548910753084824 50.966315597302184 0.0037699986188415393 5.6495398004193325 68.743122172412654 60.430754431001525 47.958294709955233 34.526024998056599 0.19299381851294126
decision_type=2 10 8 2 2 2 8 2 10 2 10 2
left_child=1 2 -1 4 10 6 9 8 -8 -5 -2 -7
right_child=3 -3 -4 5 -6 11 7 -9 -10 -11 -12 -13
leaf_value=0.00043539722304137489 0.00034030481034877375 -0.0053829393789705353 0.0038238752137402547 -0.010158083055512536 0.0037438111146838519 -0.0042783625771687156 -0.00032343480007299656 -0.0068471274709221482 -0.0050704497667967332 -0.0024573610065903198 -0.0055119517136550346 0.00011494648648576597
leaf_weight=2999 393 71 241 71 449 126 3599 90 156 170 92 9540
leaf_count=2999 393 71 241 71 449 126 3599 90 156 170 92 9540
internal_value=-1.52066e-12 0.00055727 0.000687441 -0.000125638 0.00140001 -0.000229256 -0.000908039 -0.000668732 -0.000520648 -0.00472604 -0.000769814 5.7678e-05
internal_weight=17997 3311 3240 14686 934 13752 4086 3845 3755 241 485 9666
internal_count=17997 3311 3240 14686 934 13752 4086 3845 3755 241 485 9666
is_linear=0
shrinkage=0.0459148


Tree=59
num_leaves=13
num_cat=0
split_feature=7 7 5 6 8 7 5 0 6 5 7 0
split_gain=0.594563 0.85532 2.24436 1.29668 1.43202 1.06032 2.06886 1.56312 1.38847 1.16511 2.77274 1.8697
threshold=0.0010935924586139396 0.0019548910753084824 52.559237738899206 0.93159657832948939 0.51131432237679786 0.0040812827680517588 68.743122172412654 4.7503596897342861 0.81536863999445608 62.925616994728976 0.0027085414737148396 20.106814091824173
decision_type=2 2 2 2 2 2 2 8 2 2 2 10
left_child=-1 2 -2 -4 -5 6 7 8 -3 -9 -11 -12
right_child=1 5 3 4 -6 -7 -8 9 -10 10 11 -13
leaf_value=-0.0041933808693407452 -0.00039236287391141637 -0.0084862459572505686 0.0018359391708088852 0.01134087652611945 0.0027592718892201417 0.00020379123588555454 -0.0061783194211301592 -0.00046259008102870314 -0.0014293607031911784 0.0085510562155018763 -0.0038482574106692741 0.0030090758905200196
leaf_weight=71 654 91 247 83 81 10968 135 5057 166 104 150 190
leaf_count=71 654 91 247 83 81 10968 135 5057 166 104 150 190
internal_value=-5.70248e-12 1.66088e-05 0.00127856 0.0039374 0.0071024 -6.31004e-05 -0.000559837 -0.000428108 -0.0039281 -0.000264592 0.00199053 -1.62182e-05
internal_weight=17997 17926 1065 411 164 16861 5893 5758 257 5501 444 340
internal_count=17997 17926 1065 411 164 16861 5893 5758 257 5501 444 340
is_linear=0
shrinkage=0.0459148


Tree=60
num_leaves=13
num_cat=0
split_feature=4 4 7 8 7 8 8 7 8 4 4 4
split_gain=0.600989 1.10399 2.12061 2.1388 1.80266 2.15665 1.47321 1.14108 1.24472 2.009 1.08584 2.13605
threshold=0.72267070672810607 0.98293943914760395 0.0016593424782920462 0.83140648386398286 0.0019548910753084824 0.16597413758626112 0.49435982495101866 0.003473601547011968 0.27118643945231047 0.95690898716782258 0.87227562614359222 0.83384604165009424
decision_type=10 10 2 2 2 2 2 2 2 10 10 10
left_child=-1 4 -3 -4 5 -2 -7 -6 10 -10 11 -9
right_child=1 2 3 -5 7 6 -8 8 9 -11 -12 -13
leaf_value=-0.00021442072182620593 -0.0038401830686265116 -0.0079820422295718927 -0.00084515226079789733 0.0049582257120412447 -0.0007058300450859048 0.0073813661451557358 0.0019576582163942772 0.0017835377036241069 -0.00022521950158322802 0.0036861257158580011 0.00063480252222608037 0.0083047504744865764
leaf_weight=10887 76 80 1500 147 1432 203 220 366 2139 318 480 149
leaf_count=10887 76 80 1500 147 1432 203 220 366 2139 318 480 149
internal_value=-5.36034e-12 0.000328326 -0.000681779 -0.000327182 0.000652393 0.00328106 0.00456053 0.000383821 0.000835843 0.000281011 0.00220592 0.00367026
internal_weight=17997 7110 1727 1647 5383 499 423 4884 3452 2457 995 515
internal_count=17997 7110 1727 1647 5383 499 423 4884 3452 2457 995 515
is_linear=0
shrinkage=0.0459148


Tree=61
num_leaves=13
num_cat=0
split_feature=6 7 7 2 1 6 7 0 6 2 0 7
split_gain=0.571083 0.540638 0.756796 0.998813 1.3619 1.18801 0.949239 1.24893 1.31159 1.24104 1.6667 2.54319
threshold=1.6782210103494746 0.0010935924586139396 0.0019548910753084824 70.484335683375107 3.0176393745774761 0.81536863999445608 0.0040812827680517588 4.7503596897342861 0.81536863999445608 -53.790673815135413 23.631691960563359 0.0050792832836700037
decision_type=2 2 2 10 10 2 2 8 2 10 10 2
left_child=1 -1 3 5 -5 -3 7 8 -4 10 11 -8
right_child=-2 2 6 4 -6 -7 9 -9 -10 -11 -12 -13
leaf_value=-0.0039825051844058507 -0.0041391122542721141 -0.0040908023425566126 -0.0080714851275422161 0.0081057161671972914 -5.3054420933975675e-05 0.0011983953186997089 0.001881279852493685 -0.00036971196574069385 -0.0012200421338412306 0.00040962167121448681 0.00059223414540843298 -0.0039601173515959875
leaf_weight=71 70 101 91 95 79 788 213 5632 167 9358 733 599
leaf_count=71 70 101 91 95 79 788 213 5632 167 9358 733 599
internal_value=3.00331e-12 1.61621e-05 3.20618e-05 0.00122015 0.00440145 0.000597485 -4.31442e-05 -0.000512813 -0.00363664 0.00021058 -0.00099501 -0.00242783
internal_weight=17997 17927 17856 1063 174 889 16793 5890 258 10903 1545 812
internal_count=17997 17927 17856 1063 174 889 16793 5890 258 10903 1545 812
is_linear=0
shrinkage=0.0459148


Tree=62
num_leaves=13
num_cat=0
split_feature=1 0 5 1 0 1 6 0 1 0 5 6
split_gain=0.53548 1.35458 1.15741 1.20896 1.81505 1.13458 1.19204 2.14001 1.30096 1.13827 1.08552 2.35861
threshold=-1.6012508630447868 9.0496486049461833 25.765169107086479 -1.8967820147027126 19.817885872782377 -0.57657583537082313 0.87803667082381642 11.393454881966203 -1.4053226681444586 4.4340072447049419 43.764403324130598 1.2730473567676717
decision_type=8 10 2 10 10 10 2 8 8 10 2 2
left_child=1 -1 -3 10 -5 6 -2 -8 -9 -7 11 -4
right_child=5 2 3 4 -6 9 7 8 -10 -11 -12 -13
leaf_value=0.001089638692768659 0.0047009887693278208 -0.005209302633774328 -7.363687155285251e-05 -0.0092952588424418791 0.00026050881975133762 -0.0051063927322260311 -0.0064435040603894557 0.0072030853201656862 0.00077558114786586898 0.00014198248169217689 -0.00067587977597037183 0.0046595490823829692
leaf_weight=1314 230 109 1422 80 88 88 75 81 368 8680 5199 263
leaf_count=1314 230 109 1422 80 88 88 75 81 368 8680 5199 263
internal_value=-4.86612e-12 -0.000265472 -0.000514126 -0.000441555 -0.00428986 0.000236282 0.0019454 0.00073588 0.00193511 8.93072e-05 -0.000347639 0.000665133
internal_weight=17997 8475 7161 7052 168 9522 754 524 449 8768 6884 1685
internal_count=17997 8475 7161 7052 168 9522 754 524 449 8768 6884 1685
is_linear=0
shrinkage=0.0459148


Tree=63
num_leaves=13
num_cat=0
split_feature=1 1 5 5 1 6 1 5 5 0 0 5
split_gain=0.527273 1.44302 1.7381 1.82634 0.764273 1.78628 1.83462 1.58854 1.40466 1.39926 2.25974 1.30881
threshold=30.106718075080554 38.660510589633382 46.041473936279239 59.013505120323039 1.2785983107230348 0.98043318252900291 2.5205654365839423 28.905797433188493 56.897489574278715 18.964032483170303 22.81654404182844 36.437425067275122
decision_type=10 10 2 2 8 2 8 2 2 8 10 2
left_child=4 2 -2 -4 7 -6 8 -1 -7 -8 -11 -9
right_child=1 -3 3 -5 5 6 9 11 -10 10 -12 -13
leaf_value=-0.0041060096386124597 -0.0067359582254901589 0.0011519702461226609 0.0049982443420756974 -0.0041729830709393203 -0.00025640083438728902 0.0070675570780227336 0.0064214499550694151 0.0019516159634514313 0.00016268628699473654 -0.0047284476897463635 0.001011297366333621 -0.00024822585164360978
leaf_weight=215 163 280 80 107 3743 187 93 606 93 153 2635 9642
leaf_count=215 163 280 80 107 3743 187 93 606 93 153 2635 9642
internal_value=-2.12893e-12 -0.00130486 -0.00327032 -0.000249463 4.73345e-05 0.000422301 0.00122596 -0.000200087 0.00477415 0.000881121 0.000696311 -0.000118142
internal_weight=17997 630 350 187 17367 6904 3161 10463 280 2881 2788 10248
internal_count=17997 630 350 187 17367 6904 3161 10463 280 2881 2788 10248
is_linear=0
shrinkage=0.0459148


Tree=64
num_leaves=13
num_cat=0
split_feature=4 6 4 5 6 6 6 6 3 6 4 5
split_gain=0.589664 1.55911 0.834302 1.46478 1.94609 1.94268 1.55301 1.33105 1.26777 1.18406 1.10935 1.02715
threshold=0.72267070672810607 1.0940100303752411 0.98293943914760395 41.967769886959623 0.90786364535183683 0.88371517503350161 0.76952265123572128 0.8975767360246899 1.0000000180025095e-35 0.86276828489356305 0.99073399880634561 47.652125486163136
decision_type=10 2 10 2 2 2 2 2 2 2 10 2
left_child=-1 2 -2 9 5 6 -5 -7 -8 -4 -10 -6
right_child=1 -3 3 4 11 7 8 -9 10 -11 -12 -13
leaf_value=-0.00021239088138116048 0.00051949569243267297 0.005287916374254473 0.0070325135215617805 -0.0074760519221809905 -0.0029050351126579175 -0.010184340414572772 -0.00389859554529928 -0.0020392214915727087 -0.0039195112645715093 -7.0729095672527822e-05 0.0011268084311849499 0.0026673668761513759
leaf_weight=10887 5256 131 88 79 88 97 204 75 111 113 532 336
leaf_count=10887 5256 131 88 79 88 97 204 75 111 113 532 336
internal_value=-1.5967e-12 0.000325218 0.000232065 -0.00064474 -0.00113125 -0.0021515 -0.00131914 -0.00663269 -0.000744884 0.00303915 0.000255671 0.00151083
internal_weight=17997 7110 6979 1723 1522 1098 926 172 847 201 643 424
internal_count=17997 7110 6979 1723 1522 1098 926 172 847 201 643 424
is_linear=0
shrinkage=0.0459148


Tree=65
num_leaves=13
num_cat=0
split_feature=8 0 7 0 5 6 0 5 7 5 6 7
split_gain=0.55738 1.10502 0.845326 1.02051 1.27631 1.57218 2.77608 0.919135 0.896128 1.89399 1.19562 0.978767
threshold=0.18137906191521622 66.295648764360365 0.019467273340153711 47.131846413336838 30.37350214817944 1.1169858601427083 24.771291815077024 54.618787423320136 0.0019548910753084824 50.966315597302184 1.0151485345482538 0.0017468407545810347
decision_type=2 10 2 10 2 2 10 2 2 2 2 2
left_child=1 -1 8 4 -4 6 7 -6 9 10 11 -2
right_child=2 -3 3 -5 5 -7 -8 -9 -10 -11 -12 -13
leaf_value=0.00066231602086046801 -0.0013350382639066025 -0.0051281710122137152 -0.004727659140894961 0.0051973831046400768 0.0066971804193128428 0.0053238848515598956 -0.0064034682685769817 -1.5239567313930065e-05 -0.00029336197205596785 0.0033275203212446889 -0.0058646513366108826 0.0035153330689016876
leaf_weight=3240 274 71 80 127 80 153 104 93 13115 449 82 129
leaf_count=3240 274 71 80 127 80 153 104 93 13115 449 82 129
internal_value=-2.35703e-12 0.000538147 -0.000121327 0.00151461 0.000597526 0.00158826 -0.000475103 0.00308877 -0.000195502 0.00117862 -0.000810771 0.000217562
internal_weight=17997 3311 14686 637 510 430 277 173 14049 934 485 403
internal_count=17997 3311 14686 637 510 430 277 173 14049 934 485 403
is_linear=0
shrinkage=0.0459148


Tree=66
num_leaves=13
num_cat=0
split_feature=4 0 0 4 5 5 5 7 7 7 5 5
split_gain=0.527868 1.45041 1.25365 1.46669 2.09049 1.85513 1.3829 1.42068 1.34372 1.82668 3.13442 2.1783
threshold=0.72267070672810607 9.8634646368829699 13.362390036059178 0.8632916593341603 44.915397151160597 41.967769886959623 43.328540824048851 0.014368173830319296 0.0092393727594610332 0.0048330346952254058 63.161108963421178 48.180041574340748
decision_type=10 8 10 10 2 2 2 2 2 2 2 2
left_child=1 -1 3 4 -2 -5 -7 8 9 10 -8 -11
right_child=2 -3 -4 5 -6 6 7 -9 -10 11 -12 -13
leaf_value=-0.0023557165640727424 -0.003536179844888989 -7.0610117954372808e-05 -0.0001903923977151221 0.0048013520241159506 0.0038546873030176044 -0.0060343870871490853 -3.2636315854536377e-05 0.0065185486900870481 -0.004843092644198849 -0.0038285475576289953 -0.0092525631089640202 0.0037599819463634589
leaf_weight=621 93 10266 4264 189 609 76 1042 74 112 96 84 471
leaf_count=621 93 10266 4264 189 609 76 1042 74 112 96 84 471
internal_value=7.26116e-12 -0.000200954 0.000307705 0.00105398 0.00287556 0.000457545 3.76069e-05 0.000283201 2.75691e-05 0.000349787 -0.000720446 0.00247515
internal_weight=17997 10887 7110 2846 702 2144 1955 1879 1805 1693 1126 567
internal_count=17997 10887 7110 2846 702 2144 1955 1879 1805 1693 1126 567
is_linear=0
shrinkage=0.0459148


Tree=67
num_leaves=13
num_cat=0
split_feature=6 8 4 7 8 6 6 7 8 6 2 4
split_gain=0.519099 0.576161 1.2962 3.30363 1.52905 1.34545 1.00532 1.3827 1.42857 1.08292 0.975091 2.36854
threshold=1.6782210103494746 0.18137906191521622 0.87227562614359222 0.0021227224112281401 0.031513797170062703 1.1047556274471362 1.1704718439193806 0.016816300980157097 0.13908569803604068 1.1436492025666298 -39.018646267964826 0.48299865325794944
decision_type=2 2 10 2 2 2 2 2 2 2 10 10
left_child=1 2 5 -4 -5 10 9 8 -8 -7 11 -1
right_child=-2 -3 3 4 -6 6 7 -9 -10 -11 -12 -13
leaf_value=0.0087621601873461765 -0.0039462338664661275 -0.00010820563646374439 -0.0091964120690967276 -0.0046708833458712316 0.00092086517468966116 -0.00082376089751339746 0.0038818070979908656 -0.0050671823275133679 -0.0035804326056439761 -0.0072828457038902374 0.0010888900183130873 0.0015301408272754304
leaf_weight=131 70 14628 92 123 637 157 227 70 71 84 1355 352
leaf_count=131 70 14628 92 123 637 157 227 70 71 84 1355 352
internal_value=-5.70248e-12 1.5409e-05 0.000563525 -0.00097887 1.58848e-05 0.00110056 -0.00076984 0.000739828 0.00210389 -0.00307506 0.00172029 0.00349162
internal_weight=17997 17927 3299 852 760 2447 609 368 298 241 1838 483
internal_count=17997 17927 3299 852 760 2447 609 368 298 241 1838 483
is_linear=0
shrinkage=0.0459148


Tree=68
num_leaves=13
num_cat=0
split_feature=1 1 4 5 5 1 1 4 4 5 1 5
split_gain=0.50869 1.14697 1.13938 0.73546 1.64865 1.52444 0.675921 1.8067 1.64629 1.83043 1.5821 1.69884
threshold=44.982352353104375 30.106718075080554 4.3807579230836788e-09 65.86816709593711 46.041473936279239 38.660510589633382 1.2785983107230348 0.59595063073017396 0.44643039187392142 56.897489574278715 -10.927859860851493 62.196568836104127
decision_type=8 10 10 2 2 10 10 10 10 2 10 2
left_child=1 6 -2 4 5 -3 7 8 -1 -10 -11 -12
right_child=2 3 -4 -5 -6 -7 -8 -9 9 10 11 -13
leaf_value=-0.0003999451987751718 -0.00090963889937095406 -0.0064011676804542079 0.0063440178625365617 -0.006242458118632911 0.001910826173509804 0.0016999159619867053 0.00039136097225149529 0.00038037133080537507 -0.0036777909058815865 0.0051207863829921783 0.0023409321267575459 -0.0062988580213880303
leaf_weight=3947 100 163 84 80 177 70 6860 5479 740 105 98 94
leaf_count=3947 100 163 84 80 177 70 6860 5479 740 105 98 94
internal_value=3.61157e-12 -2.48096e-05 0.00240181 -0.00221546 -0.00142971 -0.00396737 3.71554e-05 -0.000195077 -0.000827678 -0.0024557 0.00058923 -0.00188897
internal_weight=17997 17813 184 490 410 233 17323 10463 4984 1037 297 192
internal_count=17997 17813 184 490 410 233 17323 10463 4984 1037 297 192
is_linear=0
shrinkage=0.0459148


Tree=69
num_leaves=13
num_cat=0
split_feature=2 7 5 0 5 2 7 5 7 7 2 7
split_gain=0.503229 1.27437 1.16799 1.68947 1.26654 1.11289 1.80306 1.73266 1.26104 1.09713 1.34628 0.818218
threshold=74.191252342489619 0.0098838830602148309 58.055214645751981 27.656383315649485 60.029371256419715 79.867938164747343 0.0053976658222446433 68.129742552740012 0.0038733890869244391 0.0021560892460012497 81.463637405807262 0.002970387561013664
decision_type=10 2 2 10 2 10 2 2 2 2 10 2
left_child=-1 2 3 9 -4 7 8 -6 -7 -2 11 -11
right_child=1 -3 4 -5 5 6 -8 -9 -10 10 -12 -13
leaf_value=-7.8161320762997001e-05 0.0074404524838795772 0.0050333226490297985 -0.0042232394911695748 -0.0031912308188017779 0.0032818122962827382 -0.0014012690991257446 0.0032630121919082428 -0.0041205314721150721 -0.0092532400187582322 -0.0030486626360584283 0.0062653720038111536 0.0018234219503959661
leaf_weight=16307 89 135 178 122 309 98 86 85 77 96 116 299
leaf_count=16307 89 135 178 122 309 98 86 85 77 96 116 299
internal_value=5.77852e-12 0.000754187 0.000382687 0.00173433 -0.000788843 0.000144473 -0.00218086 0.00168486 -0.00485614 0.00273586 0.00191647 0.00063932
internal_weight=17997 1690 1555 722 833 655 261 394 175 600 511 395
internal_count=17997 1690 1555 722 833 655 261 394 175 600 511 395
is_linear=0
shrinkage=0.0459148


Tree=70
num_leaves=13
num_cat=0
split_feature=7 7 2 2 7 5 5 7 4 7 5 7
split_gain=0.491326 0.944376 0.984343 0.65359 1.29924 2.06413 0.570881 1.46002 1.13136 1.61853 1.12677 0.61366
threshold=0.0012114451709899052 0.0013945009922785075 12.036994377490929 82.120013963577421 0.0047770584241787024 59.748408472764488 70.033503679006088 0.0044960575302732345 0.66282949168719474 0.019467273340153711 72.50332628747384 0.012788888571834993
decision_type=2 2 10 10 2 2 2 2 10 2 2 2
left_child=-1 2 -2 6 5 -5 -3 -8 9 11 -10 -9
right_child=1 3 -4 4 -6 -7 7 8 10 -11 -12 -13
leaf_value=-0.0026901303895458186 0.0074674597728639474 1.575852330441586e-05 -0.00018118246041548672 0.0039482661277102232 0.0053537358374260609 -0.0055772373953680444 -0.0056848185510460347 -0.0014774074093400265 0.0066214522483527402 0.004797045268594988 -0.00061974295254933168 -0.0053518049078317611
leaf_weight=142 73 16439 69 104 141 89 129 443 85 79 97 107
leaf_count=142 73 16439 69 104 141 89 129 443 85 79 97 107
internal_value=-6.91901e-12 2.13945e-05 0.00375087 -8.50362e-06 0.00200336 -0.000444324 -4.71688e-05 -0.00114766 -0.000425968 -0.00134844 0.00276213 -0.00223115
internal_weight=17997 17855 142 17713 334 193 17379 940 811 629 182 550
internal_count=17997 17855 142 17713 334 193 17379 940 811 629 182 550
is_linear=0
shrinkage=0.0459148


Tree=71
num_leaves=13
num_cat=0
split_feature=5 5 0 0 2 5 6 0 8 0 2 8
split_gain=0.476428 0.527344 1.52941 1.65736 1.83983 1.40747 1.70853 1.33051 1.31185 1.2155 1.08866 1.05087
threshold=19.038842123909081 40.518262827797905 17.390129239796753 13.138073373159143 -71.419838065731241 35.563939291771483 1.0425263519893415 14.583674631951718 0.40166901314004583 31.603847773740316 -65.931177520845509 0.57898322035597471
decision_type=2 2 8 10 10 2 2 10 2 10 10 2
left_child=-1 2 3 4 -2 6 -4 -5 -6 -7 -11 -8
right_child=1 -3 5 7 8 9 11 -9 -10 10 -12 -13
leaf_value=-0.0037537378742263992 0.0063975022117890613 -9.6376998007130158e-05 -0.002855678856686692 -0.0099828384565201003 0.0025645933446437953 0.0037484952385702483 -0.00024758751521080985 -0.0023256977902970421 -0.0054915080462194787 0.0060012218768665014 0.00016211621027480388 0.002883016012568343
leaf_weight=71 82 14944 334 69 76 549 586 156 97 76 589 368
leaf_count=71 82 14944 334 69 76 549 586 156 97 76 589 368
internal_value=5.89257e-12 1.48675e-05 0.000572359 -0.00180166 0.000732659 0.00102781 -2.94512e-05 -0.00467389 -0.00195241 0.00214951 0.000829443 0.000960025
internal_weight=17997 17926 2982 480 255 2502 1288 225 173 1214 665 954
internal_count=17997 17926 2982 480 255 2502 1288 225 173 1214 665 954
is_linear=0
shrinkage=0.0459148


Tree=72
num_leaves=13
num_cat=0
split_feature=0 0 2 2 7 7 5 7 7 0 5 5
split_gain=0.463551 1.44935 1.53148 1.40192 2.38507 3.74272 2.02686 1.36921 1.12038 1.06314 1.60965 1.21711
threshold=12.848632284453361 12.565847867604054 35.718732918525852 51.338927209736219 0.0040035923174278612 0.002683641120057399 60.8659138464892 0.0012114451709899052 0.0033487446548557012 15.881252486505121 37.230747343905797 63.566112430849266
decision_type=10 8 8 8 2 2 2 2 2 10 2 2
left_child=1 3 -3 -1 5 -5 8 -2 -7 10 -9 -12
right_child=7 2 -4 4 -6 6 -8 9 -10 -11 11 -13
leaf_value=-0.00055596778946945139 -0.0058965691429063057 0.009147627279707797 0.00072717029494155118 0.0028034268097966251 0.0028301214286589448 -0.004985865948532878 -0.010713537212269772 -0.0080539513672403858 0.00066492721640686817 5.8127928901725932e-05 -0.00035286457983299552 -0.0039851167344579124
leaf_weight=2022 86 81 104 331 898 151 74 69 145 12485 1323 228
leaf_count=2022 86 81 104 331 898 151 74 69 145 12485 1323 228
internal_value=2.69918e-12 0.00044996 0.00441396 0.000247435 0.00126337 -0.000743679 -0.0039169 -0.000120678 -0.00221774 -8.5462e-05 -0.00119208 -0.000886813
internal_weight=17997 3806 185 3621 1599 701 370 14191 296 14105 1620 1551
internal_count=17997 3806 185 3621 1599 701 370 14191 296 14105 1620 1551
is_linear=0
shrinkage=0.0459148


Tree=73
num_leaves=13
num_cat=0
split_feature=8 4 7 6 8 4 6 6 3 4 8 4
split_gain=0.464203 1.16299 2.99331 1.49679 1.39796 0.898741 2.21065 0.821554 1.12956 0.762121 1.23772 1.42589
threshold=0.18137906191521622 0.87227562614359222 0.0021227224112281401 1.1047556274471362 0.031513797170062703 0.92922606096541116 0.95165057760871175 0.86551420254493505 1.0000000180025095e-35 0.3730843556645802 0.092519370195048578 0.089854544866889111
decision_type=2 10 2 2 2 10 2 2 2 10 2 8
left_child=1 3 -3 7 -4 -6 -7 8 -1 10 11 -9
right_child=-2 2 4 -5 5 6 -8 9 -10 -11 -12 -13
leaf_value=0.008600621040269275 -0.00011072220631125512 -0.0087928702394157003 -0.0045052835242954843 -0.00095122826174146447 -0.0020170705077281049 0.00054433437838762055 0.0093425401816859058 -0.0036194624935476272 0.0017609914750416147 0.00062977784804449149 0.0052259989286965371 0.0032549765303994016
leaf_weight=81 14686 92 123 621 170 396 71 102 137 1115 234 169
leaf_count=81 14686 92 123 621 170 396 71 102 137 1115 234 169
internal_value=-1.01124e-11 0.00049111 -0.000970797 0.000997635 -2.39146e-05 0.000841405 0.00188196 0.00165609 0.00430232 0.0013 0.00277978 0.000667549
internal_weight=17997 3311 852 2459 760 637 467 1838 218 1620 505 271
internal_count=17997 3311 852 2459 760 637 467 1838 218 1620 505 271
is_linear=0
shrinkage=0.0459148


Tree=74
num_leaves=13
num_cat=0
split_feature=0 4 7 7 3 4 8 8 0 7 7 7
split_gain=0.427638 1.34379 1.55241 2.73312 1.7508 1.55225 2.15358 1.51706 1.34273 1.88621 1.79092 1.24083
threshold=12.848632284453361 0.71536231189725696 0.003448188676574147 0.0026350399253444365 1.0000000180025095e-35 0.83384604165009424 0.30409806315194493 0.25824397868349974 5.6495398004193325 0.0028085688335003512 0.0047092852001347548 0.0012114451709899052
decision_type=10 10 2 2 2 10 2 2 8 2 2 2
left_child=1 7 3 5 -5 -3 -7 -1 -9 -10 -11 -2
right_child=11 2 -4 4 -6 6 -8 8 9 10 -12 -13
