tree
version=v4
num_class=1
num_tree_per_iteration=1
label_index=0
max_feature_idx=8
objective=regression
feature_names=market_energy energy_slope mpo mpo_bias compression_index rsi_14 atr_ratio bb_width candle_body_ratio
feature_infos=[0.12302383105447831:97.927199902011566] [-69.078498936560408:70.773361623428229] [-93.360104883118765:91.456099829562717] [-1:1] [1.9173940213335072e-10:1] [8.2920295521050242:93.003605777006939] [0.5148272213526508:2.5107638899221545] [5.0470823073860806e-05:0.11706566231726583] [0:0.99999999956933672]
tree_sizes=4175 4424 4435 4404 4428 4416 4409 4386 4405 4424 4410 4364 4402 4377 4354 4367 4370 4374 4406 4346 4375 4382 4382 4361 4359 4416 4329 4350 4346 4430 4373 4384 4371 4366 4374 4352 4362 4342 4397 4375 4359 4416 4361 4373 4324 4347 4364 4341 4390 4420 4371 4408 4380 4353 4431 4361 4372 4352 4359 4365 4387 4367 4449 4322 4370 4358 4344 4405 4363 4377 4332 4339 4365 4370 4339 4379 4345 4371 4371 4378 4361 4386 4377 4382 4376 4340 4387 4375 4338 4400 4371 4356 4373 4420 4355 4330 4346 4403 4398 4381

Tree=0
num_leaves=48
num_cat=0
split_feature=7 5 6 5 0 7 5 0 6 4 4 7 5 0 8 1 6 5 6 7 5 7 5 5 1 8 7 6 1 8 7 4 4 8 4 5 6 0 3 1 7 5 7 7 7 1 1
split_gain=3.19802 4.60649 2.78979 3.6456 3.08913 4.23968 2.43785 3.11257 2.58541 2.31896 2.33568 2.21606 2.20244 2.28341 2.85884 2.16464 2.1248 2.5398 4.21356 2.11332 3.29793 2.85184 3.07974 2.66319 2.36468 2.09843 2.05568 2.11203 3.53474 2.08787 2.23522 1.86066 2.57137 1.77899 1.8517 4.81408 3.01053 2.58472 3.15025 3.30619 2.85343 3.00109 2.52551 2.56601 2.34668 1.8494 1.81638
threshold=0.0039288197388875389 71.289183903645352 1.1045791561383578 39.852935391676304 5.1146270322619865 0.0019594735864608618 72.876955663832788 32.143231456724656 1.1800052486117536 0.0036217078169520915 1.897213941504106e-09 0.007363057095713877 30.103201678339385 44.813475727216876 0.28571428411285144 -29.957026120690415 0.98495363849457374 66.474001939223726 0.88905547051085454 0.0019941375108378234 48.816325504193763 0.0023942911772911577 55.258577722580284 47.783335117722793 12.265689014953587 0.59966013752939062 0.0023157057988768812 0.82480361567833749 -4.603723483419607 0.22852751418179812 0.0028902435088525658 0.98558179279153546 0.62206279588986302 0.012974064727882656 0.15288551220932853 44.625562635821645 1.0287132839430553 15.536804168323579 1.0000000180025095e-35 -6.5326625682919808 0.0058114033190205345 36.740585329363334 0.016744853950753587 0.012891325353435916 0.0063505028008145987 -1.1155823177177842 -10.932498217255285
decision_type=2 2 2 2 8 2 2 10 2 10 8 2 2 10 2 8 2 2 2 2 2 2 2 2 10 2 2 2 10 2 2 8 10 2 10 2 2 10 2 10 2 2 2 2 2 10 10
left_child=1 2 4 -4 5 -1 9 -8 -9 10 -2 -10 13 -11 -15 -12 17 19 -19 20 23 22 24 -6 -21 -24 -7 29 -29 -28 -31 32 -18 -14 35 36 -35 38 40 44 -36 -42 43 45 -40 -43 -46
right_child=6 -3 3 -5 16 26 7 8 11 12 15 -13 33 14 -16 -17 31 18 -20 21 -22 -23 25 -25 -26 -27 27 28 -30 30 -32 -33 -34 34 37 -37 -38 -39 39 -41 41 42 -44 -45 46 -47 -48
leaf_value=0.66588017749570338 0.66325882930540225 0.6424068376979738 0.66463346069316842 0.65257980764687695 0.65932872570620871 0.63865694731534894 0.65113609071982181 0.66581219377744438 0.64053189250666143 0.65256783099282822 0.67053101556766026 0.65869424036998081 0.65329782367881473 0.67378347151177365 0.65704926681108045 0.65449347910699662 0.65979005047944406 0.63375324450730108 0.65823970820238986 0.65362682633622338 0.66442232317015848 0.65904884806357 0.66564386334768189 0.64548051833946962 0.64139940446085075 0.65278324670194943 0.65847779648065174 0.64717942545767815 0.6666708342914287 0.62633587891529585 0.64990661846322351 0.64840666231017363 0.66499424004184726 0.65576010588975986 0.66263351915576851 0.65990632615022315 0.66802791614981671 0.65967338161646627 0.65544491810525407 0.66520818458829678 0.66879495520533394 0.65080659215505354 0.66734796908008331 0.63857361641795729 0.67000912360719178 0.66128559617601623 0.65951418075073298
leaf_weight=77 173 64 110 505 277 48 244 149 32 248 32 99 115 49 147 569 1032 39 72 379 527 2379 122 61 67 73 28 66 68 28 30 40 511 82 396 954 591 5323 260 1192 54 200 43 45 97 87 153
leaf_count=77 173 64 110 505 277 48 244 149 32 248 32 99 115 49 147 569 1032 39 72 379 527 2379 122 61 67 73 28 66 68 28 30 40 511 82 396 954 591 5323 260 1192 54 200 43 45 97 87 153
internal_value=0.659475 0.658425 0.658582 0.654736 0.658981 0.653472 0.660086 0.65609 0.660406 0.66028 0.657116 0.654258 0.660524 0.656393 0.661233 0.655347 0.659322 0.658585 0.649636 0.658841 0.661455 0.658092 0.65454 0.656829 0.65179 0.660829 0.649907 0.652361 0.657071 0.645023 0.638528 0.661182 0.661514 0.660715 0.660805 0.662647 0.666533 0.660424 0.662004 0.663478 0.658961 0.655571 0.653667 0.651895 0.659436 0.653983 0.663586
internal_weight=17937 6603 6539 615 5924 345 11334 524 280 10810 774 131 10036 444 196 601 5579 3996 111 3885 865 3020 641 338 446 195 268 220 134 86 58 1583 1543 9592 9477 1627 673 7850 2527 1702 825 429 375 332 510 287 250
internal_count=17937 6603 6539 615 5924 345 11334 524 280 10810 774 131 10036 444 196 601 5579 3996 111 3885 865 3020 641 338 446 195 268 220 134 86 58 1583 1543 9592 9477 1627 673 7850 2527 1702 825 429 375 332 510 287 250
is_linear=0
shrinkage=1


Tree=1
num_leaves=48
num_cat=0
split_feature=2 7 5 6 5 6 2 8 7 4 5 6 2 6 0 4 7 0 4 7 6 0 7 2 4 8 5 4 4 4 4 4 2 7 0 6 4 2 7 7 0 5 6 0 4 6 2
split_gain=4.12268 2.92459 3.70084 4.20002 2.76359 4.39607 4.20111 4.01976 3.71598 3.25255 2.74566 2.66291 2.96221 2.29715 2.28872 1.84731 1.84351 2.30867 1.83044 1.82119 1.80016 1.84176 3.31596 1.7798 2.44791 2.31641 2.0209 1.76627 1.76452 1.73195 1.69419 2.14555 1.66325 1.65117 1.63487 3.20742 1.61168 1.74277 1.61047 2.35905 2.86216 2.36671 2.00779 1.62885 1.60687 2.27962 1.74717
threshold=53.942711753124357 0.0056832615339882089 67.283658462757202 0.94950247575172531 45.630736585801564 1.1603460385362812 -45.509209613310567 0.012974064727882656 0.0024463519961078826 0.0059988508504152391 30.103201678339385 0.80870080360369401 -68.193801209011966 0.86897503067242299 45.230758605724411 0.93101401669620598 0.005503062173957028 11.844889981027292 0.94810711294197914 0.0088800627115048856 0.88905547051085454 17.488766045063134 0.0084958734566443345 75.17008381925703 0.84233337241119799 0.24767770129106806 76.294410103780777 0.39039256204937245 0.30183197878154155 0.90763616625217225 0.13800938213676442 0.20223751959668648 81.096826998846879 0.0031426471717501806 18.788648708757837 0.97548288448988341 0.093649117166284837 40.798218361715236 0.0042330258081351288 0.0020263560320405087 5.3848058559941432 47.146302969803784 0.83398372669152254 33.256162524965106 3.1679842082965597e-09 1.0570131277888761 -28.568821910031119
decision_type=10 2 2 2 2 2 10 2 2 10 2 2 10 2 10 10 2 10 10 2 2 10 2 10 10 2 2 10 10 10 10 10 10 2 10 2 10 10 2 2 10 2 2 10 10 2 10
left_child=4 2 16 18 6 7 -1 -6 -8 44 14 12 -9 -12 -11 33 27 -18 -4 -15 21 32 -23 24 26 -26 -22 28 -2 -24 -21 -32 -3 -14 -27 -36 -7 -38 39 43 -41 -42 -40 -29 -10 -46 -47
right_child=1 20 3 -5 5 36 8 11 9 10 13 -13 15 19 -16 -17 17 -19 -20 30 23 22 29 -25 25 34 -28 38 -30 -31 31 -33 -34 -35 35 -37 37 -39 42 40 41 -43 -44 -45 45 46 -48
leaf_value=-0.0012495490151728838 -0.0010439679588066966 0.0017710579594770938 -0.0083489765519780806 0.00084427288882988184 -0.013600457403594017 -0.0070582328413138122 -0.0051785733637255754 0.0085020812772306324 0.002657789066619949 -0.0075789434294047846 -0.0049170533250032754 -0.00031557761788892751 -0.011967856167517464 0.003605188884260781 0.0051179402036409891 -0.016873804826001395 0.0073347578629116153 -0.013135412522653317 -0.022440112504846958 0.011142334627609012 0.0062680835110620874 -0.010963340527646095 0.014246086429720344 0.0094167769283506047 0.0081556471937039542 -0.00018732294133479003 -0.0067593324627315135 0.0062633209465441392 -0.017258686575254027 -0.0047534363455226346 -0.0034070373092464305 0.00778391865048823 0.014365176548890784 0.0053582698270977008 -0.022811725001845085 0.0032817828827598886 -0.0047369415404088224 0.0027312433648112055 0.012165836037676337 -0.0095126255327802715 -0.012501202072287922 0.00088694414628385403 0.0028035352378315841 -0.0078817851058989637 -0.015827689256190245 -0.0066253423359536861 0.0051538087762790985
leaf_weight=2635 78 476 95 158 86 566 231 35 152 133 90 6064 44 1235 83 85 28 68 51 271 629 107 39 241 59 85 46 348 35 31 86 218 41 36 43 28 368 162 97 110 49 1586 550 32 56 117 74
leaf_count=2635 78 476 95 158 86 566 231 35 152 133 90 6064 44 1235 83 85 28 68 51 271 629 107 39 241 59 85 46 348 35 31 86 218 41 36 43 28 368 162 97 110 49 1586 550 32 56 117 74
internal_value=-1.89206e-10 0.00144114 0.000371286 -0.00593488 -0.000574119 -0.00132278 0.00046184 -0.000717117 0.00210405 0.00277295 0.00370989 -0.000540238 -0.00735194 0.0044386 -0.00270005 -0.0107149 0.00101438 -0.00716495 -0.0132712 0.0049038 0.00336687 0.000961325 -0.00432111 0.00484296 0.00360443 -0.00197095 0.00538029 0.00128656 -0.00606623 0.00583201 0.00769298 0.00461806 0.00276982 -0.0041711 -0.00580088 -0.0125213 -0.00483184 -0.00245421 0.00158629 0.000788313 -0.000144558 0.000485709 0.00420716 0.00507215 -0.00219586 -0.00518273 -0.00206169
internal_weight=17937 5110 3285 304 12827 7446 5381 6350 2746 2515 2116 6264 200 1900 216 165 2981 96 146 1810 1825 694 177 1131 890 215 675 2885 113 70 575 304 517 80 156 71 1096 530 2772 2125 1745 1635 647 380 399 247 191
internal_count=17937 5110 3285 304 12827 7446 5381 6350 2746 2515 2116 6264 200 1900 216 165 2981 96 146 1810 1825 694 177 1131 890 215 675 2885 113 70 575 304 517 80 156 71 1096 530 2772 2125 1745 1635 647 380 399 247 191
is_linear=0
shrinkage=0.0599982


Tree=2
num_leaves=48
num_cat=0
split_feature=2 7 5 6 5 6 2 8 7 4 4 6 2 5 7 0 0 6 4 4 4 6 6 0 7 7 0 2 4 8 5 7 7 0 5 0 6 6 4 0 4 7 7 7 7 0 2
split_gain=3.64282 2.58417 3.29751 3.91954 2.44191 3.88438 3.71211 3.55187 3.35806 2.9866 2.36585 2.35296 2.61742 2.18245 2.39555 2.02232 1.81621 1.69274 2.34911 1.63229 1.61671 2.24336 1.59063 1.63091 3.20613 1.58446 2.61796 1.57264 2.16298 2.04679 1.78567 1.56883 1.77786 2.58516 2.42012 1.91133 1.71997 3.34099 1.80074 1.66013 2.04076 2.33473 1.54546 2.23134 3.09325 1.86604 2.14358
threshold=53.942711753124357 0.0056832615339882089 66.474001939223726 0.94702175006558253 45.630736585801564 1.1603460385362812 -45.509209613310567 0.012974064727882656 0.0019941375108378234 0.53994763933662437 0.0059988508504152391 0.80870080360369401 -68.193801209011966 30.103201678339385 0.0080645520997868706 45.230758605724411 52.006382027028458 0.99046731200870075 0.32814781211020599 0.93101401669620598 0.25755700184506236 1.1438930043860158 0.88905547051085454 16.426462724123201 0.0080645520997868706 0.0054590145466136188 11.298468142890737 75.17008381925703 0.84233337241119799 0.24767770129106806 76.294410103780777 0.0042330258081351288 0.0020263560320405087 5.3848058559941432 47.146302969803784 31.713317397309904 0.98619903015392663 0.97948302634400064 0.7764411953481164 16.666206604778896 0.67452561224841656 0.0049317779341357185 0.0046335346670874963 0.0029113761007958129 0.0019941375108378234 10.740488413357129 -78.818692305285097
decision_type=10 2 2 2 2 2 10 2 2 10 10 2 10 2 2 10 10 2 10 10 10 2 2 10 2 2 10 10 10 2 2 2 2 10 2 10 2 2 10 10 10 2 2 2 2 8 8
left_child=4 2 16 -4 6 7 42 -6 9 -8 -10 12 -9 15 20 -12 25 18 -16 -14 -15 -22 23 -3 -25 31 -27 28 30 -30 -24 32 35 -34 -35 -2 37 38 -36 -33 41 -41 43 44 -1 -46 -47
right_child=1 22 3 -5 5 -7 8 11 10 -11 13 -13 19 14 17 -17 -18 -19 -20 -21 21 -23 27 24 -26 26 -28 -29 29 -31 -32 39 33 34 36 -37 -38 -39 -40 40 -42 -43 -44 -45 45 46 -48
leaf_value=0.0043498462087585852 0.0058536852231213469 0.0027543036949985258 -0.01136551032204812 0.0010391085752853306 -0.012784453724718214 -0.0045419344207666837 -0.016995587281337283 0.0079919717761016418 -0.001729736962647988 0.0027129845084643616 -0.0071242212305130618 -0.00029664331084306193 -0.003920840822172463 0.0044662617384131761 -0.014982901538367364 0.0048108725151328668 -0.0078922238014660639 0.007910642607374882 0.005704981907932968 -0.015861405753362492 0.0014218896495268071 -0.01014497186318768 0.0058920094727712077 -0.010678734776022551 0.0045631330439472092 0.0094416485950581264 -0.011709245170793813 0.0088517877792177839 0.0076663228455865814 -0.0054528335618457685 -0.0063537839089690884 0.0073230735247835754 -0.0089418848013539925 -0.012171713805495678 -0.0029347795040835277 -0.0084915227586902491 0.0054627367240041502 -0.017921441947509657 0.0020445868346273431 0.015385320075267411 -0.0021063210010606945 -0.0048357814443435515 -0.0024229448388238079 0.00272631100074719 -0.016432548764857599 -0.017592859401140706 -0.0017740074152197049
leaf_weight=149 347 494 179 188 86 1096 62 35 418 50 133 6064 80 650 29 83 80 583 62 85 609 67 629 108 92 29 77 241 59 156 46 309 110 52 367 37 258 36 909 61 215 31 1516 666 53 36 215
leaf_count=149 347 494 179 188 86 1096 62 35 418 50 133 6064 80 650 29 83 80 583 62 85 609 67 629 108 92 29 77 241 59 156 46 309 110 52 367 37 258 36 909 61 215 31 1516 666 53 36 215
internal_value=-2.72146e-11 0.00135467 0.000349009 -0.0050111 -0.000539672 -0.00124341 0.000434131 -0.000674091 0.00197781 -0.00819712 0.00241046 -0.000507825 -0.00691084 0.00319142 0.0038102 -0.00253805 0.00102316 0.00672271 -0.00088786 -0.010072 0.00232978 0.00027547 0.00316487 0.000903647 -0.00366748 0.00127447 -0.00592268 0.00455239 0.00338817 -0.00185269 0.00505748 0.00155372 0.00077797 -4.09105e-05 0.000562731 0.00447146 0.000984509 0.000103882 0.000612434 0.00421845 0.0010936 0.00857169 -0.00117458 0.000516685 -0.0027319 -0.00620289 -0.00404285
internal_weight=17937 5110 3285 367 12827 7446 5381 6350 2746 112 2634 6264 200 2216 2000 216 2918 674 91 165 1326 676 1825 694 200 2838 106 1131 890 215 675 2732 2116 1732 1622 384 1570 1312 1276 616 307 92 2635 1119 453 304 251
internal_count=17937 5110 3285 367 12827 7446 5381 6350 2746 112 2634 6264 200 2216 2000 216 2918 674 91 165 1326 676 1825 694 200 2838 106 1131 890 215 675 2732 2116 1732 1622 384 1570 1312 1276 616 307 92 2635 1119 453 304 251
is_linear=0
shrinkage=0.0599982


Tree=3
num_leaves=48
num_cat=0
split_feature=2 7 5 0 5 6 2 8 7 1 1 5 8 7 7 6 2 1 6 1 7 0 6 1 7 7 7 8 1 1 0 0 5 7 6 6 0 5 6 6 5 7 5 8 0 5 8
split_gain=3.21881 2.29971 3.79551 3.51422 2.15768 3.43225 3.28003 3.13845 2.99058 2.65995 2.46738 2.0381 2.03182 2.0993 1.93747 1.91909 3.32315 1.85949 1.83631 1.81413 2.26945 1.75204 2.29985 5.52597 2.09319 1.92842 1.87125 1.66359 1.98513 1.56788 1.52574 1.8103 1.75947 1.55245 1.47282 3.20178 1.46381 1.46308 1.45418 1.45283 1.44773 1.54178 1.41799 1.41594 2.36413 3.02588 2.7994
threshold=53.942711753124357 0.0047581213565072245 66.474001939223726 15.792783860557755 45.630736585801564 1.1603460385362812 -45.509209613310567 0.012974064727882656 0.0024463519961078826 -22.708145260824576 32.613048709317027 30.103201678339385 0.83048258947927056 0.0064341749657241551 0.0096799341883792456 0.80599294769695129 -69.005505653746511 9.1988210022534442 0.95239066777830039 1.1178891849395092 0.0031426471717501806 17.488766045063134 0.92390564982338375 -6.4103341454150167 0.0084958734566443345 0.0061694654807018957 0.0049317779341357185 0.40431127843997378 1.1178891849395092 -4.0880297959635277 4.5357093456391171 8.4731941365473364 52.234386231063972 0.0026004711534846989 0.98619903015392663 0.97280499756212191 55.408610273096691 72.876955663832788 0.79323015121941431 1.1174762299588599 53.95655708690412 0.0030940222072240267 53.475102099876871 0.72802570896585628 35.150482678576338 38.182355151353129 0.89455151691261181
decision_type=10 2 2 10 2 2 10 2 2 10 8 2 2 2 2 2 10 10 2 10 2 10 2 10 2 2 2 2 10 10 10 10 2 2 2 2 10 2 2 2 2 2 2 2 10 2 2
left_child=4 2 30 29 6 7 9 -6 -8 -1 15 12 13 -10 43 16 -9 -5 -16 20 -18 37 23 -23 -25 26 -24 -15 -29 -4 32 33 -2 42 35 -33 -12 -3 -11 -36 -35 -42 -32 -13 -45 -46 -47
right_child=1 21 3 17 5 -7 8 10 11 38 36 14 -14 27 18 -17 19 -19 -20 -21 -22 22 25 24 -26 -27 -28 28 -30 -31 31 34 -34 40 39 -37 -38 -39 -40 -41 41 -43 -44 44 45 46 -48
leaf_value=-0.014409432314033238 0.0066432041301722599 0.004804008958900991 -0.027332845289292366 0.0034032612638453838 -0.012017408679335852 -0.0042694263826936023 -0.0046740994438021106 0.011476091026937989 -0.017712342528365458 0.0079602993194965947 0.013454463808480782 0.0029324981981378472 0.01268808215777409 0.0031363799385126134 -0.0065682915719604152 -0.00049109738744119048 -0.015121283855726038 -0.0089292978708327957 0.0070970691739668289 -0.017951039139472092 0.0044193699145973148 -0.028479096595435401 0.012278863592434804 -0.0039489062508440429 0.00611054954361194 0.0046244642334981956 -0.0034322371136260785 -0.014140167549325247 0.0013851978711833337 -0.0099070135829545311 0.0026848674957015025 0.00041205996081283499 -0.010206892744293167 0.010588756081115595 0.0051520363486206987 -0.010358502293338297 0.0021337572693961001 -0.006744628086455995 -0.001061604955089771 -0.0057813937971678908 -0.013433755332843614 0.0022085393788893268 0.015925815821476213 0.0033411294404706525 0.0045137345557784104 -0.019478213418554727 0.0029234482003567476
leaf_weight=53 30 1072 34 95 86 1096 231 30 34 66 68 1330 30 122 38 5911 40 82 517 65 46 28 31 235 109 612 228 63 56 41 48 1585 87 49 350 106 104 41 2516 50 30 93 74 172 54 71 28
leaf_count=53 30 1072 34 95 86 1096 231 30 34 66 68 1330 30 122 38 5911 40 82 517 65 46 28 31 235 109 612 228 63 56 41 48 1585 87 49 350 106 104 41 2516 50 30 93 74 172 54 71 28
internal_value=-1.19624e-12 0.00127339 9.61405e-05 -0.00692221 -0.000507293 -0.00116881 0.000408084 -0.000633646 0.00185915 -0.00110411 -0.000477356 0.00245922 -0.00213836 -0.00375578 0.00309372 -0.000677441 -0.00676296 -0.00231013 0.00616142 -0.0103866 -0.00466931 0.00264952 0.00110129 -0.00284774 -0.000761462 0.00278791 -0.00155176 -0.00178681 -0.00683411 -0.0178067 0.000803025 0.00113118 -0.00588636 0.00553951 0.000511361 -0.000263091 0.00660939 0.00437859 -0.000830991 0.00378536 0.00186762 -0.00160665 0.0107163 0.00206498 -0.00148517 -0.00691082 -0.0131424
internal_weight=17937 5110 2754 252 12827 7446 5381 6350 2746 2635 6264 2515 305 275 2210 6092 181 177 555 151 86 2356 1243 372 344 871 259 241 119 75 2502 2385 117 294 2091 1691 172 1113 2582 400 172 123 122 1655 325 153 99
internal_count=17937 5110 2754 252 12827 7446 5381 6350 2746 2635 6264 2515 305 275 2210 6092 181 177 555 151 86 2356 1243 372 344 871 259 241 119 75 2502 2385 117 294 2091 1691 172 1113 2582 400 172 123 122 1655 325 153 99
is_linear=0
shrinkage=0.0599982


Tree=4
num_leaves=48
num_cat=0
split_feature=2 7 5 6 7 5 0 1 1 5 5 0 5 7 5 7 2 5 2 7 0 0 5 0 0 5 6 7 7 5 6 0 0 5 7 1 6 7 5 0 7 5 7 7 6 0 1
split_gain=2.85937 2.5899 3.17363 4.13472 2.1638 2.10872 2.0577 2.43497 2.04807 1.99088 1.93962 1.83872 2.45586 1.77776 3.55945 3.4513 2.03446 1.87616 2.73239 2.51907 1.753 2.18335 1.99338 1.75191 1.70303 1.67913 2.41714 2.04295 1.84461 1.67104 1.69525 1.58933 1.55945 2.04772 1.66816 1.56744 1.51359 3.06961 2.19593 2.16458 1.91086 1.87786 1.78438 1.68066 2.58695 1.61844 1.61706
threshold=50.461955280701339 0.0042069042902372475 66.19674767541116 0.88905547051085454 0.0020263560320405087 70.289517520974513 5.3848058559941432 12.265689014953587 6.5137762773921741 71.289183903645352 52.562518547606409 17.488766045063134 72.876955663832788 0.0024182990286231282 56.967049053446367 0.0019941375108378234 -76.914529503790703 46.281352989171772 -44.953950541145282 0.0046335346670874963 6.7643491295324338 9.9720669405174114 41.347165053468636 5.1146270322619865 30.903736113956363 30.103201678339385 1.0769999338876679 0.0096799341883792456 0.0059802053128760286 50.792949030369421 1.0018264185910983 27.273738722129131 7.8597581784248112 52.79190042078168 0.0014474738414689957 3.258772682541506 1.0995168379177296 0.0040859916745380059 69.044053301260149 59.458028545305865 0.0032903388208785083 60.88695136928694 0.0072531033768488701 0.012119428553006283 1.1220966565849764 33.742309177076464 32.613048709317027
decision_type=10 2 2 2 2 2 10 10 10 2 2 10 2 2 2 2 10 2 10 2 8 10 2 8 8 2 2 2 2 2 2 10 10 2 2 10 2 2 2 8 2 2 2 2 2 10 8
left_child=5 2 4 -4 32 13 -6 24 -7 -5 -9 12 -3 14 15 16 -1 18 19 -15 -21 22 -22 -17 -8 26 -20 -27 -28 30 -18 -12 -2 34 -34 -35 46 40 39 41 -38 -39 -41 44 -43 -46 -19
right_child=1 11 3 9 6 8 7 10 -10 -11 31 -13 -14 17 -16 23 29 36 25 20 21 -23 -24 -25 -26 27 28 -29 -30 -31 -32 -33 33 35 -36 -37 37 38 -40 42 -42 43 -44 -45 45 -47 -48
leaf_value=0.011487648766965317 0.011753795501963886 0.0043838217920114299 -0.022199953835935177 0.001406494194202216 -0.0081801487440124106 -0.0072841498396600578 8.400974965359666e-05 -0.016346997624637958 0.0017542166848516978 -0.013530206060693519 -0.015865251153204665 0.00093606391513391569 -0.0084362340595052158 0.0018793195892119327 0.0066057137741929312 -0.018521020577174686 -0.0015335770827187838 -0.00046962153684169499 -0.018985894954425007 0.0078925115779498907 -0.0013161137320150138 -0.0019056270724582621 -0.018863272960782718 -0.0056892909846716416 0.0061298706243359917 0.0016124318125189808 -0.01498631129479672 0.0057459636383590269 0.0013124279311883143 0.0030514761950965127 -0.010669539065299646 -0.0001681439199546777 -0.014066033585907779 0.011077663993600101 0.0011642672322391991 0.00080799217324680752 -0.002909746382177494 0.0012191091055740132 0.012406022644176283 -0.0040973123396324069 -0.01225015563194354 -0.022234876709090065 -0.020575205421147016 0.0036334299958567934 -0.010921321467103558 0.00065121578549795424 0.0076234332827652129
leaf_weight=48 81 1363 51 119 118 306 1376 50 128 44 28 1659 56 893 146 41 372 3805 28 61 41 1472 54 582 191 1777 28 568 233 217 91 136 39 107 77 107 151 612 42 69 165 35 36 66 77 100 91
leaf_count=48 81 1363 51 119 118 306 1376 50 128 44 28 1659 56 893 146 41 372 3805 28 61 41 1472 54 582 191 1777 28 568 233 217 91 136 39 107 77 107 151 612 42 69 165 35 36 66 77 100 91
internal_value=2.80121e-11 0.00112408 -0.000300538 -0.00729044 0.000347012 -0.000510506 -0.000507267 1.0995e-06 -0.00461846 -0.0026255 -0.00600208 0.00229228 0.00387789 -0.000360699 -0.00229388 -0.00325564 -0.000450331 -8.254e-05 0.000730473 -0.00068147 -0.00208613 -0.00247458 -0.0112903 -0.00653375 0.000820933 0.00208184 -0.00223331 0.00261365 -0.000436096 -0.00129301 -0.0033292 -0.00284814 0.00429415 0.00246315 -0.00395626 0.00594283 -0.000880993 -0.00260987 -0.00103231 -0.00159956 -0.00778686 -0.000638359 -0.00974688 -0.00472746 -0.00733038 -0.00438316 -0.00028059
internal_weight=17937 5602 2524 214 2310 12335 1899 1781 434 163 214 3078 1419 11901 1497 1351 728 10404 5155 2521 1628 1567 95 623 1567 2634 289 2345 261 680 463 164 411 330 116 214 5249 1353 1037 995 316 890 105 278 212 177 3896
internal_count=17937 5602 2524 214 2310 12335 1899 1781 434 163 214 3078 1419 11901 1497 1351 728 10404 5155 2521 1628 1567 95 623 1567 2634 289 2345 261 680 463 164 411 330 116 214 5249 1353 1037 995 316 890 105 278 212 177 3896
is_linear=0
shrinkage=0.0599982


Tree=5
num_leaves=48
num_cat=0
split_feature=2 6 6 5 6 8 4 6 5 4 1 1 5 0 8 1 6 4 2 6 2 0 1 4 5 0 6 0 1 2 5 6 6 4 4 4 1 4 2 5 4 4 6 0 8 8 0
split_gain=2.53152 2.14652 2.8126 1.71565 2.86818 2.77928 2.75079 2.80607 2.30877 2.24489 2.04014 2.02636 1.76276 2.23338 1.80956 2.74331 1.68643 1.6895 1.80871 1.67875 2.89584 1.64533 1.61511 2.15148 1.61018 2.43699 1.77033 2.44589 1.71318 2.82954 1.56547 1.54191 1.52751 1.52512 2.38534 2.07383 2.3367 1.52462 1.49621 1.49098 1.46628 1.56054 1.44955 1.60271 1.54296 1.47609 1.41902
threshold=53.942711753124357 1.2192555848277495 1.1144957184639588 45.630736585801564 1.1603460385362812 0.012974064727882656 0.51699908596420763 1.1068788303546258 30.827714051232537 0.0059988508504152391 36.340784286223354 6.6705890525775757 39.676286528963203 35.357008446401117 0.72802570896585628 0.41298301230272477 1.1144957184639588 0.21250593317286245 -46.029709323146498 0.80599294769695129 -69.005505653746511 61.322830143927682 1.1178891849395092 0.96017981303561661 72.876955663832788 15.933562872036157 0.98495363849457374 23.554140819711481 -5.544254017318166 57.262717173598077 28.632009201848195 0.76935578155233408 1.0032330365583884 0.58791322338336593 0.21250593317286245 0.24471455281515539 -12.16832671900413 0.69928468720916259 -32.904402278686852 46.644056270646068 0.50520052176493679 0.63453594988370632 0.9177016599124993 18.519889947629657 0.80032015945228829 0.57032574523274504 43.165099762531831
decision_type=10 2 2 2 2 2 8 2 2 10 8 10 2 10 2 10 2 10 10 2 10 10 10 10 2 10 2 8 10 10 2 2 2 10 10 10 10 10 10 2 10 10 2 10 2 2 10
left_child=3 2 24 6 5 -5 8 31 11 32 19 16 -11 -14 21 -16 -1 18 -18 20 -7 -15 23 -22 26 -26 27 28 29 -2 -13 -8 46 34 -21 36 -36 -9 -33 -37 -4 -42 43 44 45 -31 -10
right_child=1 -3 40 4 -6 10 7 37 9 12 -12 30 13 14 15 -17 17 -19 -20 33 22 -23 -24 -25 25 -27 -28 -29 -30 42 -32 38 -34 -35 35 39 -38 -39 -40 -41 41 -43 -44 -45 -46 -47 -48
leaf_value=-0.01436168392648703 0.01000578339167158 0.012811341601364375 -0.014222227102742981 -0.011263133964327335 -0.0038741652913142147 0.010772665281912419 0.011075496116896646 -0.011991886618209166 -0.019914662268929566 0.0051232435170333098 0.0070342911488187661 0.0048798132479204274 0.0037892495918668734 0.0020371053069054472 -0.023338453314032226 -0.0010503423780810987 -0.01458057328782596 0.0076445950662566778 -0.0021370304424992094 0.00052283566807889584 0.0046078262790204801 -0.010082946974732925 -0.016773518310069509 -0.014418189845544915 -0.017577289935246342 -0.00071863312792445878 0.0039203613437488651 -0.0018628658883593629 0.0025538693203157174 -0.0037846182877341317 -0.0056515451139427563 -0.0014842065831489645 -3.9596821082593287e-06 0.00074059805721617307 0.0061315182879338242 0.0048154559114848431 -0.012730380798816568 0.0025316258372049521 0.0027901860953725723 -0.0024971256753742728 0.0092132363860190046 -0.0099140395438118492 0.0016448908750318434 -0.015088129607770938 -0.015950032447803832 0.0056365477997816068 -0.0020810525620076513
leaf_weight=55 79 56 64 86 1096 30 40 123 29 960 130 201 602 252 33 50 54 46 190 1569 46 48 65 40 39 148 851 890 2240 282 68 1869 342 2500 29 107 128 33 350 1620 28 34 250 43 30 76 36
leaf_count=55 79 56 64 86 1096 30 40 123 29 960 130 201 602 252 33 50 54 46 190 1569 46 48 65 40 39 148 851 890 2240 282 68 1869 342 2500 29 107 128 33 350 1620 28 34 250 43 30 76 36
internal_value=3.22986e-11 0.00112929 0.000999851 -0.000449886 -0.00103976 -0.000550548 0.00036636 -0.001137 0.00159044 0.00244572 -0.000403472 -0.00168582 0.00329364 0.00151047 -0.00207132 -0.00991188 -0.00472936 -0.00290254 -0.00489093 -0.000561103 -0.00625341 9.78969e-05 -0.00963607 -0.00424148 0.00122617 -0.00423461 0.00144156 0.000899286 0.00171872 -0.000742757 0.00221761 -0.000599556 -0.00160638 -0.00038803 -0.00120517 -0.00264425 -0.00924634 -0.00891961 -0.000810012 -0.00204406 -0.00785182 -0.00127591 -0.00198965 -0.00409785 -0.00287986 -0.00178459 -0.0100376
internal_weight=17937 5110 5054 12827 7446 6350 5381 2415 2966 2352 6264 614 1945 985 383 83 345 290 244 6134 181 300 151 86 4928 187 4741 3890 3000 760 269 2259 407 5953 3453 1884 157 156 2219 1727 126 62 681 431 388 358 65
internal_count=17937 5110 5054 12827 7446 6350 5381 2415 2966 2352 6264 614 1945 985 383 83 345 290 244 6134 181 300 151 86 4928 187 4741 3890 3000 760 269 2259 407 5953 3453 1884 157 156 2219 1727 126 62 681 431 388 358 65
is_linear=0
shrinkage=0.0599982


Tree=6
num_leaves=48
num_cat=0
split_feature=2 7 5 6 7 0 1 5 4 2 6 5 5 0 4 6 1 2 5 1 7 5 7 4 4 5 6 5 4 5 0 5 1 1 4 1 7 1 0 4 7 5 4 7 6 7 4
split_gain=2.26935 2.31121 2.76155 3.63459 1.90837 1.81917 2.08408 1.77204 2.19834 2.11431 2.24697 1.73043 1.7212 1.58105 3.08489 3.16252 3.42323 1.97731 1.90029 1.63131 1.57876 3.1757 3.41224 3.11249 2.70685 2.37251 2.36863 1.73084 1.71967 1.67994 1.65954 1.83331 2.4442 1.76246 2.53228 1.65797 1.60717 1.54286 1.53382 1.50589 1.53477 1.46781 2.58321 2.75562 4.74263 2.42702 2.03564
threshold=50.461955280701339 0.0042069042902372475 66.19674767541116 0.88905547051085454 0.0020263560320405087 5.3848058559941432 12.265689014953587 70.289517520974513 0.20653960753178466 35.71004303430616 1.2364436059631008 71.289183903645352 52.79190042078168 17.488766045063134 0.87823423986599403 0.94950247575172531 -2.4259694192016918 80.053133225109391 72.876955663832788 36.340784286223354 0.0024182990286231282 57.242755176350308 0.0019941375108378234 0.21250593317286245 0.30745361227719692 49.387353347863595 1.0970757334907126 42.550051315715031 0.98726193088064729 48.816325504193763 5.1146270322619865 42.719267951248874 18.087731681722207 0.41298301230272477 0.81473690106904495 8.5700354557099576 0.0022130679169230596 14.652596994321648 30.903736113956363 0.043694208562089616 0.012891325353435916 46.281352989171772 0.53994763933662437 0.01382910265524118 0.99999992881497846 0.0045703340769280149 0.70643319435639107
decision_type=10 2 2 2 2 10 10 2 10 10 2 2 2 10 10 2 10 10 2 10 2 2 2 10 10 2 2 2 10 2 8 2 10 10 10 8 2 10 10 10 2 2 8 2 2 2 10
left_child=7 2 4 -4 -2 -6 38 20 9 -9 -11 -5 -8 18 19 16 -16 -18 -3 -15 21 22 24 36 25 37 30 -26 -29 -30 -25 33 35 -32 -35 -33 -24 -1 -7 40 -12 42 45 46 -45 -22 -44
right_child=1 13 3 11 5 6 12 8 -10 10 39 -13 -14 14 15 -17 17 -19 -20 -21 41 -23 23 26 27 -27 -28 28 29 -31 31 32 -34 34 -36 -37 -38 -39 -40 -41 -42 -43 43 44 -46 -47 -48
leaf_value=-0.020063918116683462 0.003966527393858975 0.0040203290737715162 -0.020843439323525646 0.0012680253964888993 -0.007757064155329744 -5.4984182673218717e-06 -0.015115776905320809 -0.009668343318964821 -0.012453589706221097 0.0052842642828237439 -0.022572613216533255 -0.012657418760087021 -0.0025698789417335976 0.00271866154551643 -0.02027742726514712 0.0035859365773124119 -0.0082051240763191501 0.0040517322439262305 -0.007256792798607462 -0.0095963155234251012 0.0047060246320246614 0.0067104560790320154 0.010402016788385021 -0.020182249743595806 0.0089572233948307933 0.0024437565438439261 -0.025382375227298613 0.0015929883171516652 -0.019942994331600565 -0.00097022491509532742 -0.02392188267032954 -0.0046241316287240156 -0.021234903807457732 0.0030534584891504491 -0.021004261464136514 0.0075234494123751867 -0.0032146468873884121 -0.0043412982189097813 0.005732160386715709 0.003257758196642869 -0.0028792649048000685 -0.00076157234302721608 -0.0031051097336296557 0.00088929059605870656 -0.018448967736937081 0.0007989247180327343 0.0010399104813591199
leaf_weight=53 411 1363 51 119 118 1376 52 94 92 156 28 44 162 1211 59 141 135 73 56 40 771 133 50 34 96 54 28 423 28 42 37 257 28 36 28 48 83 39 191 35 29 5249 622 100 84 2221 1357
leaf_count=53 411 1363 51 119 118 1376 52 94 92 156 28 44 162 1211 59 141 135 73 56 40 771 133 50 34 96 54 28 423 28 42 37 257 28 36 28 48 83 39 191 35 29 5249 622 100 84 2221 1357
internal_value=7.47653e-12 0.00100141 -0.000344375 -0.0068647 0.000259673 -0.0005426 -6.46064e-05 -0.000454796 -0.00422055 -0.00200582 0.000898528 -0.00249099 -0.00561841 0.00210497 0.000847366 -0.00368301 -0.00752166 -0.00390344 0.00357528 0.0023249 -0.000317468 -0.00213924 -0.00300215 -0.00624607 -0.00022607 -0.00753928 -0.00843157 0.00158671 0.000151482 -0.00855933 -0.00741742 -0.00641741 -0.00426983 -0.0134981 -0.00747179 -0.00271238 0.0019044 -0.0133989 0.000693859 -0.00653816 -0.0125532 -5.53384e-05 0.000663774 -0.000915859 -0.00793904 0.00180573 -0.00026287
internal_weight=17937 5602 2524 214 2310 1899 1781 12335 434 342 248 163 214 3078 1659 408 267 208 1419 1251 11901 1497 1364 629 735 146 496 589 493 70 468 434 333 101 64 305 133 92 1567 92 57 10404 5155 2163 184 2992 1979
internal_count=17937 5602 2524 214 2310 1899 1781 12335 434 342 248 163 214 3078 1659 408 267 208 1419 1251 11901 1497 1364 629 735 146 496 589 493 70 468 434 333 101 64 305 133 92 1567 92 57 10404 5155 2163 184 2992 1979
is_linear=0
shrinkage=0.0599982


Tree=7
num_leaves=48
num_cat=0
split_feature=2 7 5 6 7 0 5 5 4 2 6 5 0 4 6 6 7 5 0 6 7 5 7 4 4 5 6 5 4 5 0 4 5 5 2 0 0 8 0 4 7 0 5 5 6 8 4
split_gain=2.00521 2.04219 2.44012 3.21153 1.68624 1.60743 1.72545 1.56578 1.94246 1.86821 2.00109 1.52901 1.40172 2.76981 2.46094 2.30586 2.82903 2.29295 1.75576 2.14596 1.395 2.80606 3.01506 2.79494 2.39178 2.09635 1.56971 1.52938 1.51951 1.4844 1.4287 2.11407 1.44132 2.10748 2.48689 2.1265 1.65724 1.63018 1.36467 1.53988 2.94707 1.33525 1.32295 1.94303 2.12534 1.83532 1.67015
threshold=50.461955280701339 0.0042069042902372475 66.19674767541116 0.88905547051085454 0.0020263560320405087 5.3848058559941432 47.146302969803784 70.289517520974513 0.20653960753178466 35.71004303430616 1.2241688371185939 71.289183903645352 15.413819185114845 0.96514305530183009 0.95477851263379543 0.8942569461330524 0.0063039057721635513 72.876955663832788 21.62462805140833 0.84340009606592903 0.0024182990286231282 57.242755176350308 0.0019941375108378234 0.30183197878154155 0.30745361227719692 49.387353347863595 1.0702189182291393 42.550051315715031 0.98726193088064729 48.816325504193763 9.8038635172946389 1.0874481370937163e-08 59.574763273337027 63.932769625870762 15.563673077337494 18.638704266374045 16.666206604778896 0.33477701031679036 30.456781247755949 0.94810711294197914 0.0013883134967773694 47.394248405241939 42.719267951248874 53.95655708690412 1.0108193504333265 0.5098656972403447 0.65623038833209335
decision_type=10 2 2 2 2 10 2 2 10 10 2 2 10 10 2 2 2 2 10 2 2 2 2 10 10 2 2 2 10 2 10 8 2 2 10 10 10 2 10 10 2 10 2 2 2 2 10
left_child=7 2 4 -4 38 -6 -7 20 9 -9 -11 -5 17 -14 15 18 -17 -3 19 -15 21 22 24 -24 25 41 42 -26 -29 -30 31 -22 -32 34 -34 36 37 -36 39 -2 -41 -1 45 44 46 -25 -44
right_child=1 12 3 11 5 6 -8 8 -10 10 -12 -13 13 14 -16 16 -18 -19 -20 -21 30 -23 23 26 27 -27 -28 28 29 -31 32 -33 33 -35 35 -37 -38 -39 -40 40 -42 -43 43 -45 -46 -47 -48
leaf_value=-0.018258970646153259 0.0082041496489656512 0.0041151960984565942 -0.019592869668281554 0.0011919461103627508 -0.0072916542588469637 -0.010522309003238322 0.00027263424428001446 -0.0090882597176865018 -0.011706395835700829 0.0052747320271633452 -0.0057119511847435389 -0.011897995851463028 0.001919659010988819 -0.0079077447826529281 0.0043987833838388625 -0.028467782240659979 -0.0057887540168674789 -0.010328220682113807 -0.013063887506188716 0.011883755777201382 -0.016251166567014464 0.0063078408332179281 0.0010632681682737591 -0.021629942771076719 0.0084198059434847927 0.0022971355273907093 -0.021458865351046321 0.0014974116757355905 -0.018746449986423181 -0.00091201340156032041 0.00045502371027595755 -0.0016458948306621389 0.010289517690641107 0.00087762401937679089 0.0069244457642522635 -0.0074009185705170523 0.012420987165736218 -0.010029248909857775 -0.0048872492908263315 -0.015520824265830143 0.0051314712510955821 -0.0033707778129371782 -0.0137951376565744 -0.01590386701024693 0.011242019011445961 -0.0049429054292679971 -0.0026390026521581097
leaf_weight=57 220 1132 51 119 118 55 1726 94 92 148 100 44 1627 38 79 36 44 41 40 41 37 133 157 49 96 54 30 423 28 42 8255 997 39 534 35 422 36 49 57 33 101 35 64 55 31 46 197
leaf_count=57 220 1132 51 119 118 55 1726 94 92 148 100 44 1627 38 79 36 44 41 40 41 37 133 157 49 96 54 30 423 28 42 8255 997 39 534 35 422 36 49 57 33 101 35 64 55 31 46 197
internal_value=1.45543e-11 0.000941328 -0.000323713 -0.00645283 0.000244093 -0.000510045 -6.07301e-05 -0.000427509 -0.00396733 -0.00188547 0.000844618 -0.00234154 0.00197868 0.000973978 -0.00456064 -0.00811739 -0.0159943 0.00361035 -0.00282198 0.00236379 -0.00029842 -0.00201089 -0.00282203 -0.00587131 -0.000212506 -0.00708694 -0.00817794 0.00149151 0.000142393 -0.00804579 -5.20182e-05 -0.00216852 0.000181543 -0.0018432 -0.00434392 -0.00539688 0.00165065 -0.00296521 0.00372854 0.00511583 4.54582e-05 -0.012595 -0.00727652 -0.00555903 -0.00361051 -0.0135499 -0.00537461
internal_weight=17937 5602 2524 214 2310 1899 1781 12335 434 342 248 163 3078 1905 278 199 80 1173 119 79 11901 1497 1364 629 735 146 472 589 493 70 10404 1034 9370 1115 581 542 120 84 411 354 134 92 442 347 292 95 261
internal_count=17937 5602 2524 214 2310 1899 1781 12335 434 342 248 163 3078 1905 278 199 80 1173 119 79 11901 1497 1364 629 735 146 472 589 493 70 10404 1034 9370 1115 581 542 120 84 411 354 134 92 442 347 292 95 261
is_linear=0
shrinkage=0.0599982


Tree=8
num_leaves=48
num_cat=0
split_feature=2 6 6 1 6 5 6 8 2 1 1 4 6 6 2 4 5 0 4 6 2 1 4 4 1 6 2 2 6 0 2 1 4 6 4 5 0 1 0 6 5 6 2 6 6 4 6
split_gain=1.78965 1.89103 2.50328 1.33597 1.4154 1.3069 2.41236 2.30536 2.1938 2.28887 2.04628 1.82025 1.7178 1.6445 1.5274 1.91684 1.44304 1.62003 1.52053 1.4296 1.72884 1.62838 2.61288 1.36997 1.78862 1.53558 1.35042 1.36265 2.346 2.06494 1.49673 1.44502 2.30402 1.52164 1.47238 1.2961 1.82534 1.33139 1.29054 1.28123 3.06882 2.39441 2.06206 2.1855 1.40135 1.89058 1.38874
threshold=53.942711753124357 1.2192555848277495 1.1144957184639588 34.366812665865403 1.0879042290192982 45.630736585801564 1.1376037646302508 0.012974064727882656 -45.509209613310567 -22.708145260824576 32.613048709317027 0.0059988508504152391 0.86897503067242299 0.82196776538184746 -41.403131729767296 0.52923692782460974 30.103201678339385 45.230758605724411 0.089191765927962421 0.80870080360369401 -69.960209675932887 1.1178891849395092 0.93404815469755131 6.4261314602909189e-09 8.5700354557099576 1.0832701149928554 -27.650413524472459 38.380046842861077 1.2364436059631008 59.458028545305865 48.828861829295299 -21.429918998763927 0.15288551220932853 1.2364436059631008 0.098663625809027947 72.876955663832788 20.889585675985401 5.360709296049289 37.673701057325296 0.90367164160552071 57.353072780756783 0.96480222027386497 33.004930217762663 0.91516798847602809 0.85412483293110653 0.67793754335001888 0.87032727714435654
decision_type=10 2 2 10 2 2 2 2 10 10 8 10 2 2 10 10 2 10 10 2 10 10 8 10 10 2 10 10 2 10 10 10 10 2 10 2 10 10 10 2 2 2 10 2 2 10 2
left_child=5 2 3 4 35 8 7 -7 9 -1 19 23 13 -13 -8 26 17 -14 -18 20 -9 22 -22 -10 25 -25 -16 31 29 -29 -30 32 33 -28 -33 -2 -37 -38 -4 40 46 42 43 -41 -42 -46 -21
right_child=1 -3 38 -5 -6 6 14 10 11 -11 -12 12 16 -15 15 -17 18 -19 -20 39 21 -23 -24 24 -26 -27 27 28 30 -31 -32 34 -34 -35 -36 36 37 -39 -40 41 44 -43 -44 -45 45 -47 -48
leaf_value=-0.013244941957802271 0.0012009236701803531 0.011914328844979149 0.00021770585303034737 -0.0078566510320559647 0.0088255781313034548 -0.010198384002724738 -0.017061561003541378 0.0080897379037887032 0.00021905956007083234 -0.00064921539711899304 0.0063620636302733581 0.0045578106974229421 -0.0061941311497764025 -0.010306483808733953 0.0065252554582969696 0.0088689222003760625 0.0057593970188893539 0.0044881054656726385 0.0020448613643622151 -0.0020003942099998755 0.0078631144600098193 -0.014770639710053256 -0.01171237746835801 -0.024407044706444472 0.00054752165506808499 -0.006586023138943433 -0.0047056012803457972 0.0050808847971549279 -0.003980881108189214 -0.0084557713611587964 -0.018903834723822531 -0.0093436623630884404 -0.014821732636292809 0.010374071845790539 -0.00348135773016265 -0.011381834781262099 -0.0060034050180463802 0.008435377406171847 -0.012286102053396803 -0.00755670441731117 0.014501013712078655 0.00017201243989829932 -0.0061585929180065354 0.00027897225741150568 0.0094512197938364396 -0.0032401345192494186 0.0023006423637852401
leaf_weight=53 4619 56 48 60 85 85 28 29 300 2582 164 42 133 74 48 48 549 83 1430 584 45 70 54 28 61 46 39 215 178 50 28 322 28 63 296 72 45 47 78 157 71 3010 456 697 109 69 503
leaf_count=53 4619 56 48 60 85 85 28 29 300 2582 164 42 133 74 48 48 549 83 1430 584 45 70 54 28 61 46 39 215 178 50 28 322 28 63 296 72 45 47 78 157 71 3010 456 697 109 69 503
internal_value=1.9738e-11 0.00094951 0.000828016 0.00104153 0.0011512 -0.000378264 -0.000893097 -0.000386498 0.00033414 -0.000902564 -0.000247912 0.00152085 0.00219104 -0.00492458 -0.00319524 -0.00289999 0.00256709 -0.00208938 0.00307532 -0.000433091 -0.0054443 -0.0077667 -0.00281443 -0.00203963 -0.00705893 -0.0133291 -0.00334585 -0.00373454 -0.00120659 0.0025268 -0.00600924 -0.00532634 0.000423381 0.00460831 -0.00653583 0.00101482 -0.00422672 0.00137293 -0.00752275 -0.000257663 0.00136615 -0.000759843 -0.00290098 -0.00116154 0.00737424 0.00453154 -1.01261e-05
internal_weight=17937 5110 5054 4928 4868 12827 7446 6103 5381 2635 6018 2746 2311 116 1343 1315 2195 216 1979 5854 198 169 99 435 135 74 1267 1219 471 265 206 748 130 102 618 4783 164 92 126 5656 1336 4320 1310 854 249 178 1087
internal_count=17937 5110 5054 4928 4868 12827 7446 6103 5381 2635 6018 2746 2311 116 1343 1315 2195 216 1979 5854 198 169 99 435 135 74 1267 1219 471 265 206 748 130 102 618 4783 164 92 126 5656 1336 4320 1310 854 249 178 1087
is_linear=0
shrinkage=0.0599982


Tree=9
num_leaves=48
num_cat=0
split_feature=7 6 2 7 2 2 7 0 4 6 1 2 8 1 2 7 0 4 2 4 0 1 6 1 4 2 8 1 1 2 7 7 0 6 6 7 1 4 4 7 4 1 6 7 2 0 2
split_gain=1.78678 2.10052 1.78441 2.36208 1.60633 1.97719 4.78645 1.60475 2.92454 2.47098 2.33738 1.80829 1.66391 1.50625 1.46554 1.45311 2.78847 2.12985 2.03982 1.99601 1.83222 1.59647 1.45295 2.18948 2.60407 1.99963 1.68521 1.42156 1.93524 1.49566 3.17023 2.53743 1.84498 2.08646 2.58456 1.68838 2.67641 2.18103 2.21382 3.13148 2.65438 2.28943 2.19824 2.86529 1.98813 2.09691 1.73909
threshold=0.0039288197388875389 1.3128426236805881 49.83983817649645 0.0045976589654850549 -54.160241491617775 -56.745512348906807 0.0055346751414391679 17.488766045063134 0.87823423986599403 0.94950247575172531 -2.4259694192016918 80.053133225109391 0.036790804525930261 8.3571094395539927 30.42213117574671 0.0019594735864608618 5.1146270322619865 0.39638875738849355 27.742145975972946 0.97919060871344488 38.008517180180014 -2.5339366215988588 0.8270197260486799 -4.603723483419607 0.85123483203292849 20.661950369327162 0.3285285119427348 44.591554635920353 34.366812665865403 -33.465343432771597 0.046300307145866339 0.024901553157568691 59.458028545305865 1.3280056084083516 1.1742302055145861 0.0072531033768488701 13.26667609025761 0.58791322338336593 0.15288551220932853 0.0090536952597378342 0.17544422666515644 -20.26673482399524 1.1438930043860158 0.011195807080426846 40.339715496580411 33.742309177076464 41.336320663586136
decision_type=2 2 10 2 10 10 2 10 10 2 10 10 2 8 8 2 8 10 10 10 10 10 2 10 10 10 2 10 10 10 2 2 10 2 2 2 10 10 10 2 10 10 2 2 10 8 10
left_child=1 15 3 13 5 -5 -7 -4 12 10 -10 -12 -9 -2 -15 17 22 18 -1 20 -19 -21 25 -24 -25 -17 -27 28 29 30 -6 32 35 34 -34 -31 37 38 39 41 -40 -37 -42 -44 -41 -46 -45
right_child=2 -3 7 4 27 6 -8 8 9 -11 11 -13 -14 14 -16 16 -18 19 -20 21 -22 -23 23 24 -26 26 -28 -29 -30 31 -32 -33 33 -35 -36 36 -38 -39 40 44 42 -43 43 46 45 -47 -48
leaf_value=-0.0078996079898316345 0.0037250265239583522 -0.013703013622095406 0.0030319609725873021 -0.0014659188467893837 0.0017881786584293409 0.010901441560765189 -0.013799666762629982 -0.011762089335963346 -0.017285781276226226 0.0023206101939118131 -0.0082019126831278655 0.0029051328499285307 0.0020779721549827402 0.00060769965291847076 -0.010986006995337376 -0.02412343511298079 -0.00079351179546048643 0.0047169519186077051 0.0051774950141133657 -0.013040211922775666 -0.0061312562690001978 0.00011126347549010917 -0.010129557381808676 -0.0087050240021129197 0.014013539526468678 0.0034631378439322464 -0.014225925603216932 -0.010762178836971514 0.008840569477227344 0.00060500215983218394 -0.016721898829304985 0.0068686904088888353 -0.0025467955405119669 0.0055488019465311442 -0.018636873188232341 -0.018572747449685938 0.0065285874457803273 0.0022450317137317592 -0.018825022936453998 0.0028779675091593258 -0.0074211226069921671 -0.0040804138088946533 0.010313789055205932 -0.012900131980049617 -0.019336336270362443 0.0025585673725723227 0.005177453292082892
leaf_weight=151 865 45 1549 1094 1637 36 131 32 63 155 148 82 1371 238 47 35 5155 690 60 45 61 127 80 32 42 33 47 44 89 1667 34 151 75 38 69 49 121 265 56 414 404 197 67 53 32 31 30
leaf_count=151 865 45 1549 1094 1637 36 131 32 63 155 148 82 1371 238 47 35 5155 690 60 45 61 127 80 32 42 33 47 44 89 1667 34 151 75 38 69 49 121 265 56 414 404 197 67 53 32 31 30
internal_value=-7.77559e-12 -0.00078455 0.000457066 -3.57535e-05 -0.000461985 -0.00239415 -0.00847488 0.00160707 0.000414663 -0.00380574 -0.00704664 -0.00424201 0.0017623 0.00247864 -0.00130424 -0.000695905 -0.00110427 0.00125734 -0.004181 0.00250055 0.00383581 -0.00332953 -0.00705952 -0.00324907 0.0041893 -0.0121622 -0.00692919 -2.08377e-05 6.54224e-05 -7.94733e-05 0.00141155 -0.000749413 -0.00107182 -0.00695659 -0.0102566 -0.000755504 -0.00207486 -0.00272631 -0.00371461 -0.00146871 -0.00637655 -0.0069671 -0.00511822 0.00108427 0.00136694 -0.00856265 -0.00636607
internal_weight=17937 6603 11334 7934 6784 1261 167 3400 1851 448 293 230 1403 1150 285 6558 5424 1134 211 923 751 172 269 154 74 115 80 5523 5479 5390 1671 3719 3568 182 144 3386 1719 1598 1333 723 610 246 554 150 477 63 83
internal_count=17937 6603 11334 7934 6784 1261 167 3400 1851 448 293 230 1403 1150 285 6558 5424 1134 211 923 751 172 269 154 74 115 80 5523 5479 5390 1671 3719 3568 182 144 3386 1719 1598 1333 723 610 246 554 150 477 63 83
is_linear=0
shrinkage=0.0599982


Tree=10
num_leaves=48
num_cat=0
split_feature=6 7 0 6 2 0 4 2 7 7 1 4 2 2 4 8 0 6 8 6 1 7 7 6 8 6 6 7 6 6 2 7 4 6 0 4 0 0 1 4 4 7 2 1 2 4 2
split_gain=1.64633 1.7791 2.1687 2.10152 1.68462 2.79833 2.21426 2.35599 2.43925 1.69766 2.10091 1.88752 1.86455 1.7131 1.67939 1.841 1.70024 1.99781 2.04361 1.69587 1.66197 1.62323 2.49233 1.93917 1.51935 1.49803 1.41141 1.38309 2.18424 1.44185 1.36284 4.42297 1.35693 1.51478 1.52113 1.8054 1.38719 1.31088 1.27524 1.27011 1.83037 1.26924 3.32234 2.2524 3.20644 2.52278 1.8791
threshold=0.74333693442143722 0.0040554286817365585 3.5440351793149709 1.3128426236805881 74.072337971106663 11.298468142890737 0.96276523826945415 83.747280653517393 0.0043985981115508563 0.0045703340769280149 13.26667609025761 0.32127370732051841 -54.160241491617775 -79.963797317238615 0.0059988508504152391 0.012974064727882656 10.876587412303598 0.98619903015392663 0.56691136514242968 1.0879042290192982 15.523115397842984 0.0021177737555407678 0.0028902435088525658 0.83992627950578036 0.93202200277925473 1.0301896175312633 0.9875922660170372 0.0055714888604249321 0.85412483293110653 0.90632941491382535 -56.745512348906807 0.0055346751414391679 0.73740155140672858 0.97948302634400064 15.933562872036157 0.65171045626772683 28.788357745330547 4.8406198796774911 -42.151013903693361 0.72993331669415162 0.65623038833209335 0.0032650293987299219 -53.484109049889575 1.2407892882833986 78.338989310510982 0.71758131073807963 41.336320663586136
decision_type=2 2 8 2 10 10 10 10 2 2 8 10 10 8 10 2 10 2 2 2 8 2 2 2 2 2 2 2 2 2 10 2 10 2 10 10 10 10 10 10 10 2 8 10 8 10 10
left_child=37 2 21 24 9 -6 39 8 -8 10 11 26 13 -11 16 -16 -14 -18 19 -19 -12 -2 23 -23 41 -22 -3 29 -29 -10 -15 -32 33 34 35 -13 -36 -1 -17 40 -7 -4 -43 44 45 46 -44
right_child=1 4 3 -5 5 6 7 -9 27 12 20 32 14 30 15 38 17 18 -20 -21 25 22 -24 -25 -26 -27 -28 28 -30 -31 31 -33 -34 -35 36 -37 -38 -39 -40 -41 -42 42 43 -45 -46 -47 -48
leaf_value=0.018118260100587442 0.0030171316783427255 -0.00069092496045335464 0.0001942748518024593 -0.01341210193591332 0.0094606477430611187 0.0050759465218915955 0.0098352150933312451 0.01226847597126623 -0.0053997352770185809 0.0060259901208128399 -0.015629268329992778 -0.0036285766129312801 -0.016887203999586011 -0.0019643778547336183 -0.0081388654849782142 -0.0099853706711640327 0.0090700734222467667 0.0018717744478265275 0.00088790131012413272 -0.0078471754094454546 -0.0064508253342208891 -0.030648419180112893 -0.0020948424215593646 -0.0090758844815519782 -0.0060611317454284342 0.0049517047715385721 0.0096420203376329609 -0.015776440489652169 0.00048074418224373574 -0.023573789948913126 0.01051994007965377 -0.012971710948734103 0.0041502293563206111 0.0025959667411286284 0.0056049341633314055 -0.023506529239529762 -0.010663651064809833 0.0017334583943541182 0.0007595185003343712 0.0052550197746219851 -0.014748908654245422 0.0038095594530735259 -0.0081680316909533458 -6.7127746914244263e-05 -0.018203556919664597 -1.9371824729965302e-05 -0.00070828185820638611
leaf_weight=32 37 60 4358 46 187 38 34 32 30 85 33 38 28 1016 86 40 56 83 310 292 85 30 54 30 175 81 230 42 102 33 37 131 400 186 54 29 29 39 6679 368 30 346 433 746 57 421 169
leaf_count=32 37 60 4358 46 187 38 34 32 30 85 33 38 28 1016 86 40 56 83 310 292 85 30 54 30 175 81 230 42 102 33 37 131 400 186 54 29 29 39 6679 368 30 346 433 746 57 421 169
internal_value=-1.1165e-11 -3.62358e-05 -0.000790844 -0.000631786 0.000438801 0.0029318 0.00120981 -0.00302752 -0.00505852 0.000216937 0.0023102 0.00340448 -7.30379e-05 -0.00220146 0.000283573 0.000583904 -0.0023741 -0.0018257 -0.00271645 -0.00569605 -0.00333165 -0.0079021 -0.0114461 -0.0198622 -0.000544106 -0.00088694 0.00750417 -0.00750484 -0.00426093 -0.0149195 -0.00279212 -0.00779795 0.00178911 -0.00102174 -0.0055077 -0.0122325 -7.92703e-05 0.00911816 0.000695551 0.003863 -0.00367031 -0.000396254 -0.00158112 -0.00260257 -0.0043539 -0.00358222 -0.00607385
internal_weight=17937 17866 6902 6751 10964 896 709 273 241 10068 1225 1026 8843 1269 7574 6805 769 741 685 375 199 151 114 60 6705 166 290 207 144 63 1184 168 736 336 150 67 83 71 6719 436 68 6530 2172 1826 1080 1023 602
internal_count=17937 17866 6902 6751 10964 896 709 273 241 10068 1225 1026 8843 1269 7574 6805 769 741 685 375 199 151 114 60 6705 166 290 207 144 63 1184 168 736 336 150 67 83 71 6719 436 68 6530 2172 1826 1080 1023 602
is_linear=0
shrinkage=0.0599982


Tree=11
num_leaves=48
num_cat=0
split_feature=6 5 0 8 5 2 0 6 8 6 6 4 6 6 6 8 0 4 8 5 1 8 2 2 0 4 5 8 6 2 2 6 0 4 6 1 1 5 4 2 5 8 4 4 2 0 6
split_gain=1.45471 1.31353 2.49742 1.64969 1.49222 1.36536 1.23649 1.42567 1.36165 1.30816 1.25334 1.20574 1.27177 1.18019 1.7052 2.0155 1.15829 1.14973 1.14118 1.54353 1.16532 1.13402 1.21515 2.74654 2.30392 1.60889 1.3833 1.24786 1.11708 1.21646 1.22732 1.10307 1.09926 2.0086 1.71096 1.08927 1.08447 1.07544 1.07502 1.04994 1.04072 1.5655 1.23822 1.94426 1.26684 1.1632 1.42866
threshold=0.74333693442143722 72.876955663832788 32.143231456724656 0.55393352448150845 79.870242859326694 50.461955280701339 48.959525297335254 0.98495363849457374 0.2509778421266729 0.97280499756212191 0.96131301279135728 0.043694208562089616 1.1838572074148339 1.1198541514529967 1.2192555848277495 0.69389111515892765 4.8406198796774911 0.071483085814482497 0.10619812012884132 49.169309626279166 0.21430010748118103 0.95690669886001845 73.639613059563388 73.051063760711145 28.403138061671097 0.91624813654710058 58.487917693335753 0.27535357494347001 1.1565810913093797 69.741407999233118 59.680227821595231 0.80870080360369401 9.8038635172946389 1.0874481370937163e-08 1.0301896175312633 -1.9587823827026074 -1.9587823827026074 62.508591071404332 0.80890353790275371 72.453014978442056 52.673498977432544 0.7385202721994335 0.92199622216825594 0.98726193088064729 80.053133225109391 8.7947166248148054 0.9212970125679899
decision_type=2 2 10 2 2 10 10 2 2 2 2 10 2 2 2 2 10 10 2 2 10 2 10 10 10 10 2 2 2 10 10 2 8 10 2 10 10 2 10 10 2 2 10 10 10 10 2
left_child=16 5 3 17 11 32 7 8 18 10 21 12 -4 -9 15 -15 -1 -3 19 -7 -20 22 23 39 27 -25 -26 -24 29 30 -8 -22 33 -2 -35 -13 -6 -11 -28 -10 42 45 -29 44 -44 -42 -47
right_child=1 2 4 -5 36 6 28 13 9 37 -12 35 -14 14 -16 -17 -18 -19 20 -21 31 -23 24 25 26 -27 38 40 -30 -31 -32 -33 -34 34 -36 -37 -38 -39 -40 -41 41 -43 43 -45 -46 46 -48
leaf_value=0.017031196508015184 -0.014717730666598669 -0.00090650571811682083 0.0044436536612906209 -0.0011594110155577473 -0.012928189912323871 -0.013600938446526396 -0.0026851033185812138 0.003785058184247252 -0.00078413144788153143 -0.0085297683120765713 0.0055727465460038853 0.017345277681066491 -0.010479166392448103 -0.013213991719973926 0.0096551071815191864 0.0054863625947862201 0.0016294541294227969 -0.013456436288000204 0.0061107249461301479 0.0009353841648594085 -0.008821781670200958 -0.0092580988560783881 -0.0097854769810932773 -0.0010865444326814458 -0.012943647770178 -0.018249062704659716 -0.0084223125942123386 0.015022397958713522 0.0045901377525604794 0.0023964133326416031 -0.01408565140822818 0.0024532356926357233 -9.9374318252164789e-05 -0.0019274575535126758 0.011007553807356593 0.0042475460013427745 -3.373756528655989e-05 0.0018002217548172021 0.0074115173695322393 0.0065516713692376433 0.0059516366291628474 0.0071531631547787746 -0.0084208737944510489 0.010815310705421617 0.0074006986938189882 -0.0030658035684842776 0.0054005079497962266
leaf_weight=32 43 33 52 102 39 28 67 913 1380 115 147 32 34 59 31 32 39 129 378 432 36 48 28 32 57 51 29 50 50 51 69 236 10742 1177 38 80 59 53 33 74 105 158 49 79 29 314 93
leaf_count=32 43 33 52 102 39 28 67 913 1380 115 147 32 34 59 31 32 39 129 378 432 36 48 28 32 57 51 29 50 50 51 69 236 10742 1177 38 80 59 53 33 74 105 158 49 79 29 314 93
internal_value=1.6249e-11 -3.40617e-05 -0.00289395 -0.00713657 0.000890003 5.84807e-05 0.000859921 0.00105797 0.000548295 -0.000130872 0.000182453 0.00388702 -0.00145607 0.00304445 -0.00249798 -0.00663804 0.00857108 -0.0109 0.00233738 5.05645e-05 0.00395574 -0.000121254 4.99945e-05 -0.00101675 0.00165116 -0.0116322 -0.0061971 0.00268314 -0.0033759 -0.00550585 -0.0084692 0.000960954 -0.000295889 -0.00197392 -0.00152291 0.00798976 -0.0051652 -0.0052709 5.3711e-06 -0.000410782 0.00308122 0.0019324 0.00679965 0.00418094 -0.00253849 0.000321302 -0.00113124
internal_weight=17937 17866 560 264 296 17306 5306 5069 4034 2924 2756 198 86 1035 122 91 71 162 1110 460 650 2609 2561 1537 1024 83 119 905 237 187 136 272 12000 1258 1215 112 98 168 62 1454 877 670 207 157 78 512 407
internal_count=17937 17866 560 264 296 17306 5306 5069 4034 2924 2756 198 86 1035 122 91 71 162 1110 460 650 2609 2561 1537 1024 83 119 905 237 187 136 272 12000 1258 1215 112 98 168 62 1454 877 670 207 157 78 512 407
is_linear=0
shrinkage=0.0599982


Tree=12
num_leaves=48
num_cat=0
split_feature=7 5 8 7 7 5 2 4 2 5 2 7 2 7 6 0 2 0 0 7 7 4 1 6 7 2 8 4 0 6 5 1 0 8 1 2 4 1 7 5 4 7 5 4 4 5 6
split_gain=1.4329 3.07557 1.52371 1.89084 1.40832 2.19792 2.00482 1.72195 1.51381 1.73295 1.78818 2.92441 1.55202 2.60014 2.39442 1.83859 1.66768 1.54058 2.21253 1.81231 1.52654 1.4867 2.02112 1.45066 1.46951 1.40553 1.41492 1.40435 1.39509 2.11153 2.00013 1.95375 1.3025 1.2654 1.32542 1.85884 1.8412 1.24203 1.22237 3.78419 2.96454 1.79315 3.1495 2.50877 2.6836 3.3372 2.98116
threshold=0.0040554286817365585 72.381341801284719 0.91905541549223535 0.0035759900024474999 0.0045703340769280149 55.872449837035525 -54.160241491617775 0.0059988508504152391 -79.963797317238615 48.590771431882565 -56.745512348906807 0.0054590145466136188 -63.874254119849049 0.012419468585355477 0.95608462583900111 29.368406160146147 -62.548294378101147 6.0984861299043134 14.409556860768101 0.0052504495557741818 0.0065420652272073767 1.897213941504106e-09 -28.758922996913547 1.0970757334907126 0.010343583339537877 83.747280653517393 0.012974064727882656 0.93931574727033973 11.182834641440889 1.0879042290192982 45.885667048384271 -4.1820713972921348 21.331536382901785 0.1986531982072943 10.617817684374611 -42.29633795763521 3.6560268146246248e-09 -7.342080068825303 0.0019594735864608618 51.168446205482333 0.14800046817090787 0.0024182990286231282 55.258577722580284 0.20653960753178466 0.65623038833209335 42.719267951248874 0.98362963607640463
decision_type=2 2 2 2 2 2 10 10 8 2 8 2 10 2 2 8 10 10 10 2 2 10 10 2 2 10 2 10 10 2 2 10 10 2 10 10 10 10 2 2 8 2 2 10 10 2 2
left_child=1 2 38 -4 5 -2 8 21 -6 10 12 -12 13 17 -15 16 -14 -10 20 -20 -19 -8 -23 -17 -25 26 37 -11 -24 30 -30 -31 -27 -33 -35 -36 -37 -9 39 40 -1 42 43 -40 -45 -46 -47
right_child=4 -3 3 -5 6 -7 7 25 9 27 11 -13 15 14 -16 23 -18 18 19 -21 -22 22 28 24 -26 32 -28 -29 29 31 -32 33 -34 34 35 36 -38 -39 41 -41 -42 -43 -44 44 45 46 -48
leaf_value=-0.01532335543082065 0.004051129586446719 -0.015071645854927979 -0.0029863137550093723 -0.017733956334397543 0.0056845978394046938 -0.0010003383384927253 0.0028131374884810541 -0.016733530636892823 0.010544807743632824 0.0099595587683370505 0.0069541669651392727 -0.013373034262676142 0.0076260948288593743 -0.00015757868098080456 -0.021919785484733969 0.010592857759054207 -0.0054636517844673764 -0.0021429026744988955 -0.010436823485450518 0.0011785977837450734 -0.015795996596032421 0.010407396662000124 -0.017506356781865542 -0.010775194829017188 0.0083364892331799986 0.01466272564928103 0.00078875147921622093 -0.0048692135875238541 -0.0075095088940747394 -0.013284111678410412 0.006611022190287307 -0.013592147382188611 -0.0005582803160261874 0.0043461996124406939 0.0076973714774670734 -0.016959334787769086 -0.0020894894303415124 -0.0018227830608774963 0.0027027597044254103 0.005124506024867039 -0.00054407423529231284 -0.00022218268905586054 0.0021498273531791274 -0.012291323898429862 -0.015773327628826102 -0.0035838777880963595 0.013191554066818078
leaf_weight=54 866 53 203 37 85 483 167 30 30 67 32 125 44 28 52 91 172 49 59 268 74 35 28 30 28 50 7417 35 54 103 109 39 34 80 32 53 69 61 128 523 513 4483 313 199 72 337 43
leaf_count=54 866 53 203 37 85 483 167 30 30 67 32 125 44 28 52 91 172 49 59 268 74 35 28 30 28 50 7417 35 54 103 109 39 34 80 32 53 69 61 128 523 513 4483 313 199 72 337 43
internal_value=1.98377e-11 -0.000673614 -0.000563101 -0.00525991 0.000426907 0.00224249 0.000172575 0.000509835 -0.00204951 -0.00260475 -0.00330951 -0.00922991 -0.00230464 -0.00428877 -0.014303 0.000739496 -0.00279722 -0.00261973 -0.00349737 -0.000917151 -0.010357 -0.00219558 -0.00358504 0.00586655 -0.00154886 0.000783868 0.000697519 0.00487125 -0.00444877 -0.00377046 0.00193305 -0.00624299 0.00850184 -0.00358645 -0.00191884 -0.0051734 -0.00854934 -0.00673841 -0.000393974 0.00144362 -0.00195162 -0.000753252 -0.00293346 -0.0049759 -0.00648569 -0.00392967 -0.00168561
internal_weight=17937 6958 6905 240 10979 1349 9630 8361 1269 1184 1082 157 925 560 80 365 216 480 450 327 123 769 602 149 58 7592 7508 102 567 539 163 376 84 273 234 154 122 91 6665 1090 567 5575 1092 779 651 452 380
internal_count=17937 6958 6905 240 10979 1349 9630 8361 1269 1184 1082 157 925 560 80 365 216 480 450 327 123 769 602 149 58 7592 7508 102 567 539 163 376 84 273 234 154 122 91 6665 1090 567 5575 1092 779 651 452 380
is_linear=0
shrinkage=0.0599982


Tree=13
num_leaves=48
num_cat=0
split_feature=6 7 5 0 6 4 6 5 6 5 5 7 2 6 4 0 7 7 2 7 8 5 4 8 2 2 2 0 4 2 7 0 8 2 7 0 7 2 0 6 4 2 4 0 4 0 7
split_gain=1.27699 1.39789 2.45197 1.97125 1.9483 1.8084 1.76648 2.27292 1.79782 2.23749 1.57081 1.52793 2.80965 1.708 1.5019 2.04004 2.08715 1.8685 1.62428 1.58383 1.4515 1.42317 1.39719 1.32725 1.31894 1.27058 1.24311 2.63964 1.36892 1.70416 1.74545 1.23145 1.21716 1.5492 1.21219 3.93012 1.92809 1.6294 1.68937 3.22443 1.50073 1.49727 1.83245 1.35469 1.4267 1.3406 1.80133
threshold=0.74333693442143722 0.0039288197388875389 72.381341801284719 5.1146270322619865 0.81487948198370186 0.89642907757139623 1.1045791561383578 39.852935391676304 0.97830440765774906 66.993650057631285 50.10948710802257 0.0032903388208785083 21.508718364083098 1.1565810913093797 0.73740155140672858 7.6995285223560801 0.0026484931282322335 0.0038512822262465134 -15.36587975934467 0.0037779192119789841 0.50637297372019296 62.508591071404332 0.047075720918603244 0.43981229891811929 33.603983671435444 -35.09931464369815 74.072337971106663 7.1176447204717475 0.96017981303561661 83.747280653517393 0.0043985981115508563 26.23611966496313 0.012974064727882656 -32.904402278686852 0.0034063620530899535 23.265009343066001 0.0024182990286231282 3.2414858219457874 42.143865330098144 1.0301896175312633 0.31480614478647534 -38.180910968334409 0.78026953245649999 14.994689654353753 0.61766594103490091 30.231446924798203 0.0018821692803046963
decision_type=2 2 2 8 2 10 2 2 2 2 2 2 10 2 8 10 2 2 10 2 2 2 10 2 10 8 10 10 10 10 2 10 2 10 2 10 2 10 10 2 10 10 10 8 8 10 2
left_child=-1 2 3 4 10 -6 8 25 9 14 -2 12 31 -14 17 16 -16 19 -18 21 24 -5 -22 -11 -13 -8 32 -28 -29 30 -30 -9 33 -3 36 43 37 -10 40 -40 -39 -37 -43 -36 -45 46 -42
right_child=1 26 -4 6 5 -7 7 11 34 23 -12 20 13 -15 15 -17 18 -19 -20 -21 22 -23 -24 -25 -26 -27 27 28 29 -31 -32 -33 -34 -35 35 41 -38 38 39 -41 45 42 -44 44 -46 -47 -48
leaf_value=0.0080304728571888688 0.00017722873557027367 0.0034624103469463245 -0.014240425349079487 -0.0026276082538493075 -0.0064608793615442608 0.0047712190466633461 -0.00077394781971276694 0.0032910961978655537 -0.0042586785276105526 -0.019301867658523788 -0.01644659262049683 -0.0080042391684868527 -0.0032887204970840486 0.010356382769206871 0.010295256196462021 -0.00030759315730847923 0.0084282599095320682 -0.015267977931393286 -0.0044548370101535218 0.010638400152068598 0.0075127453859810175 0.005786021233547196 -0.0087185340984800297 -0.0042467672320916838 -0.021347623339112189 0.012440986118577845 0.014124035415128248 0.0035967133457583097 0.0063242303302079965 0.0098669215001856384 -0.0048788634097996263 -0.0096812357740153759 0.00025676850919418843 -0.010098370260381443 -0.0014041444138821236 0.01003797011354806 0.0041990828326172822 0.014252603052184266 0.00677753587051494 -0.019794341346363566 0.0074743497991988433 -0.0025692043243384474 0.013639281154311745 -0.0077000535704071097 -0.023063655133838765 0.010287952871771568 -0.00868530108955946
leaf_weight=71 28 46 48 1204 129 86 67 32 228 35 76 60 61 72 141 2096 55 38 98 36 28 77 60 53 48 43 65 512 62 44 260 149 10241 89 49 77 829 51 35 31 44 154 30 55 36 51 57
leaf_count=71 28 46 48 1204 129 86 67 32 228 35 76 60 61 72 141 2096 55 38 98 36 28 77 60 53 48 43 65 512 62 44 260 149 10241 89 49 77 829 51 35 31 44 154 30 55 36 51 57
internal_value=2.54202e-11 -3.19133e-05 -0.000729734 -0.000629947 -0.00522918 -0.00196804 -0.000392544 -0.00343021 -5.38113e-05 -0.000777998 -0.0119709 -0.00511733 -0.00252274 0.0040981 -0.000555787 0.000348911 0.00502929 -0.00215153 0.000176342 -0.00177307 -0.00927396 -0.00212187 -0.00355404 -0.0102346 -0.0139346 0.00439189 0.000371712 0.00245739 0.00159369 -0.00120835 -0.00272175 -0.00738778 0.000182159 -0.00547766 0.00155349 -0.00133704 0.00242762 -0.000527187 0.00263556 -0.00570319 0.00534669 0.0030132 7.34835e-05 -0.00944713 -0.013778 0.00235852 -0.00164545
internal_weight=17937 17866 6547 6499 319 215 6180 620 5560 3833 104 510 314 133 3745 2390 294 1355 153 1317 196 1281 88 88 108 110 11319 943 878 366 322 181 10376 135 1727 401 1326 497 269 66 203 261 184 140 91 152 101
internal_count=17937 17866 6547 6499 319 215 6180 620 5560 3833 104 510 314 133 3745 2390 294 1355 153 1317 196 1281 88 88 108 110 11319 943 878 366 322 181 10376 135 1727 401 1326 497 269 66 203 261 184 140 91 152 101
is_linear=0
shrinkage=0.0599982


Tree=14
num_leaves=48
num_cat=0
split_feature=6 5 0 8 5 4 8 6 0 6 4 5 5 2 5 0 8 1 0 1 2 0 0 4 2 5 5 6 0 1 4 1 5 4 6 4 0 0 2 1 0 1 0 1 4 6 0
split_gain=1.12835 1.0724 2.21911 1.39724 1.30895 1.17711 1.42821 2.71249 3.27178 1.98964 1.96115 1.65482 2.56133 1.50028 1.69573 1.38985 1.30806 1.25109 1.16235 1.08851 2.10216 1.80139 1.4037 1.14092 1.66532 1.45121 2.6086 2.76713 1.63908 1.85226 1.41164 1.26037 1.12136 1.82758 1.55797 2.12848 1.69236 1.59098 1.58099 1.53464 1.72595 1.5166 1.28888 1.21702 1.10894 1.08125 1.03736
threshold=0.74333693442143722 72.876955663832788 32.143231456724656 0.55393352448150845 79.870242859326694 0.0088181062010583306 0.54385964713507784 1.0319111841313628 9.6723030346108647 1.0241864271590524 6.4261314602909189e-09 42.407007042773017 58.176665235871987 31.132511009061705 44.319518716212066 35.909799434350298 0.26763579288890232 9.8914662388289951 56.90121148990044 32.613048709317027 65.351584853959892 53.305727443015883 71.998622772052087 0.15288551220932853 50.461955280701339 30.103201678339385 45.040327939573153 1.0301896175312633 15.933562872036157 8.0268875691355266 0.10849993301419981 5.943939505048486 46.899374534496324 0.08421665068602098 1.1509421628483716 0.093649117166284837 14.289915005175754 44.813475727216876 33.603983671435444 -17.546381201700495 24.05379809075653 -24.961086664620026 7.1176447204717475 -11.924929641021027 0.13305602084808285 1.2819137875333346 4.8406198796774911
decision_type=2 2 10 2 2 10 2 2 8 2 8 2 2 10 2 8 2 10 8 8 10 10 10 10 10 2 2 2 10 10 10 10 2 10 2 8 10 10 10 10 10 10 10 10 10 2 10
left_child=46 5 3 -3 45 6 7 8 -2 11 -9 -8 -13 14 17 -11 -10 -12 -18 22 21 -21 23 25 -25 30 27 28 -27 -30 31 -7 33 -28 36 41 42 38 -37 40 -38 -36 -34 -41 -24 -4 -1
right_child=1 2 4 -5 -6 19 9 10 16 15 13 12 -14 -15 -16 -17 18 -19 -20 20 -22 -23 44 24 -26 26 32 -29 29 -31 -32 -33 34 -35 35 37 39 -39 -40 43 -42 -43 -44 -45 -46 -47 -48
leaf_value=0.015554951919904397 -0.015023276849763918 -0.010076841246689006 0.0056333436778023792 -0.0011124861251712438 -0.0047183895056141867 -0.0043045439616076677 -0.018048303384160431 -0.0032357787719836163 0.010673065991470798 0.0094914327868284958 -0.015041401378655056 0.0044513741197023029 -0.015475036667315971 -0.0013738767929099695 -0.021887086741977941 0.00082952999161519422 -0.0045049801023544491 0.0016727269897117423 0.0094731442083354281 0.017219319876862982 -0.0095669024061721796 0.0032892467713327529 -0.017148678608383969 -0.00055437591311381792 0.00081457199224020194 0.0079152646524403777 0.00052237002280620015 0.0061570821597306587 -0.015257116140684316 0.0029164736392134297 -0.015263649654254469 0.0079556844849895426 0.0050125292730857024 -0.014357327982597517 0.0043176544265798502 0.0068523766578715249 0.007491043610270736 0.015983748405165105 -0.0085961517678013917 0.01333089647993691 -0.0086971657270968842 -0.007349398984699774 -0.007693937612924944 0.0040919674346976487 -0.0012102322384002061 -0.0067323377648141267 0.00097939220473177422
leaf_weight=32 34 162 168 102 98 123 31 301 85 82 38 69 35 41 60 357 61 28 33 48 31 110 30 8401 5166 31 78 657 52 33 31 40 42 48 49 57 37 31 41 58 66 221 91 446 33 30 39
leaf_count=32 34 162 168 102 98 123 31 301 85 82 38 69 35 41 60 357 61 28 33 48 31 110 30 8401 5166 31 78 657 52 33 31 40 42 48 49 57 37 31 41 58 66 221 91 446 33 30 39
internal_value=-8.87215e-12 -2.99986e-05 -0.00261409 -0.00661334 0.000952802 5.36194e-05 -0.00171599 -0.0035742 0.00203863 0.000488608 -0.00612876 -0.00588132 -0.00225463 -0.0113431 -0.014587 0.00244747 0.00527944 -0.00795056 0.000402234 0.000191982 0.00471836 0.00752117 0.000138049 0.00017369 -3.31122e-05 0.00143072 0.00190273 0.00464871 -0.00389442 -0.00820149 -0.00352786 -0.0012959 0.000224762 -0.00514609 0.000818903 -0.00220304 0.0024483 0.00413674 0.000389217 0.00379138 -0.00288198 -0.00523204 -0.00368137 0.00515518 -0.00879997 0.00375976 0.00754866
internal_weight=17937 17866 560 264 296 17306 1255 681 213 574 468 135 104 167 126 439 179 66 94 16051 189 158 15862 15799 13567 2232 2038 773 116 85 194 163 1265 126 1139 399 740 129 98 607 103 270 133 504 63 198 71
internal_count=17937 17866 560 264 296 17306 1255 681 213 574 468 135 104 167 126 439 179 66 94 16051 189 158 15862 15799 13567 2232 2038 773 116 85 194 163 1265 126 1139 399 740 129 98 607 103 270 133 504 63 198 71
is_linear=0
shrinkage=0.0599982


Tree=15
num_leaves=48
num_cat=0
split_feature=7 5 1 6 6 5 6 4 7 0 6 7 7 7 5 2 0 2 0 5 1 0 1 4 0 5 0 6 7 5 1 0 4 1 4 0 0 4 4 4 6 6 4 2 0 4 7
split_gain=1.1515 2.37933 1.37835 1.96559 1.24258 2.43986 1.46497 1.98046 1.78604 2.23253 1.79089 2.16249 1.70454 1.83275 1.93102 2.70734 3.93935 2.41969 1.91946 1.90717 2.24619 2.12212 1.93381 1.70801 1.66409 2.03197 1.58072 1.6499 1.52099 1.39068 2.22301 1.99612 1.74131 1.74603 2.0757 2.02075 1.3806 1.51702 1.37333 1.32549 1.29392 2.07937 1.96097 2.44332 1.88961 1.88871 1.73644
threshold=0.0040554286817365585 72.381341801284719 44.591554635920353 1.0461843448357249 1.1045791561383578 39.676286528963203 0.98495363849457374 0.98558179279153546 0.0034063620530899535 23.265009343066001 0.99589874750414709 0.0022383408733695999 0.0019941375108378234 0.0023157057988768812 57.104286553886034 78.338989310510982 24.221240312719107 63.386157951736585 4.190098681113164 57.495982443686025 3.1329549677398476 5.1146270322619865 11.640653819680788 1.0874481370937163e-08 39.187272736249128 51.168446205482333 45.669328232049942 1.039390631931669 0.0017091227845817266 54.7328402218102 3.3769472165664731 19.933332745682065 0.29620619402775561 -1.6641513077153511 0.97919060871344488 7.6995285223560801 29.368406160146147 0.64327111771847367 6.4261314602909189e-09 0.55441951415113244 0.8270197260486799 0.893042583158565 0.57265063602391952 -12.173254284264816 8.970032412161105 0.18094297547439844 0.0033159395120198215
decision_type=2 2 8 2 2 2 2 8 2 10 2 2 2 2 2 8 10 8 10 2 10 8 10 10 10 2 10 2 2 2 10 10 10 10 8 10 8 10 8 10 2 2 10 10 10 10 2
left_child=1 4 -2 -4 6 -6 12 8 10 -10 36 24 29 19 17 18 -17 23 -16 21 -21 -14 -23 -15 25 28 -26 -28 -12 32 -31 -32 -1 34 35 -34 37 -8 -7 -30 44 42 43 -42 -25 46 -43
right_child=2 -3 3 -5 5 38 7 -9 9 -11 11 -13 13 14 15 16 -18 -19 -20 20 -22 22 -24 40 26 -27 27 -29 39 30 31 -33 33 -35 -36 -37 -38 -39 -40 -41 41 45 -44 -45 -46 -47 -48
leaf_value=-0.01074970090415142 0.00044517119811808819 -0.01326776385224266 0.0039171102359440851 -0.013841552952280374 0.0050862104120582216 0.0053533299797205048 -0.003480849844410766 -0.011155756349832468 -0.007286533607784456 0.0014545641296376608 -0.01447796254782854 0.0036094531471965348 -0.019472825266384542 -0.012025195390112989 -0.016392282106258163 -0.017499762904981023 0.0057731629862546327 0.0037116593520865934 -0.0011247437811504079 0.0096644759908024232 -0.0077734832206178273 -0.0031478308308202107 -0.014158875437540828 -0.010769566387268606 -0.019109052002360603 0.0075908748032803312 0.0069771986993932937 -0.012463887179812026 -0.0074789074755401046 0.010220197378950828 -0.012670760720396503 0.0041856045633265841 0.010277937007508751 0.0032691710996592595 -0.014089418353013906 -0.004054918168110792 0.01472628179997869 0.012058495117150547 -0.0054674918783966823 0.010396165534160798 0.0039414139819615923 0.013465809772828153 0.0046636332688068426 -0.016617367447547958 0.0010010759574084532 -0.0026535800425607739 -0.0034717532865296405
leaf_weight=50 10885 53 37 57 113 46 49 45 160 307 38 737 40 49 31 96 36 516 677 65 45 342 69 104 35 85 30 33 32 143 36 85 48 403 50 135 74 42 514 28 46 53 430 38 93 820 37
leaf_count=50 10885 53 37 57 113 46 49 45 160 307 38 737 40 49 31 96 36 516 677 65 45 342 69 104 35 85 30 33 32 143 36 85 48 403 50 135 74 42 514 28 46 53 430 38 93 820 37
internal_value=2.88096e-11 -0.000603859 0.000382699 -0.00685144 -0.000506656 -0.00295586 -0.000242164 0.00126285 0.00160154 -0.00154024 0.00284178 0.00190195 -0.000804428 -0.00140291 -0.00081897 -0.00326399 -0.0111526 0.000120563 -0.00179324 -0.00455267 0.00253077 -0.00628034 -0.0049964 -0.000989021 -0.00257644 0.000802346 -0.00888581 -0.00320623 -0.00508566 0.00145533 0.00515575 -0.000829512 3.12639e-05 0.000878824 -0.00325555 -0.000295481 0.00864024 0.00369116 -0.00457864 0.000862793 -0.000655416 -2.49264e-05 0.0030257 -0.00535899 -0.00521287 -0.00174802 0.00650259
internal_weight=17937 6958 10979 94 6905 673 6232 1695 1650 467 1183 1018 4537 3587 3026 840 132 2186 708 561 110 451 411 1670 281 183 98 63 98 950 264 121 686 636 233 183 165 91 560 60 1621 1424 514 84 197 910 90
internal_count=17937 6958 10979 94 6905 673 6232 1695 1650 467 1183 1018 4537 3587 3026 840 132 2186 708 561 110 451 411 1670 281 183 98 63 98 950 264 121 686 636 233 183 165 91 560 60 1621 1424 514 84 197 910 90
is_linear=0
shrinkage=0.0599982


Tree=16
num_leaves=48
num_cat=0
split_feature=7 6 1 6 1 7 2 7 1 4 4 7 1 0 1 0 6 0 1 2 6 4 0 2 4 7 7 1 4 2 4 0 0 8 7 2 8 6 4 0 0 6 1 0 0 0 2
split_gain=1.02038 1.35782 1.14591 1.90128 1.08985 1.84123 1.30037 1.63011 1.78001 1.31429 3.36293 2.87159 2.82847 2.41468 2.46482 1.90666 1.53225 3.31971 2.07759 1.73644 1.57881 1.99861 1.63226 1.44273 1.58513 1.42061 3.42816 2.57466 2.19066 2.12021 2.06096 1.44708 2.06467 1.17509 1.06967 1.93637 1.67055 1.4872 1.24547 1.17113 1.06758 1.56899 1.44744 1.0295 1.12531 1.21129 1.09836
threshold=0.0039288197388875389 1.3128426236805881 44.591554635920353 1.0702189182291393 32.613048709317027 0.0080645520997868706 49.83983817649645 0.0045976589654850549 14.358713244195942 0.67452561224841656 0.72582170223783404 0.005503062173957028 5.5076730174398678 15.413819185114845 8.9712265868395615 33.256162524965106 0.94950247575172531 22.486808549252384 -8.0343582860358378 57.735807928743036 0.87776297605151943 0.87823423986599403 26.94799156372299 75.900494355815226 0.88755731264267601 0.0078248801287209534 0.012419468585355477 -6.5326625682919808 0.89902668595451329 64.204197025130711 0.8614572130712318 5.1146270322619865 12.22827448397935 0.2961779128579457 0.0078248801287209534 59.680227821595231 0.42350474701122781 0.99589874750414709 0.4700051420754926 23.867381505927025 71.998622772052087 1.2910143590086214 14.358713244195942 52.709727538241445 39.856086952821222 43.990040165736993 33.603983671435444
decision_type=2 2 8 2 10 2 10 2 10 10 10 2 10 10 10 10 2 10 10 10 2 10 10 10 10 2 2 10 10 10 10 10 10 2 2 10 2 2 10 10 10 2 10 10 10 10 10
left_child=1 -1 4 -4 6 -6 7 8 43 15 11 -11 -13 25 16 34 17 18 -15 -18 -19 -22 -23 24 -20 27 28 29 30 -12 -27 -30 -33 -21 35 37 -37 -8 -36 -38 -9 -42 -43 44 46 -46 -2
right_child=2 -3 3 -5 5 -7 9 40 -10 10 13 12 -14 14 -16 -17 19 20 23 33 21 22 -24 -25 -26 26 -28 -29 31 -31 -32 32 -34 -35 38 36 39 -39 -40 -41 41 42 -44 -45 45 -47 -48
leaf_value=-0.00052160664509630817 0.004148932729403444 -0.010979341498966535 0.0025160383229134594 -0.014291871573428613 0.0011398266812182561 0.013564068492357993 0.0029437510735967607 -0.00035305387212973766 -0.0043427273479591357 -0.016067164711927234 0.008430872373514909 0.0030499552780909513 -0.016977647954846239 -0.014185430299939151 0.0049547607640229698 5.8107543174617826e-06 -0.0089408006870453759 -0.0024003866487184926 0.0033436411382778124 0.0083682833868568597 -0.0056516447314261063 -0.03258860654467307 -0.013118535356249503 0.0057248113480619488 -0.0080261476629200305 -0.0043314282032146196 0.0081286036604990806 0.0066308927151910429 0.011416460530117144 -0.0062092814833791992 -0.025134706825803516 -0.0082188560969322227 0.01011763888032427 0.00015210454835842528 -0.0030928736603100292 0.0060056366996550101 -0.016786620441435973 0.012840329739183498 0.010470707983870162 -0.0016827010455449216 -0.01157849822756081 -0.0074939053986720116 0.010020776635083528 0.011326548290863143 -0.014268842208070592 0.0008441214914264234 -0.0017525630297634302
leaf_weight=6558 687 45 47 50 151 60 150 6443 138 75 51 110 33 39 216 406 57 43 81 87 40 31 31 117 97 40 120 576 30 118 30 84 30 224 28 48 33 86 188 42 75 35 33 50 28 60 136
leaf_count=6558 687 45 47 50 151 60 150 6443 138 75 51 110 33 39 216 406 57 43 81 87 40 31 31 117 97 40 120 576 30 118 30 84 30 224 28 48 33 86 188 42 75 35 33 50 28 60 136
internal_value=1.04671e-12 -0.000592877 0.0003454 -0.00614783 0.000401451 0.00467279 0.000319712 -0.000109902 0.00202923 0.00130792 0.000540688 -0.00655874 -0.0015718 0.00126322 -0.00076634 0.00315364 -0.00222532 -0.00446208 -0.00117105 0.000686104 -0.0120428 -0.0161077 -0.0228536 0.000549497 -0.00285226 0.00326269 1.12969e-05 0.00472037 -0.00454046 -0.00179125 -0.0132471 -0.000308062 -0.00339346 0.00245052 0.00537628 0.003369 -0.00273465 0.00655013 0.00871247 -0.00832843 -0.000466856 -0.00559432 0.00100587 0.00294424 0.00248418 -0.00396455 0.00317372
internal_weight=17937 6603 11334 97 11237 211 11026 7685 1099 3341 2360 218 143 2142 1063 981 847 479 334 368 145 102 62 295 178 1079 334 745 214 169 70 144 114 311 575 359 123 236 216 75 6586 143 68 961 911 88 823
internal_count=17937 6603 11334 97 11237 211 11026 7685 1099 3341 2360 218 143 2142 1063 981 847 479 334 368 145 102 62 295 178 1079 334 745 214 169 70 144 114 311 575 359 123 236 216 75 6586 143 68 961 911 88 823
is_linear=0
shrinkage=0.0599982


Tree=17
num_leaves=48
num_cat=0
split_feature=6 7 5 0 7 7 6 6 5 4 0 6 1 5 7 2 1 4 2 6 0 7 6 1 1 6 6 7 0 4 0 6 7 6 4 5 2 1 0 4 7 6 0 6 0 7 2
split_gain=1.00262 1.01487 2.0318 1.60408 1.27424 2.09363 1.61684 1.15132 2.13736 1.23969 1.273 1.18787 1.62107 1.54116 1.08723 1.40261 1.32896 1.25072 1.24916 1.55709 1.6671 2.40038 2.67454 2.06585 2.02364 2.06943 1.61266 2.38563 1.61576 2.08311 1.53729 1.50588 3.44746 1.46794 1.24159 1.20121 1.5293 1.29097 1.20103 1.18647 1.5302 1.63396 1.34876 1.27416 1.88529 1.19918 1.9145
threshold=0.74333693442143722 0.0040554286817365585 72.381341801284719 3.5440351793149709 0.0021177737555407678 0.0028902435088525658 0.83992627950578036 1.1045791561383578 39.676286528963203 6.4261314602909189e-09 20.243000723258259 1.0769999338876679 0.8031665516564398 47.687414504209244 0.0044564052859889193 83.747280653517393 20.09346676578873 0.19625133951887999 -54.160241491617775 0.80211198431582031 20.722800661939193 0.0050708279649544193 1.0477466787954455 -2.9587248117120128 -1.3997078311736828 0.9431128155208105 1.0832701149928554 0.01382910265524118 61.322830143927682 0.48751025191837843 18.638704266374045 0.91250860210253748 0.005890108711722881 0.88096227892906021 0.69072631776958404 34.507679487388295 -69.960209675932887 17.174106912624357 42.444093867377703 0.037669485595390968 0.023466328193127817 1.1969190985038736 33.530526033229897 0.80599294769695129 17.085723373188934 0.010661424488694572 46.743852315085739
decision_type=2 2 2 8 2 2 2 2 2 8 8 2 10 2 2 10 8 8 10 2 8 2 2 10 10 2 2 2 8 10 10 2 2 2 10 2 10 10 8 10 2 2 10 2 10 2 10
left_child=-1 2 3 4 -2 6 -6 11 -9 -10 -11 -5 -13 -14 16 18 -3 -18 19 -16 21 -21 23 -23 -25 30 27 31 29 -28 33 32 -22 -26 -31 36 -33 38 -37 45 43 -42 -43 44 -41 -20 -47
right_child=1 14 -4 7 5 -7 -8 8 9 10 -12 12 13 -15 15 -17 17 -19 39 20 26 22 -24 24 25 -27 28 -29 -30 34 -32 35 -34 -35 -36 37 -38 -39 -40 40 41 42 -44 -45 -46 46 -48
leaf_value=0.0071156622021553498 0.00305145444363814 0.0028014455730100067 -0.012300406108979686 -0.00028144308678313968 -0.027325666719440783 -0.0011923134782114615 -0.0076274986505605932 0.0048036501443512901 0.0051940741647402032 0.0053336669837835927 -0.0059423261952076247 0.0086558892566671458 0.0069944216250966409 -0.0067973141564878665 0.011853374765701027 0.0077191890441142951 0.0020250936178181763 -0.012050411454394526 -0.0025291246229198244 0.0044482201966852594 -0.020690700914531849 -0.00067331308299216342 -0.023428328110744023 -0.018764249275156228 5.8000121913936405e-05 0.0063307958987875394 0.005904047714106582 -0.0093867803736065909 -0.01747988036448794 -0.012478569859455406 -0.021717562775459241 0.008781220582316656 0.0059548224769660606 -0.01378828801919566 0.0020432750130465445 0.0070782824895084745 -0.005240636370258565 0.017317684716220486 -0.0060350550626261804 -0.0018265259293306368 0.0074600811267456213 -0.0068065517731549152 0.0048612295780311359 0.00056877429436780343 -0.018216694164400714 0.0027239867906498718 -0.011782013374976023
leaf_weight=71 37 973 53 5777 30 54 30 113 46 39 475 128 50 70 30 87 47 44 911 93 29 215 30 56 63 40 66 61 30 67 28 44 44 49 31 189 77 38 29 160 233 68 75 6628 30 363 36
leaf_count=71 37 973 53 5777 30 54 30 113 46 39 475 128 50 70 30 87 47 44 911 93 29 215 30 56 63 40 66 61 30 67 28 44 44 49 31 189 77 38 29 160 233 68 75 6628 30 363 36
internal_value=7.52637e-12 -2.82778e-05 -0.000598216 -0.00050766 -0.00662302 -0.00976298 -0.0174766 -0.000369795 -0.00272341 -0.00424226 -0.00508675 -0.000106894 0.00395912 -0.00105076 0.000330506 0.000134637 0.00215298 -0.00478065 6.73937e-05 -0.001658 -0.00197492 -0.00437554 -0.00608158 -0.0049277 -0.00880352 -0.00570462 -2.03803e-05 0.00174772 -0.00467759 -0.0023357 -0.00914331 0.00325706 -0.00463039 -0.00599975 -0.00788493 0.00478434 -0.000141779 0.0071127 0.00533385 0.00033298 0.000635396 0.00436156 -0.000687086 0.000429905 -0.00441445 -0.00132777 0.00141517
internal_weight=17937 17866 6902 6849 151 114 60 6698 673 560 514 6025 248 120 10964 9900 1064 91 9813 1309 1279 574 481 451 236 180 705 511 194 164 140 450 73 112 98 377 121 256 218 8504 7194 376 143 6818 190 1310 399
internal_count=17937 17866 6902 6849 151 114 60 6698 673 560 514 6025 248 120 10964 9900 1064 91 9813 1309 1279 574 481 451 236 180 705 511 194 164 140 450 73 112 98 377 121 256 218 8504 7194 376 143 6818 190 1310 399
is_linear=0
shrinkage=0.0599982


Tree=18
num_leaves=48
num_cat=0
split_feature=8 8 6 6 7 5 8 7 1 5 7 5 2 1 6 6 4 6 4 2 2 2 5 2 7 8 2 1 6 7 7 4 1 7 4 6 5 7 7 5 6 1 6 6 7 4 2
split_gain=0.887334 1.68484 0.955714 0.924933 0.90241 1.66301 1.48218 1.60792 1.01055 1.67036 1.00374 2.51218 1.76531 1.51841 1.48211 2.59557 2.58266 1.88129 1.36681 1.26638 2.96156 1.19673 1.41919 1.1506 1.14072 1.05487 1.02961 1.06944 0.977344 2.1135 1.38041 1.04018 2.07645 1.81761 1.79313 1.78457 1.94949 2.80558 2.71885 2.39517 2.52088 4.76367 2.45646 2.20464 1.9527 1.99867 1.81855
threshold=0.012974064727882656 0.0091326104807517693 1.0241864271590524 0.74333693442143722 0.0040554286817365585 72.381341801284719 0.91905541549223535 0.0035759900024474999 44.591554635920353 47.879072908091551 0.0046335346670874963 55.660493361358739 -54.160241491617775 -17.204327929271862 0.86492537360439836 0.99589874750414709 0.69072631776958404 0.9419447208013304 0.69569571706801558 75.900494355815226 57.735807928743036 -79.963797317238615 48.220597659240177 75.17008381925703 0.0044564052859889193 0.5376966790153247 83.747280653517393 8.3571094395539927 0.80599294769695129 0.0090536952597378342 0.0078248801287209534 0.49929532071933685 6.6705890525775757 0.0052504495557741818 0.47562394555622434 0.90235538029751028 48.816325504193763 0.0076954370989757897 0.024901553157568691 29.317276146792533 0.99342653518795154 -11.924929641021027 1.1279374024971696 1.4039807051291016 0.013545533727588486 0.37138091951431279 -40.327911918365352
decision_type=2 2 2 2 2 2 2 2 8 2 2 2 10 8 2 2 10 2 10 10 10 10 2 10 2 2 8 10 2 2 2 10 10 2 10 2 2 2 2 2 2 10 2 2 2 10 10
left_child=1 -1 -3 -2 5 6 -5 -8 10 -10 11 -6 21 -13 19 16 24 23 -17 20 -15 -12 -23 -18 25 -16 28 -28 29 30 -14 32 35 -34 -35 -30 39 -38 -39 42 41 -41 -37 -44 -42 -46 -43
right_child=3 2 -4 4 8 -7 7 -9 9 -11 12 13 26 14 15 18 17 -19 -20 -21 -22 22 -24 -25 -26 -27 27 -29 31 -31 -32 -33 33 34 -36 36 37 38 -40 40 44 46 43 -45 45 -47 -48
leaf_value=-0.00054557047113711402 0.0076158250617625271 -0.016972402486272607 -0.0027288484548249232 -0.00026329521615550488 0.003782504024990513 -0.01120430831719503 -0.0029682470730567701 -0.016583584750663925 -0.014173132295897138 0.0018373125086311602 0.0050100988442711349 0.010190215654187462 -0.0042292962955029169 0.013583313136531753 -0.0033062935151964524 0.0041083981296803612 -0.0022191471429448386 0.0078304322737606444 -0.0089806113805890736 0.013422128901537595 -0.011491086126423413 -0.0031347418054887442 0.00418914568284782 -0.017138684155586708 -0.024218096184396316 -0.018851298168497711 0.012670330697388692 -0.0015134728176326735 0.0078552761328091851 0.00810873882779156 -0.018549361417399809 0.001334498455591814 -0.0039087331584009809 0.0035677643995773805 -0.011096196823403156 -0.019786943992456289 -6.6534740074591017e-05 -0.0060828191407751725 0.0076370698950902656 0.013357856471209061 0.00087811851818059511 -0.00061148310230705661 0.0026480699760868245 -0.009981371811758533 0.0079245492966209165 -0.0083564513643000649 -0.017072577959491728
leaf_weight=193 58 43 28 6496 923 52 200 37 45 49 83 38 111 30 33 142 49 42 36 35 39 1025 105 30 35 30 50 31 83 41 31 3393 154 948 31 35 811 727 56 35 891 35 120 85 285 30 78
leaf_count=193 58 43 28 6496 923 52 200 37 45 49 83 38 111 30 33 142 49 42 36 35 39 1025 105 30 35 30 50 31 83 41 31 3393 154 948 31 35 811 727 56 35 891 35 120 85 285 30 78
internal_value=1.49531e-11 -0.00345271 -0.0113552 5.15768e-05 2.66704e-05 -0.000515878 -0.00043333 -0.00509385 0.000366577 -0.00582726 0.000420808 0.00188194 0.000190468 -0.00137265 -0.00224968 -0.00391992 -0.00829361 -0.00242992 0.00146118 0.00412617 -0.000589173 -0.00194346 -0.0024542 -0.00788479 -0.0155335 -0.0107087 0.000511576 0.00724196 0.00044326 -0.00389084 -0.00735551 0.000544984 -6.32866e-05 0.00215032 0.00310343 -0.00083003 -0.00105615 -0.00253983 -0.00510158 0.000427527 0.0014067 -0.00598336 -0.00509663 -0.00258853 0.0023136 0.00637398 -0.011974
internal_weight=17937 264 71 17673 17615 6785 6733 237 10830 94 10736 1462 9274 539 501 397 219 121 178 104 69 1213 1130 79 98 63 8061 81 7980 183 142 7797 4404 1133 979 3271 3188 1594 783 1594 1354 148 240 205 1206 315 113
internal_count=17937 264 71 17673 17615 6785 6733 237 10830 94 10736 1462 9274 539 501 397 219 121 178 104 69 1213 1130 79 98 63 8061 81 7980 183 142 7797 4404 1133 979 3271 3188 1594 783 1594 1354 148 240 205 1206 315 113
is_linear=0
shrinkage=0.0599982


Tree=19
num_leaves=48
num_cat=0
split_feature=5 0 7 6 0 7 5 7 8 1 8 8 2 7 8 0 5 6 2 7 0 5 0 2 5 7 6 7 0 0 6 6 5 5 5 2 8 8 7 2 0 7 8 8 7 5 8
split_gain=0.834461 1.96682 1.72894 1.85116 1.69671 1.22048 2.66648 1.35122 1.14495 1.53054 0.887332 1.2038 0.83086 1.08763 1.35789 1.42317 1.16697 1.0866 1.66058 2.12828 2.12918 1.53409 1.28055 1.18116 1.35722 2.77824 1.5605 1.27435 1.21459 1.17556 1.04394 1.4548 2.02286 1.96257 1.81025 2.06053 1.38703 1.85712 1.91479 1.25697 1.83204 1.32334 1.06027 1.15115 1.27506 0.959759 1.79795
threshold=72.876955663832788 32.143231456724656 0.0200977958336091 1.2145453206422674 15.792783860557755 0.0071983629642140478 79.870242859326694 0.009318660743219187 0.55393352448150845 -10.732162432833025 0.41695884455261917 0.65830489576975892 50.461955280701339 0.0061190671703514219 0.88888888627147489 52.006382027028458 65.001259063274674 0.86178033666913534 68.682752317512339 0.0096799341883792456 7.1176447204717475 54.50412862488718 16.0641617296852 74.824074409547549 55.872449837035525 0.010841023950060058 0.922663975263319 0.016248669901188468 21.62462805140833 17.667131317449648 0.98619903015392663 0.9712195027237156 63.118319267790461 62.508591071404332 58.701777711887239 69.054729301151454 0.12446619016331534 0.24351106609588785 0.003020318771692552 61.079808157312321 22.302409520197688 0.0045703340769280149 0.49999999714902854 0.70151873040652435 0.0035008760654971225 56.385911612988927 0.38540583664794492
decision_type=2 10 2 2 10 2 2 2 2 10 2 2 10 2 2 10 2 2 10 2 10 2 10 10 2 2 2 2 10 10 2 2 2 2 2 10 2 2 2 10 10 2 2 2 2 2 2
left_child=12 2 3 4 -2 6 -3 -7 9 -6 -9 -12 -1 14 15 30 -16 18 21 20 -20 -15 -23 24 25 26 -19 -27 -25 -26 31 32 -14 34 35 -33 -32 -38 -39 -40 -41 -42 -34 -44 -45 -30 -47
right_child=1 5 -4 -5 8 7 -8 10 -10 -11 11 -13 13 17 16 -17 -18 23 19 -21 -22 22 -24 28 29 27 -28 -29 45 -31 36 33 42 -35 -36 -37 37 38 39 40 41 -43 43 44 -46 46 -48
leaf_value=-0.00020290263156569663 -0.014785675443979962 0.0013772545173968151 0.0080515791512543733 -0.02024180994054833 0.0038704264685711044 0.012032632082512585 -0.019823340401578807 -0.0056503561018127271 0.0036951731825135095 -0.013147459825702678 0.014644602500949656 -0.0010705601509517142 0.0012285959753905386 -0.0042712572905424864 -0.0029199163527882134 -0.0059977591870199942 -0.016362129372353384 -0.0079622141594388254 0.0095758139754105222 -0.012647180186956281 -0.0041467239574643376 0.0042426255945684169 0.019058488043349867 0.010456442821493404 0.0061137632049152041 -0.022379827060282579 0.0055989387814645488 -0.004741853121650254 0.0097634070487362893 0.0012746941681792247 0.010309061733939485 0.0031552491061712941 -0.005607613626985552 0.0053918259189743084 -0.021161980517689052 -0.014712306266012862 -0.0062780766414140673 0.0097889434708959746 0.005234162461787639 -0.013302358950212317 0.0055149423706646258 -0.0060724018611847379 0.0045346550424298871 -0.012682028738173997 0.0021188653601416979 -0.013184721628989444 0.0049075951969186739
leaf_weight=12036 52 90 28 36 30 55 28 48 66 52 28 47 2138 49 137 122 28 42 56 68 149 70 30 133 287 29 112 30 42 488 78 52 267 46 33 42 87 120 141 42 89 59 103 40 44 30 58
leaf_count=12036 52 90 28 36 30 55 28 48 66 52 28 47 2138 49 137 122 28 42 56 68 149 70 30 133 287 29 112 30 42 488 78 52 267 46 33 42 87 120 141 42 89 59 103 40 44 30 58
internal_value=1.83923e-11 -0.00227961 -0.00604466 -0.00771709 -0.00546264 0.00107841 -0.0036534 0.00421523 -0.00218698 -0.0069214 0.000719638 0.00479643 7.34638e-05 0.000696258 0.000118028 0.000368568 -0.00520102 0.00196401 -0.000668668 -0.00344917 -0.000398128 0.00442582 0.00868738 0.00285209 0.00190091 -0.00234086 0.00190044 -0.0134114 0.00642536 0.00306671 0.000598291 0.000100672 0.000456221 -0.00522639 -0.00907236 -0.00482813 0.00283192 0.00174787 0.00329612 0.000942224 -0.00224285 0.000895663 -0.00318109 0.000283521 -0.00492918 0.00230125 -0.00126024
internal_weight=17937 560 264 236 200 296 118 178 148 82 123 75 17377 5341 3668 3503 165 1673 422 273 205 149 100 1251 988 213 154 59 263 775 3381 2765 2592 173 127 94 616 538 451 331 190 148 454 187 84 130 88
internal_count=17937 560 264 236 200 296 118 178 148 82 123 75 17377 5341 3668 3503 165 1673 422 273 205 149 100 1251 988 213 154 59 263 775 3381 2765 2592 173 127 94 616 538 451 331 190 148 454 187 84 130 88
is_linear=0
shrinkage=0.0599982


Tree=20
num_leaves=48
num_cat=0
split_feature=6 0 7 5 1 0 4 5 5 0 6 5 6 1 5 0 4 4 2 4 7 2 5 2 2 6 1 2 1 2 0 1 1 1 0 7 1 1 6 1 7 5 4 0 6 0 6
split_gain=0.800231 0.922868 0.792449 1.54387 1.88125 1.69014 1.48411 1.47589 1.35773 1.26793 1.2153 1.67542 1.21612 1.33581 1.39939 1.18629 1.14004 1.83093 1.11838 1.00706 1.59526 1.52039 2.13556 1.27581 0.9663 1.19446 0.945361 0.925733 0.834936 0.83167 2.19658 1.4208 2.08242 0.966197 1.17873 1.05279 0.916 0.83943 1.51181 1.06411 1.5572 2.16029 1.34604 0.791861 0.929128 0.831624 1.48071
threshold=0.74333693442143722 4.8406198796774911 0.0039288197388875389 67.283658462757202 -7.0543211303514193 3.5440351793149709 0.23870376292163151 56.610015684715115 64.349039729428526 11.558714756655842 1.1045791561383578 39.852935391676304 1.0769999338876679 0.8031665516564398 47.687414504209244 20.420169872063386 1.0874481370937163e-08 7.5252994391483713e-09 -35.09931464369815 0.29620619402775561 0.0031426471717501806 21.508718364083098 48.004214747945518 42.772438695607427 25.926893637391981 1.2364436059631008 -37.291980026469282 59.180799810567201 4.9403644782001361 74.072337971106663 7.1176447204717475 -7.9150906798247451 -5.4293159764924122 -3.6008308054976905 11.432012738226854 0.0084208632073984706 -4.50585256208345 44.591554635920353 1.0702189182291393 32.613048709317027 0.0080645520997868706 59.724262232684296 5.0853411481810448e-09 13.283154928568104 0.86897503067242299 23.717839977073918 0.95239066777830039
decision_type=2 10 2 2 10 8 8 2 2 10 2 2 2 10 2 10 8 10 10 10 2 10 2 10 10 2 10 10 10 10 10 8 10 10 10 2 10 8 2 10 2 2 10 10 2 10 2
left_child=1 -1 3 5 -5 7 -6 27 10 -10 12 18 16 -14 -15 -13 17 -7 28 20 21 22 -17 -21 25 -22 -18 -2 -12 37 -31 -32 -33 36 35 -35 -34 39 -39 -4 41 42 -41 44 -36 -45 -47
right_child=2 -3 29 4 6 8 -8 -9 9 -11 11 15 13 14 -16 19 26 -19 -20 23 24 -23 -24 -25 -26 -27 -28 -29 -30 30 31 32 33 34 43 -37 -38 38 -40 40 -42 -43 -44 45 -46 46 -48
leaf_value=0.013908610217662046 -0.0067969569648188054 0.00016090637478589854 8.8020222537401309e-05 -0.017807150292905902 0.0055934181809307289 -0.00071591766112228154 -0.0069851438577504185 -0.019155061908083349 -0.005908840173385322 0.0064033947914985791 0.0066953957379667552 0.0062007276958002747 0.0087829047617733122 0.0074895694421003986 -0.0067934814826853766 0.0050045244582739038 0.010105670897256759 -0.016001725849505759 0.011188942179470279 -0.01424834860214253 -6.2189850635029927e-05 0.0088377635092069043 -0.01244505866141702 -0.0017290245590251662 -0.01438915595639402 -0.014786190255847353 -0.00023947991853965711 0.0056947611675045957 -0.0068843340102809261 0.012627177827759958 -0.0080502720596425086 0.015357826875407241 0.0010266221163337014 0.011343700191867844 -0.013745447680174317 -0.0022657339804184303 -0.013566440002371614 0.0023889737412613808 -0.012682610814141727 -0.0030053816089566469 0.012576819992609166 -0.01143708765551768 0.010557145025177293 0.0036935766701822951 0.00091791291369881225 -0.0049741430320881918 0.0041285301907116002
leaf_weight=32 90 39 10072 38 50 82 104 28 36 184 28 34 113 43 58 51 32 43 43 84 68 54 50 45 54 28 5040 28 39 65 56 39 32 76 28 28 30 46 50 43 60 37 68 293 35 146 115
leaf_count=32 90 39 10072 38 50 82 104 28 36 184 28 34 113 43 58 51 32 43 43 84 68 54 50 45 54 28 5040 28 39 65 56 39 32 76 28 28 30 46 50 43 60 37 68 293 35 146 115
internal_value=2.19312e-12 0.00635705 -2.52631e-05 -0.000550667 -0.00585133 -0.000390521 -0.0029012 -0.00677133 -0.000240481 0.00438867 -0.000410528 -0.00302556 -0.000131192 0.00430139 -0.000712579 -0.00459163 -0.000313715 -0.00597424 0.00363733 -0.00543711 -0.00355751 0.000711078 -0.00363388 -0.00988114 -0.00796838 -0.00435669 -0.000174211 -0.00383282 -0.00120922 0.000278635 0.0019846 0.00119671 0.00182667 0.0011527 0.00177075 0.00767962 -0.00603454 0.000123592 -0.00546081 0.000175742 0.00442352 0.00111812 0.00530319 0.000774763 -0.00559914 0.00149959 -0.000963387
internal_weight=17937 71 17866 6547 192 6355 154 146 6209 220 5989 578 5411 214 101 468 5197 125 110 434 305 155 101 129 150 96 5072 118 67 11319 943 878 822 783 721 104 62 10376 96 10280 208 148 111 617 63 554 261
internal_count=17937 71 17866 6547 192 6355 154 146 6209 220 5989 578 5411 214 101 468 5197 125 110 434 305 155 101 129 150 96 5072 118 67 11319 943 878 822 783 721 104 62 10376 96 10280 208 148 111 617 63 554 261
is_linear=0
shrinkage=0.0599982


Tree=21
num_leaves=48
num_cat=0
split_feature=5 0 7 6 4 4 4 0 6 0 4 5 7 4 4 7 4 1 2 0 0 4 4 6 6 0 6 5 6 1 2 0 7 7 7 5 4 6 7 5 5 2 0 1 0 6 0
split_gain=0.734465 1.72863 1.52156 1.60734 1.50029 1.936 1.76105 1.14104 1.13935 1.15963 1.88626 0.877199 0.925011 0.82205 1.28201 1.24154 1.25329 2.42049 1.00515 1.71181 1.51783 1.96777 1.26936 1.05554 0.964841 0.945925 1.21511 0.870706 1.22388 0.998792 1.95952 1.06219 1.08771 0.985712 1.17647 2.75408 2.64749 1.95388 1.70619 2.992 2.58589 2.13746 4.04646 2.09688 2.09082 1.9045 1.9023
threshold=72.876955663832788 32.143231456724656 0.0200977958336091 1.2145453206422674 0.22570575624801612 0.47562394555622434 0.75264143844776255 20.243000723258259 1.2443776494632506 56.90121148990044 0.037669485595390968 79.870242859326694 0.0048973801712844075 0.0036217078169520915 1.897213941504106e-09 0.0078248801287209534 4.5597730591318006e-09 8.9712265868395615 1.5438563537815513 16.0641617296852 43.165099762531831 7.5252994391483713e-09 3.6560268146246248e-09 1.0461843448357249 1.0721862627869145 55.408610273096691 1.1473822913947436 21.887630645360112 1.4039807051291016 32.613048709317027 59.180799810567201 53.305727443015883 0.0044295245519830242 0.0040554286817365585 0.0019594735864608618 51.168446205482333 0.15288551220932853 0.78873996188160256 0.0024182990286231282 55.258577722580284 57.104286553886034 78.338989310510982 24.221240312719107 3.1329549677398476 25.128336653632427 1.101976938155018 4.190098681113164
decision_type=2 10 2 2 10 10 10 8 2 10 10 2 2 8 10 2 10 10 10 10 10 10 10 2 2 10 2 2 2 8 8 10 2 2 2 2 10 2 2 2 2 10 10 10 10 2 10
left_child=13 2 3 4 -2 -6 7 -7 11 10 -10 12 -3 14 -1 18 17 -17 19 -16 24 25 -21 -23 -20 -22 -27 28 -15 33 31 -31 -33 34 35 36 -29 -38 39 -36 -40 45 -43 -41 -45 46 -42
right_child=1 8 -4 -5 5 6 -8 -9 9 -11 -12 -13 -14 27 15 16 -18 -19 20 22 21 23 -24 -25 -26 26 -28 29 -30 30 -32 32 -34 -35 38 -37 37 -39 40 43 41 42 -44 44 -46 -47 -48
leaf_value=0.0030563581065624268 0.0043715003761611599 -0.0034366437433125661 0.0075554914581493953 -0.018908094656663311 -0.021376554602722937 -0.0056086997706907898 -0.011492409017818625 0.011081242551756798 -0.019045176564505637 0.0048285953389096744 0.0019287062530534808 -0.00383636076843846 0.0079956104637080704 2.1009322802709931e-05 -0.015853729607393549 0.0060881924833933003 -0.013437564669873354 -0.01213168689297857 0.0022407198501686841 -0.0083770646500144555 -0.0074002232595799392 -0.0031054355761715884 -0.00021049679393122863 -0.018770645661554532 0.012714753137113241 0.0099103790365522026 -0.003545523904628168 -0.019540821822182631 -0.01540286416859442 0.01568969060564572 -0.0038855438600822623 -0.0012924053784169949 0.010921373806161219 0.00053804119743587034 -0.0049810176425076347 0.0045392002049563637 0.011805538767594066 -0.0016941769079030771 0.0006400404460321056 0.0061233388248644683 -0.016106209162126944 -0.016357606023073939 0.0042769954575820595 -0.012543214855442993 0.0033900850429948821 -0.0086739879081239209 -0.00021788534202755755
leaf_weight=184 46 32 28 36 31 29 64 30 33 32 29 45 125 46 36 53 67 52 93 90 31 30 287 32 48 61 40 28 31 46 73 53 52 9537 750 517 42 476 3147 183 28 100 52 56 63 123 870
leaf_count=184 46 32 28 36 31 29 64 30 33 32 29 45 125 46 36 53 67 52 93 90 31 30 287 32 48 61 40 28 31 46 73 53 52 9537 750 517 42 476 3147 183 28 100 52 56 63 123 870
internal_value=2.99061e-12 -0.00213866 -0.00566838 -0.00723731 -0.00513657 -0.00797664 -0.00459942 0.00287771 0.00100946 -0.00444727 -0.00923481 0.00354873 0.00566547 6.89217e-05 -0.00151542 -0.00242978 -0.00702611 -0.00293499 -0.00137287 -0.00335371 0.00106918 -0.00237381 -0.00216008 -0.0111907 0.00580635 0.00176746 0.00458131 0.000176407 -0.0061886 0.000206668 0.00418525 0.00808702 0.00475632 0.000150871 -0.000422936 0.00140078 -0.00157095 -0.000599605 -0.000783809 -0.00295061 -0.000256154 -0.00266052 -0.0092984 0.00209181 -0.00410794 -0.00167232 -0.00071329
internal_weight=17937 560 264 236 200 154 123 59 296 94 62 202 157 17377 1104 920 172 105 748 413 335 194 377 62 141 132 101 16273 77 16196 224 151 105 15972 6435 1063 546 518 5372 1052 4320 1173 152 302 119 1021 898
internal_count=17937 560 264 236 200 154 123 59 296 94 62 202 157 17377 1104 920 172 105 748 413 335 194 377 62 141 132 101 16273 77 16196 224 151 105 15972 6435 1063 546 518 5372 1052 4320 1173 152 302 119 1021 898
is_linear=0
shrinkage=0.0599982


Tree=22
num_leaves=48
num_cat=0
split_feature=8 8 0 6 0 8 8 5 6 8 5 8 8 4 2 1 8 0 4 1 2 2 2 6 2 2 1 6 6 6 1 8 4 1 0 4 6 4 0 1 6 2 0 4 8 6 8
split_gain=0.804706 1.47972 0.952629 0.711473 0.808761 1.20477 1.29239 0.97268 1.12084 0.891954 1.27126 0.831662 1.44232 1.17322 1.5473 0.946115 1.06963 0.741092 1.73424 2.3096 1.4825 0.965838 0.746999 2.66447 2.48904 1.89056 1.64089 1.2347 0.952888 0.966654 1.21852 1.79019 1.19181 0.927877 1.84081 1.77696 0.866781 0.803087 2.3616 0.977116 0.95337 1.20382 0.889075 0.937995 0.795239 1.19192 0.793508
threshold=0.012974064727882656 0.0091326104807517693 27.637532282996371 0.74333693442143722 5.3848058559941432 0.85636107578943255 0.59966013752939062 50.792949030369421 0.83992627950578036 0.66843976529372962 52.344650775713511 0.17948717905449149 0.12148776606486021 0.93678466518693948 61.079808157312321 -1.8463108183640349 0.30685376656214974 7.1176447204717475 0.88755731264267601 -3.7890223172627837 22.42226393045507 62.518480701177417 -63.874254119849049 1.0879042290192982 -61.83019911083246 -69.960209675932887 23.43038335930726 0.78873996188160256 1.0496476355848852 1.0191316389789953 -2.9587248117120128 0.6065753901604044 0.82962964533816963 -0.69474607264777688 15.933562872036157 0.94810711294197914 0.922663975263319 0.99102926555095372 15.792783860557755 5.360709296049289 0.9090378111748364 -65.893006341516454 22.780836619378231 0.80890353790275371 0.42350474701122781 0.87525382138547592 0.97942419931679237
decision_type=2 2 10 2 8 2 2 2 2 2 2 2 2 10 10 10 2 10 10 10 10 8 10 2 10 10 10 2 2 2 10 2 10 10 10 10 2 10 10 10 2 10 10 10 2 2 2
left_child=1 -1 -3 -2 5 6 7 8 -5 -8 -11 12 -9 15 -15 16 -13 18 19 21 -21 -6 23 26 -24 -25 27 -19 29 30 31 -29 -31 34 35 -32 -36 38 39 -35 -40 42 -42 -44 45 -39 -26
right_child=3 2 -4 4 17 -7 9 11 -10 10 -12 13 -14 14 -16 -17 -18 22 -20 20 -22 -23 24 25 46 -27 -28 28 -30 32 33 -33 -34 37 36 -37 -38 44 40 -41 41 -43 43 -45 -46 -47 -48
