tree
version=v4
num_class=1
num_tree_per_iteration=1
label_index=0
max_feature_idx=11
objective=regression
feature_names=market_energy energy_slope mpo mpo_bias compression_index rsi_14 atr_ratio bb_width candle_body_ratio side hour_of_day is_ny_open
feature_infos=[0.24604766210895662:96.590482404029814] [-55.322138830910816:62.796685134816961] [-88.924553316990384:89.949298781555925] [-1:1] [1.9173940213335072e-10:1] [8.2920295521050242:92.535439894854647] [0.57984602604951474:2.5107638911020764] [0.00076989514568883593:0.11508627600744675] [0:0.99999999883585555] -1:0:1 -1:17:19:3:11:13:9:7:20:16:4:21:22:6:10:15:18:2:5:12:1:14:8:23 -1:0:1
tree_sizes=815 875 870 876 878 876 865 876 878 875 881 866 883 879 878 877 882 878 878 880 879 879 881 891 882 883 888 890 886 890 889 881 888 889 876 890 890 891 890 887 878 890 890 884 887 890 885 886 891 888 885 878 891 887 883 891 890 885 889 873 888 883 888 877 893 877 889 886 888 887 889 892 892 877 896 890 889 889 913 889 889 881 890 913 877 889 883 878 885 886 901 887 884 882 899 887 882 891 886 878

Tree=0
num_leaves=8
num_cat=4
split_feature=10 9 2 7 6 9 10
split_gain=7.27125 3.52383 4.07397 3.85873 3.76712 3.07836 3.89167
threshold=0 1 -51.439615415695044 0.0053005732005209309 0.9231528922532759 2 3
decision_type=9 1 10 2 2 1 9
left_child=1 2 -1 -4 -5 6 -2
right_child=5 -3 3 4 -6 -7 -8
leaf_value=0.74670768536426402 0.74510826594347412 0.7442811790913163 0.74558210157232119 0.74252525672933944 0.74471254075326521 0.74515527785858249 0.7461480307428604
leaf_weight=161 653 1175 467 116 431 1825 1172
leaf_count=161 653 1175 467 116 431 1825 1172
internal_value=0.745167 0.7447 0.745116 0.744863 0.744249 0.745467 0.745781
internal_weight=6000 2350 1175 1014 547 3650 1825
internal_count=6000 2350 1175 1014 547 3650 1825
cat_boundaries=0 1 2 3 4
cat_threshold=10437640 1 1 12464
is_linear=0
shrinkage=1


Tree=1
num_leaves=8
num_cat=4
split_feature=10 9 2 7 6 9 10
split_gain=7.11593 3.44831 3.98665 3.77603 3.68638 3.01291 3.80899
threshold=0 1 -51.439615415695044 0.0053005732005209309 0.9231528922532759 2 3
decision_type=9 1 10 2 2 1 9
left_child=1 2 -1 -4 -5 6 -2
right_child=5 -3 3 4 -6 -7 -8
leaf_value=0.0015244158628021033 -5.7781116206105097e-05 -0.00087594739921823656 0.000410958934488616 -0.0026129517190761832 -0.00044923316959756939 -1.126615234633396e-05 0.00097088035813142038
leaf_weight=161 653 1175 467 116 431 1825 1172
leaf_count=161 653 1175 467 116 431 1825 1172
internal_value=1.66103e-08 -0.000461276 -5.05303e-05 -0.000300596 -0.000908084 0.000297462 0.00060782
internal_weight=6000 2350 1175 1014 547 3650 1825
internal_count=6000 2350 1175 1014 547 3650 1825
cat_boundaries=0 1 2 3 4
cat_threshold=10437640 1 1 12464
is_linear=0
shrinkage=0.0107739


Tree=2
num_leaves=8
num_cat=4
split_feature=10 9 2 7 6 9 10
split_gain=6.96392 3.3744 3.90121 3.6951 3.60738 2.94886 3.73325
threshold=0 1 -51.439615415695044 0.0053005732005209309 0.9231528922532759 2 3
decision_type=9 1 10 2 2 1 9
left_child=1 2 -1 -4 -5 6 -2
right_child=5 -3 3 4 -6 -7 -8
leaf_value=0.0015079918383023889 3.2017085258679506e-05 -0.00086650997134821552 0.00040653137821579198 -0.0025847999796255855 -0.00044439331000830604 -1.1144780961778028e-05 0.0010190391325883568
leaf_weight=161 783 1175 467 116 431 1825 1042
leaf_count=161 783 1175 467 116 431 1825 1042
internal_value=3.28e-08 -0.000456306 -4.99859e-05 -0.000297357 -0.0008983 0.000294284 0.000601325
internal_weight=6000 2350 1175 1014 547 3650 1825
internal_count=6000 2350 1175 1014 547 3650 1825
cat_boundaries=0 1 2 3 4
cat_threshold=10437640 1 1 45232
is_linear=0
shrinkage=0.0107739


Tree=3
num_leaves=8
num_cat=4
split_feature=10 9 7 9 10 2 6
split_gain=6.81524 3.30209 3.82334 2.88625 3.65987 2.61781 2.8356
threshold=0 1 0.0044604040041481404 2 3 -48.735424876388258 0.91871149626195237
decision_type=9 1 2 1 9 10 2
left_child=1 2 -1 4 -2 -4 -7
right_child=3 -3 5 -5 -6 6 -8
leaf_value=0.00075654248328560513 -5.7507646301893361e-05 -0.00085717443668889071 0.0010242708713352714 -1.1024693930497821e-05 0.00095079197055019597 -0.0021244294247629776 -0.00039614543490045352
leaf_weight=432 653 1175 109 1825 1172 142 492
leaf_count=432 653 1175 109 1825 1172 142 492
internal_value=5.13093e-08 -0.00045139 -4.94474e-05 0.000291144 0.000594909 -0.000518071 -0.000783237
internal_weight=6000 2350 1175 3650 1825 743 634
internal_count=6000 2350 1175 3650 1825 743 634
cat_boundaries=0 1 2 3 4
cat_threshold=10437640 1 1 12464
is_linear=0
shrinkage=0.0107739


Tree=4
num_leaves=8
num_cat=4
split_feature=10 9 2 7 6 9 10
split_gain=6.66965 3.23132 3.76632 3.54978 3.47111 2.82489 3.58729
threshold=0 1 -51.439615415695044 0.0053005732005209309 0.9231528922532759 2 3
decision_type=9 1 10 2 2 1 9
left_child=1 2 -1 -4 -5 6 -2
right_child=5 -3 3 4 -6 -7 -8
leaf_value=0.0014818917893909644 3.0507382240108317e-05 -0.00084793929445979631 0.00039793651359685753 -0.0025353186171806715 -0.00043572791031925152 -1.0905891252493337e-05 0.00099801811519937091
leaf_weight=161 783 1175 467 116 431 1825 1042
leaf_count=161 783 1175 467 116 431 1825 1042
internal_value=6.67883e-08 -0.000446527 -4.89147e-05 -0.000291972 -0.000880979 0.000288034 0.000588552
internal_weight=6000 2350 1175 1014 547 3650 1825
internal_count=6000 2350 1175 1014 547 3650 1825
cat_boundaries=0 1 2 3 4
cat_threshold=10437640 1 1 45232
is_linear=0
shrinkage=0.0107739


Tree=5
num_leaves=8
num_cat=4
split_feature=10 9 2 7 6 9 10
split_gain=6.52725 3.16206 3.6856 3.4737 3.39672 2.76491 3.51659
threshold=0 1 -51.439615415695044 0.0053005732005209309 0.9231528922532759 2 3
decision_type=9 1 10 2 2 1 9
left_child=1 2 -1 -4 -5 6 -2
right_child=5 -3 3 4 -6 -7 -8
leaf_value=0.0014659259938204377 -5.722112800767112e-05 -0.00083880347318238016 0.00039364932586116345 -0.0025080030055525844 -0.00043103337336617667 -1.0788372927764579e-05 0.00093111972348129441
leaf_weight=161 653 1175 467 116 431 1825 1172
leaf_count=161 653 1175 467 116 431 1825 1172
internal_value=8.46052e-08 -0.000441716 -4.83876e-05 -0.000288826 -0.000871488 0.000284961 0.000582272
internal_weight=6000 2350 1175 1014 547 3650 1825
internal_count=6000 2350 1175 1014 547 3650 1825
cat_boundaries=0 1 2 3 4
cat_threshold=10437640 1 1 12464
is_linear=0
shrinkage=0.0107739


Tree=6
num_leaves=8
num_cat=5
split_feature=10 9 7 9 10 0 10
split_gain=6.38782 3.09429 3.61923 2.70613 3.44704 2.81 2.53296
threshold=0 1 0.0044604040041481404 2 3 13.482686024470452 4
decision_type=9 1 2 1 9 10 9
left_child=1 2 -1 4 5 -2 -5
right_child=3 -3 -4 6 -6 -7 -8
leaf_value=0.00073631379729831032 -0.0011392669097532396 -0.00082976633778493751 -0.00050380956111860061 -0.00063936344860631843 0.00097743123332972551 0.00038586556259594281 0.0002428790678069051
leaf_weight=432 183 1175 743 520 1042 600 1305
leaf_count=432 183 1175 743 520 1042 600 1305
internal_value=9.93511e-08 -0.000436957 -4.78663e-05 0.000281917 0.00057605 2.9046e-05 -1.06721e-05
internal_weight=6000 2350 1175 3650 1825 783 1825
internal_count=6000 2350 1175 3650 1825 783 1825
cat_boundaries=0 1 2 3 4 5
cat_threshold=10437640 1 1 45232 6291524
is_linear=0
shrinkage=0.0107739


Tree=7
num_leaves=8
num_cat=4
split_feature=10 9 2 7 6 9 10
split_gain=6.25122 3.02798 3.6039 3.34261 3.32392 2.64888 3.37388
threshold=0 1 -51.439615415695044 0.0053005732005209309 0.9231528922532759 2 3
decision_type=9 1 10 2 2 1 9
left_child=1 2 -1 -4 -5 6 -2
right_child=5 -3 3 4 -6 -7 -8
leaf_value=0.0014500830314837698 2.8732971662971236e-05 -0.00082082659680925965 0.00038436462327188662 -0.0024755539722815648 -0.00042096147497794795 -1.0580655352175739e-05 0.00096700055170853094
leaf_weight=161 783 1175 467 116 431 1825 1042
leaf_count=161 783 1175 467 116 431 1825 1042
internal_value=1.08645e-07 -0.000432249 -4.73506e-05 -0.000285109 -0.00085667 0.000278896 0.000569901
internal_weight=6000 2350 1175 1014 547 3650 1825
internal_count=6000 2350 1175 1014 547 3650 1825
cat_boundaries=0 1 2 3 4
cat_threshold=10437640 1 1 45232
is_linear=0
shrinkage=0.0107739


Tree=8
num_leaves=8
num_cat=4
split_feature=10 9 2 7 6 9 10
split_gain=6.11775 2.96308 3.52666 3.27097 3.25268 2.59264 3.31004
threshold=0 1 -51.439615415695044 0.0053005732005209309 0.9231528922532759 2 3
decision_type=9 1 10 2 2 1 9
left_child=1 2 -1 -4 -5 6 -2
right_child=5 -3 3 4 -6 -7 -8
leaf_value=0.0014344599348720742 -5.6577201123678405e-05 -0.00081198296590207083 0.00038022356578662578 -0.0024488824582852482 -0.00041642600711503123 -1.0466644543461341e-05 0.00090226927167200209
leaf_weight=161 653 1175 467 116 431 1825 1172
leaf_count=161 653 1175 467 116 431 1825 1172
internal_value=1.25411e-07 -0.000427592 -4.68404e-05 -0.000282037 -0.000847441 0.000275921 0.00056382
internal_weight=6000 2350 1175 1014 547 3650 1825
internal_count=6000 2350 1175 1014 547 3650 1825
cat_boundaries=0 1 2 3 4
cat_threshold=10437640 1 1 12464
is_linear=0
shrinkage=0.0107739


Tree=9
num_leaves=8
num_cat=4
split_feature=10 9 2 7 6 9 10
split_gain=5.98707 2.89958 3.45107 3.20087 3.18297 2.53752 3.24195
threshold=0 1 -51.439615415695044 0.0053005732005209309 0.9231528922532759 2 3
decision_type=9 1 10 2 2 1 9
left_child=1 2 -1 -4 -5 6 -2
right_child=5 -3 3 4 -6 -7 -8
leaf_value=0.0014190051693101626 2.7335767787790257e-05 -0.00080323480999166608 0.000376127119638593 -0.0024224984650385198 -0.00041193953539262368 -1.0353966999010428e-05 0.00094705255440582733
leaf_weight=161 783 1175 467 116 431 1825 1042
leaf_count=161 783 1175 467 116 431 1825 1042
internal_value=1.39183e-07 -0.000422985 -4.63358e-05 -0.000278998 -0.00083831 0.000272973 0.000557795
internal_weight=6000 2350 1175 1014 547 3650 1825
internal_count=6000 2350 1175 1014 547 3650 1825
cat_boundaries=0 1 2 3 4
cat_threshold=10437640 1 1 45232
is_linear=0
shrinkage=0.0107739


Tree=10
num_leaves=8
num_cat=3
split_feature=10 9 2 7 6 6 9
split_gain=5.85924 2.83743 3.37711 3.13227 3.11475 2.50039 2.48364
threshold=0 1 -51.439615415695044 0.0053005732005209309 0.9231528922532759 0.87657757765384736 2
decision_type=9 1 10 2 2 2 1
left_child=1 2 -1 -4 5 -5 -2
right_child=6 -3 3 4 -6 -7 -8
leaf_value=0.0014037169508632444 0.00055184323436701266 -0.0007945806211926465 0.00037207463165026596 -0.00089441305688222532 -0.00040750144966842099 -0.0040622371910171247 -1.0242285971950431e-05
leaf_weight=161 1825 1175 467 61 431 55 1825
leaf_count=161 1825 1175 467 61 431 55 1825
internal_value=1.55236e-07 -0.000418428 -4.58367e-05 -0.000275993 -0.000829279 -0.0023964 0.000270061
internal_weight=6000 2350 1175 1014 547 116 3650
internal_count=6000 2350 1175 1014 547 116 3650
cat_boundaries=0 1 2 3
cat_threshold=10437640 1 1
is_linear=0
shrinkage=0.0107739


Tree=11
num_leaves=8
num_cat=5
split_feature=10 9 7 10 9 10 0
split_gain=5.73367 2.77662 3.3152 2.53988 2.43041 3.18131 2.54975
threshold=0 1 0.0044604040041481404 2 3 4 13.482686024470452
decision_type=9 1 2 9 1 9 10
left_child=1 2 -1 -4 5 6 -2
right_child=4 -3 3 -5 -6 -7 -8
leaf_value=0.00070517783885561776 -0.0011586164640734987 -0.00078601998086049753 -0.0018576703904698295 -0.00018655372882235655 -1.013200788092066e-05 0.00087770788013952195 0.00035064352932706681
leaf_weight=432 179 1175 119 624 1825 1172 474
leaf_count=432 179 1175 119 624 1825 1172 474
internal_value=1.53548e-07 -0.00041392 -4.53427e-05 -0.000481715 0.000267151 0.000545898 -6.21226e-05
internal_weight=6000 2350 1175 743 3650 1825 653
internal_count=6000 2350 1175 743 3650 1825 653
cat_boundaries=0 1 2 3 4 5
cat_threshold=10437640 1 17408 1 12464
is_linear=0
shrinkage=0.0107739


Tree=12
num_leaves=8
num_cat=3
split_feature=10 9 2 7 6 6 9
split_gain=5.61277 2.71573 3.30374 3.01671 3.04872 2.44349 2.37877
threshold=0 1 -51.439615415695044 0.0053005732005209309 0.9231528922532759 0.87657757765384736 2
decision_type=9 1 10 2 2 2 1
left_child=1 2 -1 -4 5 -5 -2
right_child=6 -3 3 4 -6 -7 -8
leaf_value=0.0013886777413935005 0.00054006802279386488 -0.00077755138110982016 0.00036331743454056503 -0.00088129097737643972 -0.00039838563011651112 -0.0040128600658687662 -1.0022837852484107e-05
leaf_weight=161 1825 1175 467 61 431 55 1825
leaf_count=161 1825 1175 467 61 431 55 1825
internal_value=1.30948e-07 -0.000409554 -4.50416e-05 -0.000272683 -0.000815668 -0.00236609 0.000264298
internal_weight=6000 2350 1175 1014 547 116 3650
internal_count=6000 2350 1175 1014 547 116 3650
cat_boundaries=0 1 2 3
cat_threshold=10437640 1 1
is_linear=0
shrinkage=0.0107739


Tree=13
num_leaves=8
num_cat=3
split_feature=10 9 10 7 2 6 6
split_gain=5.50205 3.04445 2.79273 2.80305 2.33756 2.42408 2.25143
threshold=0 1 2 0.005077891588708262 -51.439615415695044 0.9231528922532759 0.88871003020358952
decision_type=9 1 9 2 10 2 2
left_child=1 2 -1 -4 -5 6 -6
right_child=-2 -3 3 4 5 -7 -8
leaf_value=0.00080231514110520527 0.00031082472027305433 -0.0006941664273187434 0.00036304011712225728 0.0010233703354493239 -0.0012001800004382268 -0.00062681184225390368 -0.0043103284669091958
leaf_weight=370 3142 1429 455 75 70 415 44
leaf_count=370 3142 1429 455 75 70 415 44
internal_value=1.29585e-07 -0.000341333 9.11254e-06 -0.00027302 -0.000756691 -0.00100906 -0.00240059
internal_weight=6000 2858 1429 1059 604 529 114
internal_count=6000 2858 1429 1059 604 529 114
cat_boundaries=0 1 2 3
cat_threshold=12538888 1 11534336
is_linear=0
shrinkage=0.0107739


Tree=14
num_leaves=8
num_cat=4
split_feature=10 9 10 7 8 2 10
split_gain=5.38381 2.97972 2.73405 2.74298 2.32279 3.00612 2.1877
threshold=0 1 2 0.005077891588708262 0.39024905801926008 55.880528510785027 3
decision_type=9 1 9 2 2 10 9
left_child=1 2 -1 -4 -5 -6 -3
right_child=-2 6 3 4 5 -7 -8
leaf_value=0.00079389854383526146 0.00030748653325633101 -0.00010835658168701202 0.00035912883057477905 2.0818422575779124e-06 -0.00081752742423250933 -0.0033128250312717349 -0.00099657632222266402
leaf_weight=370 3142 511 455 267 266 71 918
leaf_count=370 3142 511 455 267 266 71 918
internal_value=1.48165e-07 -0.000337625 9.07491e-06 -0.000270078 -0.000748538 -0.00134324 -0.000686688
internal_weight=6000 2858 1429 1059 604 337 1429
internal_count=6000 2858 1429 1059 604 337 1429
cat_boundaries=0 1 2 3 4
cat_threshold=12538888 1 11534336 21512
is_linear=0
shrinkage=0.0107739


Tree=15
num_leaves=8
num_cat=4
split_feature=10 9 10 7 8 2 10
split_gain=5.26879 2.91707 2.6766 2.68532 2.22445 2.63229 2.14127
threshold=0 1 2 0.0052053845406885837 0.39024905801926008 55.880528510785027 3
decision_type=9 1 9 2 2 10 9
left_child=1 2 -1 -4 -5 -6 -3
right_child=-2 6 3 4 5 -7 -8
leaf_value=0.000785570209096861 0.00030418422918353379 -0.00010721151294954451 0.00034231945546090055 -8.9417716754659379e-06 -0.00084916269862509754 -0.0032272236618958649 -0.00098595503618473896
leaf_weight=370 3142 511 466 262 263 68 918
leaf_count=370 3142 511 466 262 263 68 918
internal_value=1.46504e-07 -0.000333999 9.03695e-06 -0.000267168 -0.00075063 -0.00133771 -0.000679373
internal_weight=6000 2858 1429 1059 593 331 1429
internal_count=6000 2858 1429 1059 593 331 1429
cat_boundaries=0 1 2 3 4
cat_threshold=12538888 1 11534336 21512
is_linear=0
shrinkage=0.0107739


Tree=16
num_leaves=8
num_cat=3
split_feature=10 9 2 7 6 6 9
split_gain=5.15761 2.51401 3.17308 2.78711 2.91608 2.37338 2.28888
threshold=0 1 -51.439615415695044 0.0053005732005209309 0.9231528922532759 0.87657757765384736 2
decision_type=9 1 10 2 2 2 1
left_child=1 2 -1 -4 5 -5 -2
right_child=6 -3 3 4 -6 -7 -8
leaf_value=0.0013632261203704705 0.00052386711571191912 -0.00074663804382789324 0.00034636555302194362 -0.00083983937023874168 -0.00037876030232197194 -0.0039261611232100698 -1.5729341030240653e-05
leaf_weight=161 1825 1175 467 61 431 55 1825
leaf_count=161 1825 1175 467 61 431 55 1825
internal_value=1.4485e-07 -0.000392577 -4.18576e-05 -0.000264953 -0.000786864 -0.00230318 0.000253375
internal_weight=6000 2350 1175 1014 547 116 3650
internal_count=6000 2350 1175 1014 547 116 3650
cat_boundaries=0 1 2 3
cat_threshold=10437640 1 1
is_linear=0
shrinkage=0.0107739


Tree=17
num_leaves=8
num_cat=4
split_feature=10 9 10 7 8 2 10
split_gain=5.06315 2.79505 2.60626 2.58186 2.22932 2.86857 2.09337
threshold=0 1 2 0.005077891588708262 0.39024905801926008 55.880528510785027 3
decision_type=9 1 9 2 2 10 9
left_child=1 2 -1 -4 -5 -6 -3
right_child=-2 6 3 4 5 -7 -8
leaf_value=0.00077463584044496728 0.00029818871997620486 -0.00010003286066890434 0.00034625019545454799 6.969392127181379e-06 -0.00079746367803312844 -0.0032350053336715574 -0.00096860931408555677
leaf_weight=370 3142 511 455 267 266 71 918
leaf_count=370 3142 511 455 267 266 71 918
internal_value=1.43308e-07 -0.000327417 8.36639e-06 -0.000264178 -0.000728394 -0.00131101 -0.000665491
internal_weight=6000 2858 1429 1059 604 337 1429
internal_count=6000 2858 1429 1059 604 337 1429
cat_boundaries=0 1 2 3 4
cat_threshold=12538888 1 11534336 21512
is_linear=0
shrinkage=0.0107739


Tree=18
num_leaves=8
num_cat=4
split_feature=10 9 10 7 2 6 10
split_gain=4.95498 2.73629 2.55149 2.52768 2.1618 2.44691 2.04894
threshold=0 1 2 0.0052053845406885837 -51.439615415695044 0.9231528922532759 3
decision_type=9 1 9 2 10 2 9
left_child=1 2 -1 -4 -5 -6 -3
right_child=-2 6 3 4 5 -7 -8
leaf_value=0.00076650950236800621 0.00029498621355532665 -9.8975742397667762e-05 0.00032997598709852687 0.00099234299482302214 -0.0024025184824896487 -0.00059239252990799559 -0.00095828619003779033
leaf_weight=370 3142 511 466 74 110 409 918
leaf_count=370 3142 511 466 74 110 409 918
internal_value=1.41804e-07 -0.0003239 8.33466e-06 -0.000261332 -0.000730408 -0.000976042 -0.000658402
internal_weight=6000 2858 1429 1059 593 519 1429
internal_count=6000 2858 1429 1059 593 519 1429
cat_boundaries=0 1 2 3 4
cat_threshold=12538888 1 11534336 21512
is_linear=0
shrinkage=0.0107739


Tree=19
num_leaves=8
num_cat=4
split_feature=10 9 10 7 8 2 10
split_gain=4.84912 2.67876 2.49788 2.47351 2.13781 2.47716 2.00785
threshold=0 1 2 0.0052053845406885837 0.39024905801926008 55.880528510785027 3
decision_type=9 1 9 2 2 10 9
left_child=1 2 -1 -4 -5 -6 -3
right_child=-2 6 3 4 5 -7 -8
leaf_value=0.00075846856153182645 0.00029181816428121217 -0.00019046061511365688 0.00032642080524572037 4.5620657288498715e-06 -0.00082413944841526292 -0.0031310626164166577 -0.0010110817535555656
leaf_weight=370 3142 641 466 262 263 68 788
leaf_count=370 3142 641 466 262 263 68 788
internal_value=1.40372e-07 -0.000320421 8.30264e-06 -0.000258516 -0.000722539 -0.00129807 -0.000651388
internal_weight=6000 2858 1429 1059 593 331 1429
internal_count=6000 2858 1429 1059 593 331 1429
cat_boundaries=0 1 2 3 4
cat_threshold=12538888 1 11534336 283656
is_linear=0
shrinkage=0.0107739


Tree=20
num_leaves=8
num_cat=3
split_feature=10 9 10 7 2 6 6
split_gain=4.74561 2.62254 2.44539 2.42159 2.17087 2.21277 2.19968
threshold=0 1 2 0.005077891588708262 -51.439615415695044 0.9231528922532759 0.88871003020358952
decision_type=9 1 9 2 10 2 2
left_child=1 2 -1 -4 -5 6 -6
right_child=-2 -3 3 4 5 -7 -8
leaf_value=0.00075051190849178932 0.00028868404259243185 -0.00064446028831566032 0.0003354478507796729 0.0010101115070603771 -0.0010914731602496366 -0.0005833028175669749 -0.0041656696339030042
leaf_weight=370 3142 1429 455 75 70 415 44
leaf_count=370 3142 1429 455 75 70 415 44
internal_value=1.36126e-07 -0.000316986 8.2704e-06 -0.000255731 -0.000705306 -0.000948513 -0.00227801
internal_weight=6000 2858 1429 1059 604 529 114
internal_count=6000 2858 1429 1059 604 529 114
cat_boundaries=0 1 2 3
cat_threshold=12538888 1 11534336
is_linear=0
shrinkage=0.0107739


Tree=21
num_leaves=8
num_cat=3
split_feature=10 9 10 7 8 6 5
split_gain=4.64362 2.56678 2.394 2.37078 2.52761 2.53218 2.84705
threshold=0 1 2 0.0053005732005209309 0.35490112929930334 0.91871149626195237 60.068856681099753
decision_type=9 1 9 2 2 2 2
left_child=1 2 -1 -4 -5 6 -6
right_child=-2 -3 3 4 5 -7 -8
leaf_value=0.00074263870123602693 0.00028558370857312081 -0.00063751700440243815 0.0003002631432202564 0.00014864631034211705 -0.0017062305657569816 -0.00084539606141597213 -0.0064624971657932691
leaf_weight=370 3142 1429 484 231 48 275 21
leaf_count=370 3142 1429 484 231 48 275 21
internal_value=1.53332e-07 -0.000313542 8.23789e-06 -0.000252975 -0.000723058 -0.00130842 -0.00315379
internal_weight=6000 2858 1429 1059 575 344 69
internal_count=6000 2858 1429 1059 575 344 69
cat_boundaries=0 1 2 3
cat_threshold=12538888 1 11534336
is_linear=0
shrinkage=0.0107739


Tree=22
num_leaves=8
num_cat=3
split_feature=10 9 2 7 6 6 9
split_gain=4.54632 2.24607 3.00517 2.47206 2.7142 2.29854 2.17785
threshold=0 1 -51.439615415695044 0.0053005732005209309 0.9231528922532759 0.87657757765384736 2
decision_type=9 1 10 2 2 2 1
left_child=1 2 -1 -4 5 -5 -2
right_child=6 -3 3 4 -6 -7 -8
leaf_value=0.0013303697360379425 0.00050174566366831665 -0.00070319663937297471 0.00032158881998916743 -0.00076847592802466787 -0.00035194841972720377 -0.0038057445619071278 -2.4601403801778877e-05
leaf_weight=161 1825 1175 467 61 431 55 1825
leaf_count=161 1825 1175 467 61 431 55 1825
internal_value=1.70163e-07 -0.000368545 -3.70308e-05 -0.000254143 -0.000745672 -0.00220856 0.00023792
internal_weight=6000 2350 1175 1014 547 116 3650
internal_count=6000 2350 1175 1014 547 116 3650
cat_boundaries=0 1 2 3
cat_threshold=10437640 1 1
is_linear=0
shrinkage=0.0107739


Tree=23
num_leaves=8
num_cat=3
split_feature=10 9 2 4 7 10 7
split_gain=4.4671 2.64293 2.13742 1.91169 1.72844 1.55318 1.56021
threshold=0 1 84.285487911106841 0.015208141098677465 0.0036085369409145063 2 0.0081374837194206091
decision_type=9 1 8 10 2 9 2
left_child=4 5 3 -3 -1 -2 -7
right_child=1 2 -4 -5 -6 6 -8
leaf_value=0.00013360511937429096 0.00095665411403574084 -0.0011898230812931231 -0.0034324586238245274 0.00015767597259447411 -0.00043850643770086136 0.00050587500875246092 -0.00077923493533308536
leaf_weight=840 774 135 21 1290 2268 534 138
leaf_count=840 774 135 21 1290 2268 534 138
internal_value=1.68269e-07 0.000304381 -2.02668e-05 3.00182e-05 -0.000282971 0.000631134 0.000238421
internal_weight=6000 2892 1446 1425 3108 1446 672
internal_count=6000 2892 1446 1425 3108 1446 672
cat_boundaries=0 1 2 3
cat_threshold=12538920 1 4197188
is_linear=0
shrinkage=0.0107739


Tree=24
num_leaves=8
num_cat=3
split_feature=10 9 2 10 0 5 7
split_gain=4.37443 2.45816 2.34283 2.26941 2.20826 2.16478 2.13864
threshold=0 1 -61.425631749843468 2 28.623057995238948 43.012721864155473 0.017219687578116216
decision_type=9 1 10 9 8 2 2
left_child=1 2 -1 6 5 -5 -4
right_child=-2 -3 3 4 -6 -7 -8
leaf_value=0.0013557346394734479 0.00027721734398313957 -0.00062132093682752232 0.00066725410674902481 0.00088146571110111951 0.00012279447092031367 -0.0012885661963326946 -0.0025147759275735396
leaf_weight=136 3142 1429 430 62 392 383 26
leaf_count=136 3142 1429 430 62 392 383 26
internal_value=1.83651e-07 -0.000304284 1.06231e-05 -0.000130858 -0.000461316 -0.000986225 0.000475397
internal_weight=6000 2858 1429 1293 837 445 456
internal_count=6000 2858 1429 1293 837 445 456
cat_boundaries=0 1 2 3
cat_threshold=12538888 1 11599872
is_linear=0
shrinkage=0.0107739


Tree=25
num_leaves=8
num_cat=3
split_feature=10 9 2 7 6 6 9
split_gain=4.28657 2.15541 2.89493 2.39878 2.63025 2.25262 2.07659
threshold=0 1 -51.439615415695044 0.0053005732005209309 0.9231528922532759 0.87657757765384736 2
decision_type=9 1 10 2 2 2 1
left_child=1 2 -1 -4 5 -5 -2
right_child=6 -3 3 4 -6 -7 -8
leaf_value=0.0013090146226094621 0.00048866058522959181 -0.00068565502349333073 0.00032096952553502733 -0.00074481489295643926 -0.00034276773363000929 -0.0037515920303025745 -2.5304592674340798e-05
leaf_weight=161 1825 1175 467 61 431 55 1825
leaf_count=161 1825 1175 467 61 431 55 1825
internal_value=1.86666e-07 -0.000357841 -3.30724e-05 -0.000246165 -0.000730355 -0.00217044 0.000231045
internal_weight=6000 2350 1175 1014 547 116 3650
internal_count=6000 2350 1175 1014 547 116 3650
cat_boundaries=0 1 2 3
cat_threshold=10437640 1 1
is_linear=0
shrinkage=0.0107739


Tree=26
num_leaves=8
num_cat=3
split_feature=10 9 2 4 7 10 7
split_gain=4.21456 2.5426 2.09162 1.87072 1.66858 1.52213 1.52677
threshold=0 1 84.285487911106841 0.015208141098677465 0.0036085369409145063 2 0.0081374837194206091
decision_type=9 1 8 10 2 9 2
left_child=4 5 3 -3 -1 -2 -7
right_child=1 2 -4 -5 -6 6 -8
leaf_value=0.0001344749608178311 0.00093833242916964291 -0.0011797178682079813 -0.0033981915127011693 0.000153263116938039 -0.00042764337004982662 0.00049217324961023487 -0.00077909094583586045
leaf_weight=840 774 135 21 1290 2268 534 138
leaf_count=840 774 135 21 1290 2268 534 138
internal_value=1.84647e-07 0.000295673 -2.27625e-05 2.69807e-05 -0.000274835 0.000616154 0.000227721
internal_weight=6000 2892 1446 1425 3108 1446 672
internal_count=6000 2892 1446 1425 3108 1446 672
cat_boundaries=0 1 2 3
cat_threshold=12538920 1 4197188
is_linear=0
shrinkage=0.0107739


Tree=27
num_leaves=8
num_cat=3
split_feature=10 9 2 4 7 10 7
split_gain=4.12475 2.48866 2.04679 1.83062 1.63282 1.49006 1.49405
threshold=0 1 84.285487911106841 0.015208141098677465 0.0036085369409145063 2 0.0081374837194206091
decision_type=9 1 8 10 2 9 2
left_child=4 5 3 -3 -1 -2 -7
right_child=1 2 -4 -5 -6 6 -8
leaf_value=0.00013302614362053849 0.00092835186320699016 -0.0011670078606227752 -0.0033615797382233769 0.00015161183612781849 -0.00042303594967245888 0.00048687065099818399 -0.00077069710386363122
leaf_weight=840 774 135 21 1290 2268 534 138
leaf_count=840 774 135 21 1290 2268 534 138
internal_value=1.99508e-07 0.000292523 -2.25173e-05 2.669e-05 -0.000271874 0.000609585 0.000225268
internal_weight=6000 2892 1446 1425 3108 1446 672
internal_count=6000 2892 1446 1425 3108 1446 672
cat_boundaries=0 1 2 3
cat_threshold=12538920 1 4197188
is_linear=0
shrinkage=0.0107739


Tree=28
num_leaves=8
num_cat=3
split_feature=10 9 2 7 10 7 7
split_gain=4.04752 2.10922 2.83192 2.31997 2.58547 2.17427 2.86521
threshold=0 1 -51.439615415695044 0.0053005732005209309 2 0.016552636262324588 0.0093195832873910686
decision_type=9 1 10 2 9 2 2
left_child=1 2 -1 -4 -5 6 -6
right_child=-2 -3 3 4 5 -7 -8
leaf_value=0.001301008637377465 0.00022454271810981637 -0.00067194275117445632 0.00032058849442730575 -0.0018829296784338174 -0.00056442283558696699 -0.0020397116095998485 0.0015779948863954402
leaf_weight=161 3650 1175 467 147 229 65 106
leaf_count=161 3650 1175 467 147 229 65 106
internal_value=2.14041e-07 -0.000347687 -2.6391e-05 -0.000237152 -0.000713321 -0.00023065 0.000113477
internal_weight=6000 2350 1175 1014 547 400 335
internal_count=6000 2350 1175 1014 547 400 335
cat_boundaries=0 1 2 3
cat_threshold=10437640 1 541696
is_linear=0
shrinkage=0.0107739


Tree=29
num_leaves=8
num_cat=3
split_feature=10 9 2 4 7 10 7
split_gain=3.9707 2.43586 2.00292 1.79139 1.57973 1.45915 1.46203
threshold=0 1 84.285487911106841 0.015208141098677465 0.0036085369409145063 2 0.0081374837194206091
decision_type=9 1 8 10 2 9 2
left_child=4 5 3 -3 -1 -2 -7
right_child=1 2 -4 -5 -6 6 -8
leaf_value=0.00013150197616874473 0.00091608904406672393 -0.0011568537636249001 -0.0033277815230750977 0.0001475593040405481 -0.00041544458497295869 0.00047920592347639883 -0.00076481283933090114
leaf_weight=840 774 135 21 1290 2268 534 138
leaf_count=840 774 135 21 1290 2268 534 138
internal_value=1.81963e-07 0.000286995 -2.46938e-05 2.39833e-05 -0.000266763 0.000600668 0.000220457
internal_weight=6000 2892 1446 1425 3108 1446 672
internal_count=6000 2892 1446 1425 3108 1446 672
cat_boundaries=0 1 2 3
cat_threshold=12538920 1 4197188
is_linear=0
shrinkage=0.0107739


Tree=30
num_leaves=8
num_cat=3
split_feature=9 10 10 7 0 0 7
split_gain=3.90326 5.87442 5.62161 3.37358 3.08961 2.97917 2.3112
threshold=0 1 2 0.0021308579909971917 13.482686024470452 77.282991440286722 0.0058238076550106667
decision_type=1 9 9 2 8 8 2
left_child=1 4 3 -2 -1 -4 -6
right_child=2 -3 5 -5 6 -7 -8
leaf_value=-0.0011858739151982085 0.0012245959257325822 0.00077812142188526262 0.00023257948957452899 -0.00089676227118899027 0.00047086194857038694 -0.0038531220877264581 -0.0004391731266406364
leaf_weight=288 93 1410 1533 1353 696 21 606
leaf_count=288 93 1410 1533 1353 696 21 606
internal_value=1.96432e-07 0.000274994 -0.000274601 -0.000755104 -0.000174969 0.000176233 4.72972e-05
internal_weight=6000 3000 3000 1446 1590 1554 1302
internal_count=6000 3000 3000 1446 1590 1554 1302
cat_boundaries=0 1 2 3
cat_threshold=1 1012920 16711756
is_linear=0
shrinkage=0.0107739


Tree=31
num_leaves=8
num_cat=3
split_feature=10 9 2 10 0 5 7
split_gain=3.82747 2.25682 2.20959 2.15975 2.12723 2.11765 2.07132
threshold=0 1 -61.425631749843468 2 28.623057995238948 43.012721864155473 0.0022785453847425771
decision_type=9 1 10 9 8 2 2
left_child=1 2 -1 -4 5 -5 -7
right_child=-2 -3 3 4 -6 6 -8
leaf_value=0.0013234743849261743 0.00025934412809273873 -0.00058834081032268278 0.0004710417450383831 0.00088948617104085399 0.00013072058358109184 -0.0040250183109995785 -0.0010300196391603942
leaf_weight=136 3142 1429 456 62 392 29 354
leaf_count=136 3142 1429 456 62 392 29 354
internal_value=2.08295e-07 -0.00028459 1.71701e-05 -0.000120229 -0.000442694 -0.000957763 -0.00125679
internal_weight=6000 2858 1429 1293 837 445 383
internal_count=6000 2858 1429 1293 837 445 383
cat_boundaries=0 1 2 3
cat_threshold=12538888 1 11599872
is_linear=0
shrinkage=0.0107739


Tree=32
num_leaves=8
num_cat=3
split_feature=9 10 10 7 0 0 7
split_gain=3.7767 5.70022 5.44789 3.29632 3.00574 2.91406 2.26536
threshold=0 1 2 0.0021308579909971917 13.482686024470452 77.282991440286722 0.0058238076550106667
decision_type=1 9 9 2 8 8 2
left_child=1 4 3 -2 -1 -4 -6
right_child=2 -3 5 -5 6 -7 -8
leaf_value=-0.001169802610340548 0.0012138128167179213 0.00076613721349972437 0.00022944813281954019 -0.00088311096541770161 0.00046585803070408867 -0.0038113588487093363 -0.00043510697702746923
leaf_weight=288 93 1410 1533 1353 696 21 606
leaf_count=288 93 1410 1533 1353 696 21 606
internal_value=2.1916e-07 0.000270525 -0.000270086 -0.000743108 -0.000172713 0.000173725 4.65149e-05
internal_weight=6000 3000 3000 1446 1590 1554 1302
internal_count=6000 3000 3000 1446 1590 1554 1302
cat_boundaries=0 1 2 3
cat_threshold=1 1012920 16711756
is_linear=0
shrinkage=0.0107739


Tree=33
num_leaves=8
num_cat=3
split_feature=9 10 10 7 0 0 7
split_gain=3.69614 5.57876 5.33113 3.22567 2.96498 2.8516 2.51882
threshold=0 1 2 0.0021308579909971917 6.8802452871098954 77.282991440286722 0.0058238076550106667
decision_type=1 9 9 2 8 8 2
left_child=1 4 3 -2 -1 -4 -6
right_child=2 -3 5 -5 6 -7 -8
leaf_value=-0.0026069631409758403 0.0012007352174813043 0.00075794104286088578 0.00022697602086099773 -0.00087359632897800632 0.00031170823309780061 -0.0037702955057778839 -0.00056587728501355042
leaf_weight=56 93 1410 1533 1353 844 21 690
leaf_count=56 93 1410 1533 1353 844 21 690
internal_value=2.30557e-07 0.000267638 -0.000267176 -0.000735101 -0.000170852 0.000171853 -8.30336e-05
internal_weight=6000 3000 3000 1446 1590 1554 1534
internal_count=6000 3000 3000 1446 1590 1554 1534
cat_boundaries=0 1 2 3
cat_threshold=1 1012920 16711756
is_linear=0
shrinkage=0.0107739


Tree=34
num_leaves=8
num_cat=3
split_feature=10 9 2 10 0 5 7
split_gain=3.62235 2.10969 2.15457 2.05178 2.0629 2.07386 2.0311
threshold=0 1 -61.425631749843468 2 28.623057995238948 43.012721864155473 0.0022785453847425771
decision_type=9 1 10 9 8 2 2
left_child=1 2 -1 -4 5 -5 -7
right_child=-2 -3 3 4 -6 6 -8
leaf_value=0.0013048696884118882 0.000252338014895748 -0.00057050840836739226 0.0004556300948509653 0.00088583654655794363 0.00012968474734005177 -0.0039793543039143729 -0.0010135755421760222
leaf_weight=136 3142 1429 456 62 392 29 354
leaf_count=136 3142 1429 456 62 392 29 354
internal_value=2.4168e-07 -0.00027682 1.49315e-05 -0.000120746 -0.000435004 -0.000942214 -0.00123814
internal_weight=6000 2858 1429 1293 837 445 383
internal_count=6000 2858 1429 1293 837 445 383
cat_boundaries=0 1 2 3
cat_threshold=12538888 1 11599872
is_linear=0
shrinkage=0.0107739


Tree=35
num_leaves=8
num_cat=3
split_feature=9 10 10 7 0 0 7
split_gain=3.57655 5.41321 5.16654 3.15182 2.90237 2.78929 2.17361
threshold=0 1 2 0.0021308579909971917 13.482686024470452 77.282991440286722 0.0058238076550106667
decision_type=1 9 9 2 8 8 2
left_child=1 4 3 -2 -1 -4 -6
right_child=2 -3 5 -5 6 -7 -8
leaf_value=-0.0011484211351580609 0.0011901321457943744 0.0007462723880909104 0.00022391698647462291 -0.00086031789882353891 0.00045756076208123327 -0.0037294379957487863 -0.00042496976021475701
leaf_weight=288 93 1410 1533 1353 696 21 606
leaf_count=288 93 1410 1533 1353 696 21 606
internal_value=2.51806e-07 0.000263297 -0.000262794 -0.000723439 -0.000168634 0.000169403 4.67977e-05
internal_weight=6000 3000 3000 1446 1590 1554 1302
internal_count=6000 3000 3000 1446 1590 1554 1302
cat_boundaries=0 1 2 3
cat_threshold=1 1012920 16711756
is_linear=0
shrinkage=0.0107739


Tree=36
num_leaves=8
num_cat=3
split_feature=9 10 10 7 0 0 7
split_gain=3.50026 5.29786 5.05581 3.08428 2.87407 2.72951 2.42977
threshold=0 1 2 0.0021308579909971917 6.8802452871098954 77.282991440286722 0.0058238076550106667
decision_type=1 9 9 2 8 8 2
left_child=1 4 3 -2 -1 -4 -6
right_child=2 -3 5 -5 6 -7 -8
leaf_value=-0.0025652795700866126 0.0011773097513514625 0.00073828871494519238 0.00022150446760743492 -0.00085104892437498874 0.00030735475294077377 -0.0036892572787363158 -0.00055457893278635436
leaf_weight=56 93 1410 1533 1353 844 21 690
leaf_count=56 93 1410 1533 1353 844 21 690
internal_value=2.62471e-07 0.000260487 -0.000259962 -0.000715645 -0.000166817 0.000167578 -8.03468e-05
internal_weight=6000 3000 3000 1446 1590 1554 1534
internal_count=6000 3000 3000 1446 1590 1554 1534
cat_boundaries=0 1 2 3
cat_threshold=1 1012920 16711756
is_linear=0
shrinkage=0.0107739


Tree=37
num_leaves=8
num_cat=2
split_feature=10 9 2 7 7 1 8
split_gain=3.43022 2.61012 2.49861 2.21177 2.68833 2.60997 2.22416
threshold=0 1 -51.439615415695044 0.0054110008374184037 0.0077601664225753443 -7.0282993990329397 0.41417109647235811
decision_type=9 1 10 2 2 10 2
left_child=1 2 -1 -4 5 -5 -7
right_child=-2 -3 3 4 -6 6 -8
leaf_value=0.0011998795415654661 0.00022633814059470466 -0.00063387168431656049 0.00034720130485428293 -3.612111905686048e-06 1.8011613169398049e-05 -0.00090285737516258282 -0.003503189006078173
leaf_weight=187 3386 1307 544 89 333 70 84
leaf_count=187 3386 1307 544 89 333 70 84
internal_value=2.72919e-07 -0.000292304 4.70264e-05 -0.000145459 -0.000610749 -0.00147238 -0.00232122
internal_weight=6000 2614 1307 1120 576 243 154
internal_count=6000 2614 1307 1120 576 243 154
cat_boundaries=0 1 2
cat_threshold=12534792 1
is_linear=0
shrinkage=0.0107739


Tree=38
num_leaves=8
num_cat=3
split_feature=9 10 10 7 0 0 7
split_gain=3.3832 5.16471 4.88807 3.01336 2.82467 2.66876 2.05645
threshold=0 1 2 0.0021308579909971917 13.482686024470452 77.282991440286722 0.0058238076550106667
decision_type=1 9 9 2 8 8 2
left_child=1 4 3 -2 -1 -4 -6
right_child=2 -3 5 -5 6 -7 -8
leaf_value=-0.0011323593341801739 0.0011674686170665119 0.00072787214848419994 0.00021814244041766338 -0.00083743418826126277 0.00044629228839780194 -0.0036488586956544902 -0.00041212327196140503
leaf_weight=288 93 1410 1533 1353 696 21 606
leaf_count=288 93 1410 1533 1353 696 21 606
internal_value=2.74024e-07 0.000256111 -0.000255563 -0.000703622 -0.000165779 0.000164825 4.67532e-05
internal_weight=6000 3000 3000 1446 1590 1554 1302
internal_count=6000 3000 3000 1446 1590 1554 1302
cat_boundaries=0 1 2 3
cat_threshold=1 1012920 16711756
is_linear=0
shrinkage=0.0107739


Tree=39
num_leaves=8
num_cat=3
split_feature=9 10 10 7 0 0 7
split_gain=3.31103 5.05465 4.78331 2.94877 2.79016 2.61157 2.31027
threshold=0 1 2 0.0021308579909971917 6.8802452871098954 77.282991440286722 0.0058238076550106667
decision_type=1 9 9 2 8 8 2
left_child=1 4 3 -2 -1 -4 -6
right_child=2 -3 5 -5 6 -7 -8
leaf_value=-0.0025271817415316077 0.0011548904862465237 0.00072008532508984 0.00021579220702917215 -0.00082841165348783517 0.00029925589015258994 -0.0036095462931959288 -0.00054121563784749797
leaf_weight=56 93 1410 1533 1353 844 21 690
leaf_count=56 93 1410 1533 1353 844 21 690
internal_value=2.84166e-07 0.000253377 -0.000252809 -0.000696041 -0.000163993 0.000163049 -7.87919e-05
internal_weight=6000 3000 3000 1446 1590 1554 1534
internal_count=6000 3000 3000 1446 1590 1554 1534
cat_boundaries=0 1 2 3
cat_threshold=1 1012920 16711756
is_linear=0
shrinkage=0.0107739


Tree=40
num_leaves=8
num_cat=3
split_feature=10 9 2 10 7 0 5
split_gain=3.25007 1.8375 2.05727 1.8876 2.00692 1.98131 2.02804
threshold=0 1 -61.425631749843468 2 0.017219687578116216 28.623057995238948 43.012721864155473
decision_type=9 1 10 9 2 8 2
left_child=1 2 -1 4 -4 6 -5
right_child=-2 -3 3 5 -6 -7 -8
leaf_value=0.0012705966858350367 0.00023908457444417525 -0.00053624670536040831 0.00061571656603402649 0.00088689631150168521 -0.002466771562878777 0.0001296404056165794 -0.0012134826016084331
leaf_weight=136 3142 1429 430 62 26 392 383
leaf_count=136 3142 1429 430 62 26 392 383
internal_value=2.94004e-07 -0.000262145 1.01232e-05 -0.000122456 0.000430519 -0.000423798 -0.000920846
internal_weight=6000 2858 1429 1293 456 837 445
internal_count=6000 2858 1429 1293 456 837 445
cat_boundaries=0 1 2 3
cat_threshold=12538888 1 11599872
is_linear=0
shrinkage=0.0107739


Tree=41
num_leaves=8
num_cat=3
split_feature=9 10 10 7 0 0 7
split_gain=3.20422 4.90131 4.63587 2.88133 2.73023 2.55452 1.96743
threshold=0 1 2 0.0021308579909971917 13.482686024470452 77.282991440286722 0.0058238076550106667
decision_type=1 9 9 2 8 8 2
left_child=1 4 3 -2 -1 -4 -6
right_child=2 -3 5 -5 6 -7 -8
leaf_value=-0.0011119911473962785 0.0011446323393705022 0.00070884720147924418 0.00021287492758515503 -0.00081585752667417944 0.00043803711579142637 -0.0035704486835328123 -0.00040159383013658149
leaf_weight=288 93 1410 1533 1353 696 21 606
leaf_count=288 93 1410 1533 1353 696 21 606
internal_value=2.9516e-07 0.000249273 -0.000248682 -0.000685031 -0.000161716 0.000160715 4.72411e-05
internal_weight=6000 3000 3000 1446 1590 1554 1302
internal_count=6000 3000 3000 1446 1590 1554 1302
cat_boundaries=0 1 2 3
cat_threshold=1 1012920 16711756
is_linear=0
shrinkage=0.0107739


Tree=42
num_leaves=8
num_cat=3
split_feature=9 10 10 0 0 7 7
split_gain=3.13587 4.79686 4.54303 2.92081 2.70619 2.61078 2.22087
threshold=0 1 2 77.282991440286722 6.8802452871098954 0.0021308579909971917 0.0058238076550106667
decision_type=1 9 9 8 8 2 2
left_child=1 4 5 -4 -1 -2 -6
right_child=2 -3 3 -5 6 -7 -8
leaf_value=-0.0024873204959290334 0.0010553739393645881 0.00070126388940132693 0.00017763228157025089 -0.0036078306972842406 0.00029460644417453368 -0.00085619976834918861 -0.00052944294836158054
leaf_weight=56 89 1410 1670 24 844 1217 690
leaf_count=56 89 1410 1670 24 844 1217 690
internal_value=3.04686e-07 0.000246612 -0.000246003 0.000123273 -0.000159974 -0.000720416 -7.60546e-05
internal_weight=6000 3000 3000 1694 1590 1306 1534
internal_count=6000 3000 3000 1694 1590 1306 1534
cat_boundaries=0 1 2 3
cat_threshold=1 1012920 16711748
is_linear=0
shrinkage=0.0107739


Tree=43
num_leaves=8
num_cat=3
split_feature=10 9 2 1 10 7 0
split_gain=3.08138 1.71866 2.0064 1.87968 1.79326 1.95315 1.92262
threshold=0 1 -61.425631749843468 1.8277097710390302 2 0.017219687578116216 28.961904260931359
decision_type=9 1 10 8 9 2 8
left_child=1 2 -1 -3 5 -4 -6
right_child=-2 3 4 -5 6 -7 -8
leaf_value=0.0012528798044249537 0.00023282481790355203 -0.00082079512625462929 0.00059872514194128298 -1.2170836402556209e-05 -0.00089805495463942287 -0.0024421866700676774 0.00013800287043721365
leaf_weight=136 3142 898 430 531 452 26 385
leaf_count=136 3142 898 430 531 452 26 385
internal_value=3.13994e-07 -0.000255223 8.08739e-06 -0.00052032 -0.000122842 0.000416212 -0.000416517
internal_weight=6000 2858 1429 1429 1293 456 837
internal_count=6000 2858 1429 1429 1293 456 837
cat_boundaries=0 1 2 3
cat_threshold=12538888 1 11599872
is_linear=0
shrinkage=0.0107739


Tree=44
num_leaves=8
num_cat=3
split_feature=9 10 10 0 0 7 7
split_gain=3.03492 4.65118 4.4087 2.85901 2.64864 2.55061 2.169
threshold=0 1 2 77.282991440286722 6.8802452871098954 0.0021308579909971917 0.0058238076550106667
decision_type=1 9 9 8 8 2 2
left_child=1 4 5 -4 -1 -2 -6
right_child=2 -3 3 -5 6 -7 -8
leaf_value=-0.0024602022423038353 0.0010458848577641594 0.00069032034125925958 0.00017555650634519336 -0.0035696426734914554 0.00029159510577212886 -0.00084353261650272216 -0.00052277328853840143
leaf_weight=56 89 1410 1670 24 844 1217 690
leaf_count=56 89 1410 1670 24 844 1217 690
internal_value=3.14793e-07 0.000242625 -0.000241996 0.000121777 -0.000157737 -0.000709343 -7.47114e-05
internal_weight=6000 3000 3000 1694 1590 1306 1534
internal_count=6000 3000 3000 1694 1590 1306 1534
cat_boundaries=0 1 2 3
cat_threshold=1 1012920 16711748
is_linear=0
shrinkage=0.0107739


Tree=45
num_leaves=8
num_cat=2
split_feature=10 9 2 7 7 1 8
split_gain=2.97142 2.2128 2.34537 1.99908 2.66249 2.53367 2.16862
threshold=0 1 -51.439615415695044 0.0054110008374184037 0.0077601664225753443 -7.0282993990329397 0.41417109647235811
decision_type=9 1 10 2 2 10 2
left_child=1 2 -1 -4 5 -5 -7
right_child=-2 -3 3 4 -6 6 -8
leaf_value=0.0011573829771376943 0.00021072765931564908 -0.00058649313456478108 0.00032232657507961924 1.2585345279215582e-06 3.7332636556261689e-05 -0.0008816761764299791 -0.0034493390547614498
leaf_weight=187 3386 1307 544 89 333 70 84
leaf_count=187 3386 1307 544 89 333 70 84
internal_value=3.23807e-07 -0.000271985 4.04424e-05 -0.000146047 -0.000588399 -0.00144588 -0.00228222
internal_weight=6000 2614 1307 1120 576 243 154
internal_count=6000 2614 1307 1120 576 243 154
cat_boundaries=0 1 2
cat_threshold=12534792 1
is_linear=0
shrinkage=0.0107739


Tree=46
num_leaves=8
num_cat=3
split_feature=9 10 10 0 0 7 7
split_gain=2.93383 4.53385 4.272 2.79527 2.62751 2.4922 1.92494
threshold=0 1 2 77.282991440286722 13.482686024470452 0.0021308579909971917 0.030412488827089929
decision_type=1 9 9 8 8 2 2
left_child=1 4 5 -4 -1 -2 -7
right_child=2 -3 3 -5 -6 6 -8
leaf_value=-0.0010889219511799652 0.001037075049325631 0.00068058009940496621 0.00017334398604609629 -0.0035298752028791692 4.8295790730238575e-05 -0.00088596853046436937 0.0024843174451813594
leaf_weight=288 89 1410 1670 24 1302 1197 20
leaf_count=288 89 1410 1670 24 1302 1197 20
internal_value=3.24081e-07 0.000238565 -0.000237917 0.000120169 -0.000156705 -0.000697962 -0.000830582
internal_weight=6000 3000 3000 1694 1590 1306 1217
internal_count=6000 3000 3000 1694 1590 1306 1217
cat_boundaries=0 1 2 3
cat_threshold=1 1012920 16711748
is_linear=0
shrinkage=0.0107739


Tree=47
num_leaves=8
num_cat=2
split_feature=10 9 2 4 5 7 7
split_gain=2.8735 1.92674 1.91958 1.68555 1.38186 1.5909 1.24658
threshold=0 1 84.285487911106841 0.015208141098677465 50.097697293573745 0.0071106554800332107 0.0036085369409145063
decision_type=9 1 8 10 2 2 2
left_child=6 -2 3 4 5 -3 -1
right_child=1 2 -4 -5 -6 -7 -8
leaf_value=0.00012706416386493904 0.00052325665281607858 0.0012452278995663977 -0.0032665570751778056 0.00013459858537210502 -0.0021503255018141942 -0.0023866577464610791 -0.00035879934160464825
leaf_weight=840 1446 42 21 1290 72 21 2268
leaf_count=840 1446 42 21 1290 72 21 2268
internal_value=3.32818e-07 0.000244321 -3.29248e-05 1.47288e-05 -0.00113069 3.45994e-05 -0.000226755
internal_weight=6000 2892 1446 1425 135 63 3108
internal_count=6000 2892 1446 1425 135 63 3108
cat_boundaries=0 1 2
cat_threshold=12538920 1
is_linear=0
shrinkage=0.0107739


Tree=48
num_leaves=8
num_cat=3
split_feature=9 10 10 0 0 7 7
split_gain=2.83618 4.40882 4.16828 2.72831 2.64771 2.43193 2.28706
threshold=0 1 2 77.282991440286722 6.8802452871098954 0.0021308579909971917 0.0058238076550106667
decision_type=1 9 9 8 8 2 2
left_child=1 -1 5 -4 -3 -2 -6
right_child=2 4 3 -5 6 -7 -8
leaf_value=0.00071511890879134355 0.0010255963259182765 -0.0024244969632213052 0.00017232870641591824 -0.0034862653084902747 0.00031422632128481188 -0.00081933917601630915 -0.00048560848679410416
leaf_weight=1265 89 56 1670 24 929 1217 750
leaf_count=1265 89 56 1670 24 929 1217 750
internal_value=3.29256e-07 0.000234572 -0.000233913 0.000119788 -0.000119233 -0.000688342 -4.30555e-05
internal_weight=6000 3000 3000 1694 1735 1306 1679
internal_count=6000 3000 3000 1694 1735 1306 1679
cat_boundaries=0 1 2 3
cat_threshold=1 15731526 16711748
is_linear=0
shrinkage=0.0107739


Tree=49
num_leaves=8
num_cat=3
split_feature=9 10 10 0 7 0 7
split_gain=2.7757 4.31496 4.08431 2.59096 2.58801 2.28224 2.23805
threshold=0 1 2 6.8802452871098954 0.0021308579909971917 77.282991440286722 0.0058238076550106667
decision_type=1 9 9 8 2 8 2
left_child=1 -1 4 -3 -2 -4 -5
right_child=2 3 5 6 -6 -7 -8
leaf_value=0.00070747466386339268 0.0010931234841712444 -0.0023983755282822282 0.00020216636918312698 0.00031084087198495429 -0.00076489961082829992 -0.0033738566112573851 -0.0004803765711912387
leaf_weight=1265 93 56 1533 929 1353 21 750
leaf_count=1265 93 56 1533 929 1353 21 750
internal_value=3.38546e-07 0.00023207 -0.000231393 -0.000117949 -0.000640968 0.000152858 -4.25916e-05
internal_weight=6000 3000 3000 1735 1446 1554 1679
internal_count=6000 3000 3000 1735 1446 1554 1679
cat_boundaries=0 1 2 3
cat_threshold=1 15731526 16711756
is_linear=0
shrinkage=0.0107739


Tree=50
num_leaves=8
num_cat=3
split_feature=10 9 2 1 10 7 1
split_gain=2.73215 1.49681 1.91579 1.83449 1.64872 1.89272 1.88114
threshold=0 1 -61.425631749843468 1.8277097710390302 2 0.017219687578116216 12.502717316947136
decision_type=9 1 10 8 9 2 8
left_child=1 2 -1 -3 5 -4 -6
right_child=-2 3 4 -5 6 -7 -8
leaf_value=0.0012218086756769341 0.00021928640846195029 -0.00078451884008448537 0.00057381691833387899 1.4327051493617755e-05 -0.00062887010075172349 -0.0024196858380392517 0.00077688543680534911
leaf_weight=136 3142 898 430 531 706 26 131
leaf_count=136 3142 898 430 531 706 26 131
internal_value=3.47605e-07 -0.000240274 5.44795e-06 -0.000487677 -0.000122491 0.000394484 -0.000404026
internal_weight=6000 2858 1429 1429 1293 456 837
internal_count=6000 2858 1429 1429 1293 456 837
cat_boundaries=0 1 2 3
cat_threshold=12538888 1 11599872
is_linear=0
shrinkage=0.0107739


Tree=51
num_leaves=8
num_cat=4
split_feature=9 10 10 0 0 7 10
split_gain=2.68661 4.18537 3.97132 2.57632 2.53663 2.18318 2.25293
threshold=0 1 2 77.282991440286722 6.8802452871098954 0.0058238076550106667 3
decision_type=1 9 9 8 8 2 9
left_child=1 -1 -2 -4 -3 -6 -7
right_child=2 4 3 -5 5 6 -8
leaf_value=0.00069654204567632728 -0.00071082750093846294 -0.0023727767505880115 0.00013687513850749861 -0.0034165935850039857 0.0003072474353935209 -0.001784145136597252 -0.00020073465451258057
leaf_weight=1265 1181 56 1795 24 929 117 633
leaf_count=1265 1181 56 1795 24 929 117 633
internal_value=3.47789e-07 0.00022833 -0.000227634 8.94984e-05 -0.000116391 -4.18261e-05 -0.000474212
internal_weight=6000 3000 3000 1819 1735 1679 750
internal_count=6000 3000 3000 1819 1735 1679 750
cat_boundaries=0 1 2 3 4
cat_threshold=1 15731526 16711744 25600
is_linear=0
shrinkage=0.0107739


Tree=52
num_leaves=8
num_cat=2
split_feature=10 9 2 1 2 7 4
split_gain=2.63528 1.42918 1.87098 1.79478 1.62625 2.65471 2.00347
threshold=0 1 -61.425631749843468 1.8277097710390302 -55.63879284820657 0.003684817558706862 0.077647655061567081
decision_type=9 1 10 8 10 2 10
left_child=1 2 -1 4 5 -3 -6
right_child=-2 3 -4 -5 6 -7 -8
leaf_value=0.0012061435804975582 0.00021533056660343763 0.00075365080714728306 -0.00012234049329529624 1.8778723348600675e-05 -0.0019821579589754555 -0.0030709939199954472 -0.00039063323952273654
leaf_weight=136 3142 29 1293 531 106 77 686
leaf_count=136 3142 29 1293 531 106 77 686
internal_value=3.08152e-07 -0.000236009 4.09326e-06 -0.000477762 -0.000771374 -0.00202463 -0.00060364
internal_weight=6000 2858 1429 1429 898 106 792
internal_count=6000 2858 1429 1429 898 106 792
cat_boundaries=0 1 2
cat_threshold=12538888 1
is_linear=0
shrinkage=0.0107739


Tree=53
num_leaves=8
num_cat=3
split_feature=9 10 10 0 0 7 7
split_gain=2.60004 4.08838 3.85771 2.56495 2.48338 2.31599 2.13587
threshold=0 1 2 77.282991440286722 6.8802452871098954 0.0021308579909971917 0.0058238076550106667
decision_type=1 9 9 8 8 2 2
left_child=1 -1 5 -4 -3 -2 -6
right_child=2 4 3 -5 6 -7 -8
leaf_value=0.00068734532474955929 0.0010115194604584155 -0.0023486880856600474 0.00016723268976874122 -0.003380139090287749 0.00030293857911909122 -0.00078890016458539635 -0.00047000722664511954
leaf_weight=1265 89 56 1670 24 929 1217 750
leaf_count=1265 89 56 1670 24 929 1217 750
internal_value=3.0871e-07 0.000224588 -0.00022397 0.000116288 -0.000116104 -0.000661145 -4.2332e-05
internal_weight=6000 3000 3000 1694 1735 1306 1679
internal_count=6000 3000 3000 1694 1735 1306 1679
cat_boundaries=0 1 2 3
cat_threshold=1 15731526 16711748
is_linear=0
shrinkage=0.0107739


Tree=54
num_leaves=8
num_cat=3
split_feature=9 10 10 0 8 1 0
split_gain=2.5446 4.00464 3.78165 2.50132 2.34159 2.88606 2.15791
threshold=0 1 2 13.482686024470452 0.6913700843495677 -0.7261006727266216 77.282991440286722
decision_type=1 9 9 8 2 10 8
left_child=1 3 4 -1 -2 -6 -4
right_child=2 -3 6 -5 5 -7 -8
leaf_value=-0.0010588054962759636 -0.00046984469391768115 0.0006376155854143894 0.00010197571171369 5.0768110859385812e-05 -0.0028819988949752478 -0.00051393906354340365 -0.0030838711691945652
leaf_weight=288 812 1410 1924 1302 118 121 25
leaf_count=288 812 1410 1924 1302 118 121 25
internal_value=3.17722e-07 0.000222193 -0.000221557 -0.000149272 -0.000738715 -0.00168311 6.07986e-05
internal_weight=6000 3000 3000 1590 1051 239 1949
internal_count=6000 3000 3000 1590 1051 239 1949
cat_boundaries=0 1 2 3
cat_threshold=1 1012920 16449600
is_linear=0
shrinkage=0.0107739


Tree=55
num_leaves=8
num_cat=2
split_feature=10 9 2 1 2 7 4
split_gain=2.51006 1.33623 1.82587 1.74585 1.59423 2.59284 1.95686
threshold=0 1 -61.425631749843468 1.8277097710390302 -55.63879284820657 0.003684817558706862 0.077647655061567081
decision_type=9 1 10 8 10 2 10
left_child=1 2 -1 4 5 -3 -6
right_child=-2 3 -4 -5 6 -7 -8
leaf_value=0.0011893183105888608 0.00021017725723485313 0.00075120184439477411 -0.00012305337666025618 2.5649785407065253e-05 -0.0019499689064979159 -0.0030286145444641294 -0.0003770678829063635
leaf_weight=136 3142 29 1293 531 106 77 686
leaf_count=136 3142 29 1293 531 106 77 686
internal_value=3.25714e-07 -0.000230308 1.84694e-06 -0.000464075 -0.000753657 -0.00199451 -0.000587582
internal_weight=6000 2858 1429 1429 898 106 792
internal_count=6000 2858 1429 1429 898 106 792
cat_boundaries=0 1 2
cat_threshold=12538888 1
is_linear=0
shrinkage=0.0107739


Tree=56
num_leaves=8
num_cat=3
split_feature=9 10 10 0 0 7 7
split_gain=2.46327 3.91518 3.67659 2.46131 2.40845 2.26068 2.09075
threshold=0 1 2 77.282991440286722 6.8802452871098954 0.0021308579909971917 0.0058238076550106667
decision_type=1 9 9 8 8 2 2
left_child=1 -1 5 -4 -3 -2 -6
right_child=2 4 3 -5 6 -7 -8
leaf_value=0.00067147830715254752 0.0010078731706854331 -0.0023134069069096251 0.00016409970875819408 -0.0033108646065666972 0.00029949249769928017 -0.00077092014373400628 -0.00046524436627713923
leaf_weight=1265 89 56 1670 24 929 1217 750
leaf_count=1265 89 56 1670 24 929 1217 750
internal_value=3.25995e-07 0.000218626 -0.000217974 0.000114194 -0.00011476 -0.000644764 -4.21112e-05
internal_weight=6000 3000 3000 1694 1735 1306 1679
internal_count=6000 3000 3000 1694 1735 1306 1679
cat_boundaries=0 1 2 3
cat_threshold=1 15731526 16711748
is_linear=0
shrinkage=0.0107739


Tree=57
num_leaves=8
num_cat=2
split_feature=10 9 2 1 2 7 4
split_gain=2.42225 1.27707 1.78343 1.70753 1.55947 2.5339 1.9124
threshold=0 1 -61.425631749843468 1.8277097710390302 -55.63879284820657 0.003684817558706862 0.077647655061567081
decision_type=9 1 10 8 10 2 10
left_child=1 2 -1 4 5 -3 -6
right_child=-2 3 -4 -5 6 -7 -8
leaf_value=0.0011743145876986487 0.00020648282771981377 0.00074592412676851563 -0.00012271558479555209 2.955453198798018e-05 -0.0019237223355002902 -0.0029906875255123443 -0.0003687899480174097
leaf_weight=136 3142 29 1293 531 106 77 686
leaf_count=136 3142 29 1293 531 106 77 686
internal_value=3.34542e-07 -0.00022623 7.24656e-07 -0.000454767 -0.000741153 -0.00196841 -0.0005769
internal_weight=6000 2858 1429 1429 898 106 792
internal_count=6000 2858 1429 1429 898 106 792
cat_boundaries=0 1 2
cat_threshold=12538888 1
is_linear=0
shrinkage=0.0107739


Tree=58
num_leaves=8
num_cat=3
split_feature=9 10 10 0 8 1 0
split_gain=2.38472 3.8232 3.57654 2.38585 2.29586 2.80735 2.06595
threshold=0 1 2 13.482686024470452 0.6913700843495677 -0.7261006727266216 77.282991440286722
decision_type=1 9 9 8 2 10 8
left_child=1 -1 4 -3 -2 -6 -4
right_child=2 3 6 -5 5 -7 -8
leaf_value=0.00066262949461128127 -0.00045103025497822148 -0.00099767701615026123 0.00010041852373554637 6.5862077141105529e-05 -0.0028348148127668913 -0.00049927024320388196 -0.0030168063895973309
leaf_weight=1265 812 295 1924 1440 118 121 25
leaf_count=1265 812 295 1924 1440 118 121 25
internal_value=3.34657e-07 0.000215126 -0.000214457 -0.000114311 -0.000717395 -0.00165238 6.01251e-05
internal_weight=6000 3000 3000 1735 1051 239 1949
internal_count=6000 3000 3000 1735 1051 239 1949
cat_boundaries=0 1 2 3
cat_threshold=1 15731526 16449600
is_linear=0
shrinkage=0.0107739


Tree=59
num_leaves=8
num_cat=4
split_feature=10 9 10 0 1 0 10
split_gain=2.34514 1.21481 1.9179 2.04373 1.76669 1.68142 1.54245
threshold=0 1 2 13.482686024470452 -7.0282993990329397 40.486165460356112 3
decision_type=9 1 9 10 10 8 9
left_child=-1 2 3 4 -2 -4 -3
right_child=1 6 5 -5 -6 -7 -8
leaf_value=-0.00026447452245530276 0.00076520135399384278 -0.00051542236576011206 0.00050202731290207724 0.0002651331718899121 -0.0016578476350738252 0.0017635090450255839 0.00017305810263275887
leaf_weight=2350 47 520 900 600 136 142 1305
leaf_count=2350 47 520 900 600 136 142 1305
internal_value=3.42939e-07 0.000171098 0.000368121 -3.83643e-05 -0.00103553 0.000667531 -2.49876e-05
internal_weight=6000 3650 1825 783 183 1042 1825
internal_count=6000 3650 1825 783 183 1042 1825
cat_boundaries=0 1 2 3 4
cat_threshold=10437640 1 45232 6291524
is_linear=0
shrinkage=0.0107739


Tree=60
num_leaves=8
num_cat=3
split_feature=9 10 10 0 8 1 7
split_gain=2.3058 3.67418 3.46394 2.31649 2.24659 2.74761 2.04448
threshold=0 1 2 6.8802452871098954 0.6913700843495677 -0.7261006727266216 0.0058238076550106667
decision_type=1 9 9 8 2 10 2
left_child=1 -1 4 -3 -2 -6 -5
right_child=2 3 -4 6 5 -7 -8
leaf_value=0.0006502291169970505 -0.00044230924889523742 -0.002267683523199727 5.9344493093550935e-05 0.00029763296256965521 -0.0028004839327000243 -0.00048992439582575171 -0.00045859415091107112
leaf_weight=1265 812 56 1949 929 118 121 750
leaf_count=1265 812 56 1949 929 118 121 750
internal_value=3.28342e-07 0.000211536 -0.000210879 -0.000111424 -0.000705837 -0.0016307 -4.01695e-05
internal_weight=6000 3000 3000 1735 1051 239 1679
internal_count=6000 3000 3000 1735 1051 239 1679
cat_boundaries=0 1 2 3
cat_threshold=1 15731526 16449600
is_linear=0
shrinkage=0.0107739


Tree=61
num_leaves=8
num_cat=3
split_feature=10 9 2 1 7 6 10
split_gain=2.26701 1.18837 1.74037 1.65105 1.55169 2.54805 2.81805
threshold=0 1 -61.425631749843468 1.8277097710390302 0.0056369765383381043 0.86090992400611766 2
decision_type=9 1 10 8 2 2 9
left_child=1 2 -1 -3 5 -5 -7
right_child=-2 3 -4 4 -6 6 -8
leaf_value=0.0011594173173908799 0.00019977035936608891 -0.00072091641405525346 -0.00012185819331078887 0.0014426775934929113 0.00076558365721167052 -0.00216064200030138 9.3870874040584992e-05
leaf_weight=136 3142 898 1293 67 207 106 151
leaf_count=136 3142 898 1293 67 207 106 151
internal_value=3.3755e-07 -0.000218846 8.26531e-08 -0.000439306 3.69378e-05 -0.000428586 -0.000916425
internal_weight=6000 2858 1429 1429 531 324 257
internal_count=6000 2858 1429 1429 531 324 257
cat_boundaries=0 1 2 3
cat_threshold=12538888 1 12255232
is_linear=0
shrinkage=0.0107739


Tree=62
num_leaves=8
num_cat=3
split_feature=9 10 10 0 0 7 7
split_gain=2.23312 3.59054 3.36274 2.36201 2.33755 2.20417 1.88476
threshold=0 1 2 77.282991440286722 13.482686024470452 0.0021308579909971917 0.030412488827089929
decision_type=1 9 9 8 8 2 2
left_child=1 4 5 -4 -1 -2 -7
right_child=2 -3 3 -5 -6 6 -8
leaf_value=-0.0010228091104166474 0.0010162909501290833 0.00060151739509450527 0.00015899212966297176 -0.0032451535208731018 4.9824794562505644e-05 -0.00079493572294082459 0.0025399894878489603
leaf_weight=288 89 1410 1670 24 1302 1197 20
leaf_count=288 89 1410 1670 24 1302 1197 20
internal_value=3.00393e-07 0.000208153 -0.000207552 0.000110113 -0.000143561 -0.000615721 -0.00074013
internal_weight=6000 3000 3000 1694 1590 1306 1217
internal_count=6000 3000 3000 1694 1590 1306 1217
cat_boundaries=0 1 2 3
cat_threshold=1 1012920 16711748
is_linear=0
shrinkage=0.0107739


Tree=63
num_leaves=8
num_cat=4
split_feature=10 9 10 4 10 7 2
split_gain=2.19301 1.13195 1.80578 1.60467 1.44314 1.75838 1.77865
threshold=0 1 2 0.066635503235663987 3 0.0020971955208283492 -12.680993647600605
decision_type=9 1 9 10 9 2 10
left_child=-1 2 3 -2 5 -3 -7
right_child=1 4 -4 -5 -6 6 -8
leaf_value=-0.00025577632207230197 0.0019399150968304748 0.0014568078117093476 1.507584554947102e-05 0.00053494934364984876 0.00016771378571104974 0.00011615722440236018 -0.0012386080511560618
leaf_weight=2350 107 48 919 799 1305 185 287
leaf_count=2350 107 48 919 799 1305 185 287
internal_value=3.0796e-07 0.000165432 0.000355617 0.000693226 -2.38471e-05 -0.000498235 -0.000707609
internal_weight=6000 3650 1825 906 1825 520 472
internal_count=6000 3650 1825 906 1825 520 472
cat_boundaries=0 1 2 3 4
cat_threshold=10437640 1 6294340 6291524
is_linear=0
shrinkage=0.0107739


Tree=64
num_leaves=8
num_cat=3
split_feature=9 10 10 0 8 1 2
split_gain=2.15907 3.45947 3.26105 2.24883 2.19241 2.68393 2.00759
threshold=0 1 2 6.8802452871098954 0.6913700843495677 -0.7261006727266216 -53.694535082032424
decision_type=1 9 9 8 2 10 10
left_child=1 -1 4 -3 -2 -6 -4
right_child=2 3 6 -5 5 -7 -8
leaf_value=0.00063036478013151821 -0.00042386434702226057 -0.0022332210737928192 -0.00080573200237572232 -3.8482983207128325e-05 -0.0027539878175891147 -0.00047036087596259821 0.00019677510590033594
leaf_weight=1265 812 56 269 1679 118 121 1680
leaf_count=1265 812 56 269 1679 118 121 1680
internal_value=3.03329e-07 0.000204681 -0.000204074 -0.000108695 -0.000684319 -0.00159784 5.81114e-05
internal_weight=6000 3000 3000 1735 1051 239 1949
internal_count=6000 3000 3000 1735 1051 239 1949
cat_boundaries=0 1 2 3
cat_threshold=1 15731526 16449600
is_linear=0
shrinkage=0.0107739


Tree=65
num_leaves=8
num_cat=3
split_feature=10 9 10 4 0 6 0
split_gain=2.12043 1.08337 1.72842 1.57028 1.39607 1.42239 1.38779
threshold=0 1 2 0.066635503235663987 3.4415232700531893 1.2850838542041323 21.169821264090988
decision_type=9 1 9 10 10 2 10
left_child=-1 2 3 -2 -3 -6 -4
right_child=1 4 6 -5 5 -7 -8
leaf_value=-0.00025149926668460644 0.0019122230703290625 -0.0021852312254501041 -0.00045697909354041 0.00052239437183961512 8.591867881122705e-05 -0.0013501517738900859 0.00038654862755554622
leaf_weight=2350 107 34 404 799 1707 84 515
leaf_count=2350 107 34 404 799 1707 84 515
internal_value=3.11378e-07 0.000162679 0.000348742 0.00067904 -2.24917e-05 1.85653e-05 1.55576e-05
internal_weight=6000 3650 1825 906 1825 1791 919
internal_count=6000 3650 1825 906 1825 1791 919
cat_boundaries=0 1 2 3
cat_threshold=10437640 1 6294340
is_linear=0
shrinkage=0.0107739


Tree=66
num_leaves=8
num_cat=3
split_feature=9 10 10 7 0 0 7
split_gain=2.08769 3.33059 3.18377 2.33226 2.25872 1.95758 1.59376
threshold=0 1 2 0.0021308579909971917 13.482686024470452 77.282991440286722 0.030412488827089929
decision_type=1 9 9 2 8 8 2
left_child=1 4 3 -2 -1 -4 -5
right_child=2 -3 5 6 -6 -7 -8
leaf_value=-0.0010017494019636543 0.0010842100171967177 0.00058012918074116853 0.00018419804672278913 -0.00072824603672202884 5.2642998945038147e-05 -0.0031277124924234058 0.0021322708417542287
leaf_weight=288 93 1410 1533 1330 1302 21 23
leaf_count=288 93 1410 1533 1330 1302 21 23
internal_value=3.03495e-07 0.000201274 -0.000200667 -0.000562289 -0.000137477 0.000138551 -0.000679619
internal_weight=6000 3000 3000 1446 1590 1554 1353
internal_count=6000 3000 3000 1446 1590 1554 1353
cat_boundaries=0 1 2 3
cat_threshold=1 1012920 16711756
is_linear=0
shrinkage=0.0107739


Tree=67
num_leaves=8
num_cat=3
split_feature=10 9 2 1 7 6 10
split_gain=2.04712 1.07317 1.69709 1.60395 1.53225 2.49995 2.72382
threshold=0 1 -61.425631749843468 1.8277097710390302 0.0056369765383381043 0.86090992400611766 2
decision_type=9 1 10 8 2 2 9
left_child=1 2 -1 -3 5 -5 -7
right_child=-2 3 -4 4 -6 6 -8
leaf_value=0.0011449019910822536 0.00018982508239072732 -0.00069503851195103791 -0.00012034025399459023 0.0014428443485547848 0.00077599474120103795 -0.0021171755797989955 9.8534133430277517e-05
leaf_weight=136 3142 898 1293 67 207 106 151
leaf_count=136 3142 898 1293 67 207 106 151
internal_value=3.10652e-07 -0.000207972 7.46833e-08 -0.000417475 5.19268e-05 -0.000410672 -0.000893885
internal_weight=6000 2858 1429 1429 531 324 257
internal_count=6000 2858 1429 1429 531 324 257
cat_boundaries=0 1 2 3
cat_threshold=12538888 1 12255232
is_linear=0
shrinkage=0.0107739


Tree=68
num_leaves=8
num_cat=3
split_feature=9 10 10 0 6 7 8
split_gain=2.02194 3.25791 3.09674 2.17438 2.16372 1.99659 2.22431
threshold=0 1 2 6.8802452871098954 0.7904182772928624 0.0058238076550106667 0.26322765668612635
decision_type=1 9 9 8 2 2 2
left_child=1 -1 4 -3 -2 -5 -7
right_child=2 3 -4 5 -6 6 -8
leaf_value=0.00061115282371287244 0.0015875630725529452 -0.0021951089625413416 5.7976363958107415e-05 0.00029681901093935091 -0.00077759772168635812 0.00051263509934402097 -0.00080793390509392726
leaf_weight=1265 47 56 1949 929 1004 203 547
leaf_count=1265 47 56 1949 929 1004 203 547
internal_value=2.74456e-07 0.000198055 -0.000197506 -0.000106049 -0.000665497 -3.70042e-05 -0.0004505
internal_weight=6000 3000 3000 1735 1051 1679 750
internal_count=6000 3000 3000 1735 1051 1679 750
cat_boundaries=0 1 2 3
cat_threshold=1 15731526 16449600
is_linear=0
shrinkage=0.0107739


Tree=69
num_leaves=8
num_cat=3
split_feature=9 10 10 0 0 7 0
split_gain=1.9788 3.18855 3.03076 2.26074 2.14163 2.07135 1.95028
threshold=0 1 2 77.282991440286722 13.482686024470452 0.0021308579909971917 40.486165460356112
decision_type=1 9 9 8 8 2 8
left_child=1 6 5 -4 -3 -2 -1
right_child=2 4 3 -5 -6 -7 -8
leaf_value=0.00045248214387913461 0.00099930553138632321 -0.00094182096021605934 0.00015399570480663597 -0.0031763735666779239 6.5815828382367495e-05 -0.0007033729721697327 0.0017498707206869005
leaf_weight=1112 89 295 1670 24 1440 1217 153
leaf_count=1112 89 295 1670 24 1440 1217 153
internal_value=2.8352e-07 0.000195943 -0.000195376 0.000106185 -0.000104907 -0.000582877 0.00060462
internal_weight=6000 3000 3000 1694 1735 1306 1265
internal_count=6000 3000 3000 1694 1735 1306 1265
cat_boundaries=0 1 2 3
cat_threshold=1 15731526 16711748
is_linear=0
shrinkage=0.0107739


Tree=70
num_leaves=8
num_cat=2
split_feature=10 9 2 7 7 1 8
split_gain=1.9491 1.42006 2.04804 1.72282 2.63454 2.44303 2.10478
threshold=0 1 -51.439615415695044 0.0054110008374184037 0.0077601664225753443 -7.0282993990329397 0.41417109647235811
decision_type=9 1 10 2 2 10 2
left_child=1 2 -1 -4 5 -5 -7
right_child=-2 -3 3 4 -6 6 -8
leaf_value=0.0010737528175430431 0.00017068803486825989 -0.00047222318432434384 0.0002905492822219449 1.314093630298389e-05 6.7528552487655866e-05 -0.00084935000444076711 -0.0033789353550261968
leaf_weight=187 3386 1307 544 89 333 70 84
leaf_count=187 3386 1307 544 89 333 70 84
internal_value=2.80489e-07 -0.000220264 3.00092e-05 -0.000144259 -0.000554911 -0.00140788 -0.00222912
internal_weight=6000 2614 1307 1120 576 243 154
internal_count=6000 2614 1307 1120 576 243 154
cat_boundaries=0 1 2
cat_threshold=12534792 1
is_linear=0
shrinkage=0.0107739


Tree=71
num_leaves=8
num_cat=3
split_feature=9 10 10 8 1 0 2
split_gain=1.91288 3.10763 2.95069 2.13827 2.61965 2.11062 1.96103
threshold=0 1 2 0.6913700843495677 -0.7261006727266216 6.8802452871098954 -53.694535082032424
decision_type=1 9 9 2 10 8 10
left_child=1 -1 3 -2 -5 -3 -4
right_child=2 5 6 4 -6 -7 -8
leaf_value=0.00059611272878783161 -0.00039144162183794411 -0.0021625468743500273 -0.0007964813804668358 -0.0026930488832261168 -0.00043693460940924197 -3.6320621190324857e-05 0.00019433162341102279
leaf_weight=1265 812 56 269 118 121 1679 1680
leaf_count=1265 812 56 269 118 121 1679 1680
internal_value=2.80494e-07 0.000192653 -0.000192092 -0.000648916 -0.00155083 -0.000104347 5.72862e-05
internal_weight=6000 3000 3000 1051 239 1735 1949
internal_count=6000 3000 3000 1051 239 1735 1949
cat_boundaries=0 1 2 3
cat_threshold=1 15731526 16449600
is_linear=0
shrinkage=0.0107739


Tree=72
num_leaves=8
num_cat=2
split_feature=10 8 9 1 2 4 7
split_gain=1.88705 1.00834 1.05186 1.56512 1.54265 1.58927 2.13829
threshold=0 0.88921271376448974 1 1.0184838666906171 -67.173060832728595 0.15141780015014297 0.0054716146940829756
decision_type=9 2 1 8 10 10 2
left_child=1 2 -1 4 -4 6 -6
right_child=-2 -3 3 -5 5 -7 -8
leaf_value=5.8333697981555527e-05 0.00018224248058412625 -0.0010789428456435726 -0.0025194913396419365 7.9379291900974854e-05 -0.003385479058243377 -0.00030127075632242989 -0.00065139030769950711
leaf_weight=1357 3142 144 49 547 49 609 103
leaf_count=1357 3142 144 49 547 49 609 103
internal_value=2.88198e-07 -0.000199686 -0.00015377 -0.000365873 -0.000666556 -0.000547248 -0.00153277
internal_weight=6000 2858 2714 1357 810 761 152
internal_count=6000 2858 2714 1357 810 761 152
cat_boundaries=0 1 2
cat_threshold=12538888 1
is_linear=0
shrinkage=0.0107739


Tree=73
num_leaves=8
num_cat=4
split_feature=9 10 10 0 6 2 10
split_gain=1.85181 3.03952 2.86528 2.14116 2.09943 1.91302 2.72731
threshold=0 1 2 13.482686024470452 0.7904182772928624 -53.694535082032424 3
decision_type=1 9 9 8 2 10 9
left_child=1 3 4 -1 -2 6 -4
right_child=2 -3 5 -5 -6 -7 -8
leaf_value=-0.00097549991513952883 0.001580339688691114 0.00055149524645537926 -0.0020912655015873621 5.1087851569162625e-05 -0.00074941909540647284 0.0001921094566836908 0.00010318782658517947
leaf_weight=288 47 1410 100 1302 1004 1680 169
leaf_count=288 47 1410 100 1302 1004 1680 169
internal_value=2.88359e-07 0.000189565 -0.000188989 -0.000134017 -0.000639153 5.6751e-05 -0.0007865
internal_weight=6000 3000 3000 1590 1051 1949 269
internal_count=6000 3000 3000 1590 1051 1949 269
cat_boundaries=0 1 2 3 4
cat_threshold=1 1012920 16449600 33836
is_linear=0
shrinkage=0.0107739


Tree=74
num_leaves=8
num_cat=2
split_feature=10 1 9 2 2 7 7
split_gain=1.82405 0.967061 0.885659 2.18536 1.82968 2.82517 1.62466
threshold=0 -23.272710521325774 1 -51.439615415695044 -67.173060832728595 0.003684817558706862 0.0053005732005209309
decision_type=9 8 1 10 10 2 2
left_child=2 -2 3 -1 5 -4 -5
right_child=1 -3 4 6 -6 -7 -8
leaf_value=0.0011409409749715785 0.0010864251269632247 0.00011837954383834045 0.0011739400808862305 0.00025646605017276623 -0.00033242736609906306 -0.0034188660396199146 -0.00060874595932177138
leaf_weight=161 124 3526 22 467 1100 53 547
leaf_count=161 124 3526 22 467 1100 53 547
internal_value=2.59461e-07 0.000150853 -0.000233291 -2.51259e-05 -0.000443441 -0.00207164 -0.000210271
internal_weight=6000 3650 2350 1175 1175 75 1014
internal_count=6000 3650 2350 1175 1175 75 1014
cat_boundaries=0 1 2
cat_threshold=10437640 1
is_linear=0
shrinkage=0.0107739


Tree=75
num_leaves=8
num_cat=3
split_feature=9 10 10 0 0 7 7
split_gain=1.79596 2.96735 2.78501 2.20556 2.04856 2.0104 1.91395
threshold=0 1 2 77.282991440286722 6.8802452871098954 0.0021308579909971917 0.0058238076550106667
decision_type=1 9 9 8 8 2 2
left_child=1 -1 5 -4 -3 -2 -6
right_child=2 4 3 -5 6 -7 -8
leaf_value=0.00058090987306067161 0.0010012521473585121 -0.0021312665133906851 0.00015013293551864804 -0.0031393432134403649 0.00029030932045210944 -0.00067618823886932383 -0.00044137959941426897
leaf_weight=1265 89 56 1670 24 929 1217 750
leaf_count=1265 89 56 1670 24 929 1217 750
internal_value=2.56657e-07 0.000186657 -0.000186144 0.000102921 -0.000103546 -0.000557606 -3.65321e-05
internal_weight=6000 3000 3000 1694 1735 1306 1679
internal_count=6000 3000 3000 1694 1735 1306 1679
cat_boundaries=0 1 2 3
cat_threshold=1 15731526 16711748
is_linear=0
shrinkage=0.0107739


Tree=76
num_leaves=8
num_cat=2
split_feature=10 8 9 1 4 5 2
split_gain=1.76072 0.985938 0.966914 1.53209 1.32817 1.80422 1.56604
threshold=0 0.88921271376448974 1 1.8277097710390302 0.077647655061567081 53.654947643666482 -55.63879284820657
decision_type=9 2 1 8 10 2 10
left_child=1 2 -1 4 5 -4 -6
right_child=-2 -3 3 -5 6 -7 -8
leaf_value=5.587793714484091e-05 0.00017602269347805673 -0.0010623190118952065 -0.00063822659883509543 0.00012086597047649752 -0.0017296187003160591 -0.0036052533388433775 -0.00028193722484738795
leaf_weight=1357 3142 144 61 503 100 39 654
leaf_count=1357 3142 144 61 503 100 39 654
internal_value=2.64336e-07 -0.0001929 -0.000147481 -0.00035084 -0.000628672 -0.00179537 -0.000473937
internal_weight=6000 2858 2714 1357 854 100 754
internal_count=6000 2858 2714 1357 854 100 754
cat_boundaries=0 1 2
cat_threshold=12538888 1
is_linear=0
shrinkage=0.0107739


Tree=77
num_leaves=8
num_cat=3
split_feature=9 10 10 8 1 0 2
split_gain=1.73883 2.90264 2.71161 2.08394 2.54675 1.902 1.85471
threshold=0 1 2 0.6913700843495677 -0.7261006727266216 6.8802452871098954 -53.694535082032424
decision_type=1 9 9 2 10 8 10
left_child=1 5 3 -2 -5 -1 -4
right_child=2 -3 6 4 -6 -7 -8
leaf_value=-0.0021099002531119776 -0.00036670636115572838 0.00050720324599052592 -0.00077439502323358312 -0.0026374865782057941 -0.00041298416068218753 -8.5007374553884552e-05 0.00018918515055274638
leaf_weight=56 812 1544 269 118 121 1400 1680
leaf_count=56 812 1544 269 118 121 1400 1680
internal_value=2.64639e-07 0.000183676 -0.000183147 -0.000621075 -0.00151127 -0.000161777 5.59055e-05
internal_weight=6000 3000 3000 1051 239 1456 1949
internal_count=6000 3000 3000 1051 239 1456 1949
cat_boundaries=0 1 2 3
cat_threshold=1 947384 16449600
is_linear=0
shrinkage=0.0107739


Tree=78
num_leaves=8
num_cat=1
split_feature=10 1 7 2 8 7 1
split_gain=1.70476 0.941854 0.845319 1.21576 1.16568 0.950796 0.908389
threshold=0 -23.272710521325774 0.0036085369409145063 -15.067675150967764 0.2538314731393026 0.0042795214055042089 -0.27598938829660197
decision_type=9 8 2 10 2 2 10
left_child=2 -2 3 -1 5 -4 -5
right_child=1 -3 4 6 -6 -7 -8
leaf_value=0.00084565774354541782 0.0010691471159370405 0.00011380132894521969 -0.001128854990706984 -0.00077797164903635778 -0.00050525975649826516 0.00030132109661900702 0.00029630892362086133
leaf_weight=188 124 3526 62 176 1318 416 190
leaf_count=188 124 3526 62 176 1318 416 190
internal_value=2.70879e-07 0.000145857 -0.000225514 0.000141443 -0.000339962 0.000115817 -0.000220285
internal_weight=6000 3650 2350 554 1796 478 366
internal_count=6000 3650 2350 554 1796 478 366
cat_boundaries=0 1
cat_threshold=10437640
is_linear=0
shrinkage=0.0107739


Tree=79
num_leaves=8
num_cat=3
split_feature=9 10 10 8 1 0 0
split_gain=1.70173 2.83666 2.63877 2.03489 2.48793 2.00636 1.90959
threshold=0 1 2 0.6913700843495677 -0.7261006727266216 13.482686024470452 40.486165460356112
decision_type=1 9 9 2 10 8 8
left_child=1 6 3 -2 -5 -3 -1
right_child=2 5 -4 4 -6 -7 -8
leaf_value=0.00041639951298911773 -0.00036182014845434447 -0.00091207510270411522 5.4648100779209281e-05 -0.002605966922969773 -0.00040730502382004983 6.3219724635639422e-05 0.0017001809654643271
leaf_weight=1112 812 295 1949 118 121 1440 153
leaf_count=1112 812 295 1949 118 121 1440 153
internal_value=2.67976e-07 0.000181713 -0.000181177 -0.000613182 -0.00149284 -0.00010202 0.000567187
internal_weight=6000 3000 3000 1051 239 1735 1265
internal_count=6000 3000 3000 1051 239 1735 1265
cat_boundaries=0 1 2 3
cat_threshold=1 15731526 16449600
is_linear=0
shrinkage=0.0107739


Tree=80
num_leaves=8
num_cat=3
split_feature=9 10 10 0 0 7 0
split_gain=1.66524 2.77587 2.58873 2.15729 1.96336 1.96014 1.86866
threshold=0 1 2 77.282991440286722 13.482686024470452 0.0021308579909971917 40.486165460356112
decision_type=1 9 9 8 8 2 8
left_child=1 6 5 -4 -3 -2 -1
right_child=2 4 3 -5 -6 -7 -8
leaf_value=0.00041191326483139962 0.0010019928945025521 -0.00090224848205006536 0.00014614600493469593 -0.003107136222172428 6.2538619049309959e-05 -0.00065434543636465131 0.0016818633070856865
leaf_weight=1112 89 295 1670 24 1440 1217 153
leaf_count=1112 89 295 1670 24 1440 1217 153
internal_value=2.66079e-07 0.000179755 -0.000179223 9.94675e-05 -0.000100921 -0.000537356 0.000561077
internal_weight=6000 3000 3000 1694 1735 1306 1265
internal_count=6000 3000 3000 1694 1735 1306 1265
cat_boundaries=0 1 2 3
cat_threshold=1 15731526 16711748
is_linear=0
shrinkage=0.0107739


Tree=81
num_leaves=8
num_cat=3
split_feature=9 10 10 6 5 0 2
split_gain=1.62955 2.72176 2.54343 2.12775 1.90841 1.83094 1.69856
threshold=0 1 2 0.7904182772928624 63.256812687354326 6.8802452871098954 -65.600728738270377
decision_type=1 9 9 2 2 8 10
left_child=1 5 3 -2 -5 -1 -4
right_child=2 -3 6 4 -6 -7 -8
leaf_value=-0.0020680681903426845 0.0015793777183350963 0.00049110289199603844 -0.0011552711868138613 -0.0005732382070568221 -0.0020417474219539163 -8.1362249916610272e-05 0.0001120409301708701
leaf_weight=56 47 1544 131 751 119 1400 1952
leaf_count=56 47 1544 131 751 119 1400 1952
internal_value=2.63202e-07 0.000177818 -0.000177292 -0.000646428 -0.000774103 -0.000156698 3.21851e-05
internal_weight=6000 3000 3000 917 870 1456 2083
internal_count=6000 3000 3000 917 870 1456 2083
cat_boundaries=0 1 2 3
cat_threshold=1 947384 16384064
is_linear=0
shrinkage=0.0107739


Tree=82
num_leaves=8
num_cat=2
split_feature=10 8 1 9 2 6 2
split_gain=1.60772 0.949339 0.88985 0.820531 1.659 1.46823 1.45124
threshold=0 0.88921271376448974 20.495569492116672 1 84.285487911106841 1.2850838542041323 75.554649502870959
decision_type=9 2 8 1 8 2 8
left_child=1 2 -1 6 5 -5 -2
right_child=3 -3 -4 4 -6 -7 -8
leaf_value=-0.00019504780660002172 0.00023568737306365532 -0.0010374237122689478 0.00054823195148939871 0.00011428554377542004 -0.0029431656964170193 -0.001375734345330957 0.0013433814636264762
leaf_weight=2512 1419 144 202 1468 22 81 152
leaf_count=2512 1419 144 202 1468 22 81 152
internal_value=2.69194e-07 -0.000184312 -0.000139726 0.000168217 -5.35516e-06 3.63697e-05 0.000342861
internal_weight=6000 2858 2714 3142 1571 1549 1571
internal_count=6000 2858 2714 3142 1571 1549 1571
cat_boundaries=0 1 2
cat_threshold=12538888 1
is_linear=0
shrinkage=0.0107739


Tree=83
num_leaves=8
num_cat=1
split_feature=10 1 7 2 8 7 1
split_gain=1.57792 0.920974 0.810633 1.18994 1.13447 0.931384 0.883646
threshold=0 -23.272710521325774 0.0036085369409145063 -15.067675150967764 0.2538314731393026 0.0042795214055042089 -0.27598938829660197
decision_type=9 8 2 10 2 2 10
left_child=2 -2 3 -1 5 -4 -5
right_child=1 -3 4 6 -6 -7 -8
leaf_value=0.00083910691759571106 0.0010533198531448901 0.00010862264237941431 -0.0011112788336401411 -0.00076549630515301338 -0.0004920858206938117 0.00030422218129429261 0.00029405227097701253
leaf_weight=188 124 3526 62 176 1318 416 190
leaf_count=188 124 3526 62 176 1318 416 190
internal_value=2.66302e-07 0.000140332 -0.000216956 0.000142409 -0.000329016 0.000120622 -0.000215457
internal_weight=6000 3650 2350 554 1796 478 366
internal_count=6000 3650 2350 554 1796 478 366
cat_boundaries=0 1
cat_threshold=10437640
is_linear=0
shrinkage=0.0107739


Tree=84
num_leaves=8
num_cat=3
split_feature=9 10 10 6 0 5 0
split_gain=1.577 2.64277 2.47236 2.08124 1.90649 1.86499 1.82532
threshold=0 1 2 0.7904182772928624 13.482686024470452 63.256812687354326 40.486165460356112
decision_type=1 9 9 2 8 2 8
left_child=1 6 3 -2 -3 -5 -1
right_child=2 4 -4 5 -6 -7 -8
leaf_value=0.00039951764522596852 0.0015644328777279415 -0.00088856197327199984 3.2120803670307838e-05 -0.00056462059505116475 6.215027120072684e-05 -0.0020163256293552938 0.0016546531014184015
leaf_weight=1112 47 295 2083 751 1440 119 153
leaf_count=1112 47 295 2083 751 1440 119 153
internal_value=2.63421e-07 0.000174932 -0.000174405 -0.000636941 -9.8928e-05 -0.000763187 0.000547
internal_weight=6000 3000 3000 917 1735 870 1265
internal_count=6000 3000 3000 917 1735 870 1265
cat_boundaries=0 1 2 3
cat_threshold=1 15731526 16384064
is_linear=0
shrinkage=0.0107739


Tree=85
num_leaves=8
num_cat=3
split_feature=9 10 10 7 0 0 2
split_gain=1.54319 2.58805 2.43293 2.10189 1.78312 1.78069 1.54953
threshold=0 1 2 0.0021308579909971917 77.282991440286722 6.8802452871098954 -54.613120915834322
decision_type=1 9 9 2 8 8 10
left_child=1 5 3 -2 -4 -1 -7
right_child=2 -3 4 -5 -6 6 -8
leaf_value=-0.0020380951806099105 0.0010747294305683012 0.00047854089088185538 0.00016749074920462682 -0.00059972411426884378 -0.0029934027776065486 0.00081217609005769303 -0.0002230302551010652
leaf_weight=56 93 1544 1533 1353 21 195 1205
leaf_count=56 93 1544 1533 1353 21 195 1205
internal_value=2.61178e-07 0.000173047 -0.000172525 -0.000488652 0.000123978 -0.000153145 -7.88408e-05
internal_weight=6000 3000 3000 1446 1554 1456 1400
internal_count=6000 3000 3000 1446 1554 1456 1400
cat_boundaries=0 1 2 3
cat_threshold=1 947384 16711756
is_linear=0
shrinkage=0.0107739


Tree=86
num_leaves=8
num_cat=3
split_feature=9 10 10 1 4 8 8
split_gain=1.51027 2.54414 2.38842 2.06274 5.91886 2.49233 2.46118
threshold=0 1 2 -0.7261006727266216 0.077647655061567081 0.68267035288614208 0.58425855664350135
decision_type=1 9 9 10 10 2 2
left_child=1 -1 3 4 -2 6 -6
right_child=2 -3 -4 -5 5 -7 -8
leaf_value=0.00056810211067726696 -0.0050365555968146401 -7.6092916345420905e-05 3.2316529628755092e-05 -0.00010006071159781945 -0.00065544619049090827 -0.0022288772265352547 0.002133903588819186
leaf_weight=1144 41 1856 2083 440 292 102 42
leaf_count=1144 41 1856 2083 440 292 102 42
internal_value=2.66941e-07 0.0001712 -0.000170666 -0.000625283 -0.00112287 -0.000754844 -0.00030469
internal_weight=6000 3000 3000 917 477 436 334
internal_count=6000 3000 3000 917 477 436 334
cat_boundaries=0 1 2 3
cat_threshold=1 15731524 16384064
is_linear=0
shrinkage=0.0107739


Tree=87
num_leaves=8
num_cat=2
split_feature=10 8 1 4 11 1 0
split_gain=1.48443 0.922282 0.862832 0.81655 1.51083 1.12134 0.795095
threshold=0 0.88921271376448974 20.495569492116672 0.3202697032323859 1 30.617249544951626 74.725057469205055
decision_type=9 2 8 10 1 10 8
left_child=1 2 -1 4 -4 -5 -2
right_child=6 -3 3 5 -6 -7 -8
leaf_value=-0.00018760282263025554 0.00018113153892703116 -0.001017940190139662 0.0011840676697283208 0.0020170926039346248 -0.0012750713348725633 -0.0008950068380095907 -0.0013868264960629848
leaf_weight=2512 3104 144 58 66 58 20 38
leaf_count=2512 3104 144 58 66 58 20 38
internal_value=2.73496e-07 -0.000177089 -0.000133128 0.000544306 -4.55018e-05 0.00133986 0.000161654
internal_weight=6000 2858 2714 202 116 86 3142
internal_count=6000 2858 2714 202 116 86 3142
cat_boundaries=0 1 2
cat_threshold=12538888 1
is_linear=0
shrinkage=0.0107739


Tree=88
num_leaves=8
num_cat=3
split_feature=9 10 10 7 7 0 0
split_gain=1.47805 2.48452 2.33369 1.95278 2.06213 1.78298 1.7453
threshold=0 1 2 0.0021308579909971917 0.019126106814974547 77.282991440286722 6.8802452871098954
decision_type=1 9 9 2 2 8 8
left_child=1 6 3 -2 -5 -4 -1
right_child=2 -3 5 4 -6 -7 -8
leaf_value=-0.002016346303463157 0.00098919445120384999 0.00046869180423222327 0.00011349552796034743 -0.00078517870847237287 0.0012537803934914882 -0.0027836757717751189 -7.6657519033866025e-05
leaf_weight=56 89 1544 1799 1026 61 25 1400
leaf_count=56 89 1544 1799 1026 61 25 1400
internal_value=2.70543e-07 0.00016937 -0.000168829 -0.000540535 -0.000670757 7.33842e-05 -0.000150229
internal_weight=6000 3000 3000 1176 1087 1824 1456
internal_count=6000 3000 3000 1176 1087 1824 1456
cat_boundaries=0 1 2 3
cat_threshold=1 947384 16449604
is_linear=0
shrinkage=0.0107739


Tree=89
num_leaves=8
num_cat=3
split_feature=9 10 10 7 0 1 1
split_gain=1.44652 2.44255 2.28884 2.01436 1.70064 1.69558 1.95462
threshold=0 1 2 0.0021308579909971917 77.282991440286722 -22.451682623710571 -19.874161864720531
decision_type=1 9 9 2 8 10 10
left_child=1 -1 3 -2 -4 -3 -7
right_child=2 5 4 -5 -6 6 -8
leaf_value=-0.00035510214940743135 0.0010568822318032481 0.0016984601683322081 0.00016306644498219672 -0.00058233621782182398 -0.0029238555675833648 -0.0018438355763395523 0.00033316669583383725
leaf_weight=766 93 103 1533 1353 21 49 2082
leaf_count=766 93 103 1533 1353 21 49 2082
internal_value=2.76047e-07 0.000167562 -0.00016701 -0.000473634 0.000120575 0.000346812 0.000283109
internal_weight=6000 3000 3000 1446 1554 2234 2131
internal_count=6000 3000 3000 1446 1554 2234 2131
cat_boundaries=0 1 2 3
cat_threshold=1 283688 16711756
is_linear=0
shrinkage=0.0107739


Tree=90
num_leaves=8
num_cat=2
split_feature=10 1 1 7 2 0 10
split_gain=1.41754 1.25166 1.12034 0.863001 1.3219 1.02326 1.2919
threshold=0 15.316614685881053 -23.272710521325774 0.0036085369409145063 -19.501206137011597 11.570264990397103 1
decision_type=9 8 8 2 10 10 9
left_child=1 3 -2 4 -1 6 -5
right_child=2 -3 -4 5 -6 -7 -8
leaf_value=0.00099718482410447165 0.0010343474310421615 0.00051500646481660169 8.4877338371450007e-05 -0.00050375517156666944 -0.00029147200652451024 -0.00057918806791584559 0.0010656708044297603
leaf_weight=132 150 234 3768 128 308 1180 100
leaf_count=132 150 234 3768 128 308 1180 100
internal_value=2.66685e-07 -0.000226276 0.000120919 -0.000321364 9.5125e-05 -0.000451517 0.000209235
internal_weight=6000 2082 3918 1848 440 1408 228
internal_count=6000 2082 3918 1848 440 1408 228
cat_boundaries=0 1 2
cat_threshold=10372104 9175048
is_linear=0
shrinkage=0.0107739


Tree=91
num_leaves=8
num_cat=3
split_feature=9 10 10 6 7 8 6
split_gain=1.41541 2.40666 2.24886 2.00979 1.90537 1.86187 2.12584
threshold=0 1 2 0.7904182772928624 0.0055344743622769968 0.26322765668612635 0.93303510285336688
decision_type=1 9 9 2 2 2 2
left_child=1 -1 3 -2 -3 -6 -7
right_child=2 4 -4 -5 5 6 -8
leaf_value=0.00055178228824589255 0.0015571258913490271 0.00024700091939998468 3.1756012669213801e-05 -0.00073018570250969923 0.00036139813112668641 -0.0018981898536221601 -0.00040923792518367626
leaf_weight=1144 47 992 2083 870 240 145 479
leaf_count=1144 47 992 2083 870 240 145 479
internal_value=2.73903e-07 0.000165752 -0.000165204 -0.000606339 -7.47599e-05 -0.000445054 -0.000755228
internal_weight=6000 3000 3000 917 1856 864 624
internal_count=6000 3000 3000 917 1856 864 624
cat_boundaries=0 1 2 3
cat_threshold=1 15731524 16384064
is_linear=0
shrinkage=0.0107739


Tree=92
num_leaves=8
num_cat=3
split_feature=9 10 10 1 4 8 8
split_gain=1.38523 2.35547 2.20068 2.00616 5.78379 2.42995 2.40514
threshold=0 1 2 -0.7261006727266216 0.077647655061567081 0.68267035288614208 0.58425855664350135
decision_type=1 9 9 10 10 2 2
left_child=1 -1 3 4 -2 6 -6
right_child=2 -3 -4 -5 5 -7 -8
leaf_value=0.00054588892987427872 -0.0049591108172014047 -7.395447803554083e-05 3.1415506867863399e-05 -8.1654721426765604e-05 -0.0006287903239951746 -0.0021820049914060167 0.0021286201378683755
leaf_weight=1144 41 1856 2083 440 292 102 42
leaf_count=1144 41 1856 2083 440 292 102 42
internal_value=2.81428e-07 0.000163986 -0.000163423 -0.000599807 -0.00109034 -0.000726535 -0.00028205
internal_weight=6000 3000 3000 917 477 436 334
internal_count=6000 3000 3000 917 477 436 334
cat_boundaries=0 1 2 3
cat_threshold=1 15731524 16384064
is_linear=0
shrinkage=0.0107739


Tree=93
num_leaves=8
num_cat=3
split_feature=9 10 10 7 7 7 5
split_gain=1.35567 2.33215 2.16047 1.8601 2.02511 1.74168 1.66703
threshold=0 1 2 0.0021308579909971917 0.019126106814974547 0.017219687578116216 39.250441195784084
decision_type=1 9 9 2 2 2 2
left_child=1 -1 3 -2 -5 -4 -7
right_child=2 -3 5 4 -6 6 -8
leaf_value=-0.00034846154085766556 0.0009737492570496628 0.00033739457293121281 0.00015405507614566353 -0.00075972052447571315 0.0012608536638604487 0.00056507406865482503 -0.0022766701761231783
leaf_weight=766 89 2234 1719 1026 61 37 68
leaf_count=766 89 2234 1719 1026 61 37 68
internal_value=2.87435e-07 0.000162236 -0.000161661 -0.000519306 -0.00064633 7.13821e-05 -0.00127529
internal_weight=6000 3000 3000 1176 1087 1824 105
internal_count=6000 3000 3000 1176 1087 1824 105
cat_boundaries=0 1 2 3
cat_threshold=1 283688 16449604
is_linear=0
shrinkage=0.0107739


Tree=94
num_leaves=8
num_cat=2
split_feature=10 1 1 7 2 0 10
split_gain=1.33623 1.21728 1.09664 0.824713 1.29275 1.00335 1.25775
threshold=0 15.316614685881053 -23.272710521325774 0.0036085369409145063 -19.501206137011597 11.570264990397103 1
decision_type=9 8 8 2 10 10 9
left_child=1 3 -2 4 -1 6 -5
right_child=2 -3 -4 5 -6 -7 -8
leaf_value=0.0009857830095215648 0.0010211317066194426 0.000511382118668914 8.1760848202921843e-05 -0.00049057404352615894 -0.00028858694197311514 -0.00056707769394034218 0.0010582649403004173
leaf_weight=132 150 234 3768 128 308 1180 100
leaf_count=132 150 234 3768 128 308 1180 100
internal_value=2.84146e-07 -0.000219665 0.000117425 -0.000313422 9.3724e-05 -0.000440655 0.00021364
internal_weight=6000 2082 3918 1848 440 1408 228
internal_count=6000 2082 3918 1848 440 1408 228
cat_boundaries=0 1 2
cat_threshold=10372104 9175048
is_linear=0
shrinkage=0.0107739


Tree=95
num_leaves=8
num_cat=3
split_feature=9 10 10 7 7 0 7
split_gain=1.32662 2.27261 2.10843 1.8169 1.98545 1.71619 1.64172
threshold=0 1 2 0.0021308579909971917 0.019126106814974547 77.282991440286722 0.017219687578116216
decision_type=1 9 9 2 2 8 2
left_child=1 -1 3 -2 -5 6 -4
right_child=2 -3 5 4 -6 -7 -8
leaf_value=-0.0003436455986073996 0.00096239050702997002 0.00033340139861812927 0.00019027299769440795 -0.00075103858675088235 0.0012496520662276188 -0.0027327354182214965 -0.0012042914440051414
leaf_weight=766 89 2234 1695 1026 61 25 104
leaf_count=766 89 2234 1695 1026 61 25 104
internal_value=2.91288e-07 0.000160495 -0.000159912 -0.000513224 -0.000638764 7.03097e-05 0.000109653
internal_weight=6000 3000 3000 1176 1087 1824 1799
internal_count=6000 3000 3000 1176 1087 1824 1799
cat_boundaries=0 1 2 3
cat_threshold=1 283688 16449604
is_linear=0
shrinkage=0.0107739


Tree=96
num_leaves=8
num_cat=2
split_feature=10 6 9 5 7 8 1
split_gain=1.306 1.73731 1.49025 1.47288 1.1858 1.54868 0.992045
threshold=0 1.2926525966329228 1 38.346624486905561 0.0017994081814821262 0.59651929505293633 -13.158989960616909
decision_type=9 2 1 2 2 2 10
left_child=1 3 -3 -1 5 -2 -6
right_child=4 2 -4 -5 6 -7 -8
leaf_value=0.0015509297956150282 -1.6160385252821768e-05 0.00019754046190433147 -0.0034502742903546064 0.00026631809427163844 0.00025764887546571264 0.0017303189408575999 -0.00019220498208231694
leaf_weight=114 158 26 26 1136 670 94 3776
leaf_count=114 158 26 26 1136 670 94 3776
internal_value=2.87941e-07 0.000300894 -0.00162637 0.000383475 -8.34844e-05 0.000635304 -0.000124413
internal_weight=6000 1302 52 1250 4698 252 4446
internal_count=6000 1302 52 1250 4698 252 4446
cat_boundaries=0 1 2
cat_threshold=4197136 1
is_linear=0
shrinkage=0.0107739


Tree=97
num_leaves=8
num_cat=3
split_feature=9 10 10 7 2 7 8
split_gain=1.29539 2.23765 2.06816 2.61848 1.89111 1.85728 1.82157
threshold=0 1 2 0.0024198569499408302 -67.73269868872498 0.0055344743622769968 0.26322765668612635
decision_type=1 9 9 2 10 2 2
left_child=1 -1 3 -2 -4 -3 -7
right_child=2 5 4 -5 -6 6 -8
leaf_value=0.00053082354357883953 0.0010925677472708886 0.00024436759317699602 -0.0012286486493014773 -0.00086035242576667636 9.1849630097200525e-05 0.00035877784708827383 -0.00074569669126753129
leaf_weight=1144 90 992 134 696 2080 240 624
leaf_count=1144 90 992 134 696 2080 240 624
internal_value=2.84848e-07 0.000158592 -0.000158022 -0.000628736 1.18742e-05 -7.33094e-05 -0.000438898
internal_weight=6000 3000 3000 786 2214 1856 864
internal_count=6000 3000 3000 786 2214 1856 864
cat_boundaries=0 1 2 3
cat_threshold=1 15731524 16384000
is_linear=0
shrinkage=0.0107739


Tree=98
num_leaves=8
num_cat=3
split_feature=9 10 10 7 1 1 0
split_gain=1.26778 2.19402 2.02767 1.84729 1.63483 1.90828 1.6318
threshold=0 1 2 0.0021308579909971917 -22.451682623710571 -19.874161864720531 77.282991440286722
decision_type=1 9 9 2 10 10 8
left_child=1 -1 3 -2 -3 -6 -4
right_child=2 4 6 -5 5 -7 -8
leaf_value=-0.00033843488385495166 0.0010208109801635944 0.0016539492985617123 0.00015595080402350359 -0.00054895903296093348 -0.0018373995936117903 0.00031364429717872593 -0.0028678473370363868
leaf_weight=766 93 103 1533 1353 49 2082 21
leaf_count=766 93 103 1533 1353 49 2082 21
internal_value=2.91299e-07 0.000156902 -0.000156319 -0.000444922 0.000326797 0.000264183 0.000114353
internal_weight=6000 3000 3000 1446 2234 2131 1554
internal_count=6000 3000 3000 1446 2234 2131 1554
cat_boundaries=0 1 2 3
cat_threshold=1 283688 16711756
is_linear=0
shrinkage=0.0107739


Tree=99
num_leaves=8
num_cat=2
split_feature=10 6 9 5 7 8 1
split_gain=1.24781 1.6976 1.45136 1.44565 1.13791 1.5156 0.972447
threshold=0 1.2926525966329228 1 38.346624486905561 0.0017994081814821262 0.59651929505293633 -13.158989960616909
decision_type=9 2 1 2 2 2 10
left_child=1 3 -3 -1 5 -2 -6
right_child=4 2 -4 -5 6 -7 -8
leaf_value=0.0015323340430796527 -2.1945933417321579e-05 0.00018892959563931869 -0.003410964318111206 0.0002596522059421697 0.00025657333431042457 0.001705777436485067 -0.0001888149625634128
leaf_weight=114 158 26 26 1136 670 94 3776
leaf_count=114 158 26 26 1136 670 94 3776
internal_value=2.8209e-07 0.000294114 -0.00161102 0.000375721 -8.16027e-05 0.000622522 -0.000121696
internal_weight=6000 1302 52 1250 4698 252 4446
internal_count=6000 1302 52 1250 4698 252 4446
cat_boundaries=0 1 2
cat_threshold=4197136 1
is_linear=0
shrinkage=0.0107739


end of trees

feature_importances:
hour_of_day=190
bb_width=121
side=111
market_energy=80
mpo=62
energy_slope=41
atr_ratio=37
candle_body_ratio=30
compression_index=15
rsi_14=12
is_ny_open=1

parameters:
[boosting: gbdt]
[objective: regression]
[metric: l2]
[tree_learner: serial]
[device_type: cpu]
[data_sample_strategy: bagging]
[data: ]
[valid: ]
[num_iterations: 100]
[learning_rate: 0.0107739]
[num_leaves: 8]
[num_threads: 0]
[seed: 0]
[deterministic: 0]
[force_col_wise: 0]
[force_row_wise: 0]
[histogram_pool_size: -1]
[max_depth: -1]
[min_data_in_leaf: 20]
[min_sum_hessian_in_leaf: 0.001]
[bagging_fraction: 1]
[pos_bagging_fraction: 1]
[neg_bagging_fraction: 1]
[bagging_freq: 0]
[bagging_seed: 3]
[bagging_by_query: 0]
[feature_fraction: 0.995944]
[feature_fraction_bynode: 1]
[feature_fraction_seed: 2]
[extra_trees: 0]
[extra_seed: 6]
[early_stopping_round: 0]
[early_stopping_min_delta: 0]
[first_metric_only: 0]
[max_delta_step: 0]
[lambda_l1: 0]
[lambda_l2: 0]
[linear_lambda: 0]
[min_gain_to_split: 0]
[drop_rate: 0.1]
[max_drop: 50]
[skip_drop: 0.5]
[xgboost_dart_mode: 0]
[uniform_drop: 0]
[drop_seed: 4]
[top_rate: 0.2]
[other_rate: 0.1]
[min_data_per_group: 100]
[max_cat_threshold: 32]
[cat_l2: 10]
[cat_smooth: 10]
[max_cat_to_onehot: 4]
[top_k: 20]
[monotone_constraints: ]
[monotone_constraints_method: basic]
[monotone_penalty: 0]
[feature_contri: ]
[forcedsplits_filename: ]
[refit_decay_rate: 0.9]
[cegb_tradeoff: 1]
[cegb_penalty_split: 0]
[cegb_penalty_feature_lazy: ]
[cegb_penalty_feature_coupled: ]
[path_smooth: 0]
[interaction_constraints: ]
[verbosity: 1]
[saved_feature_importance_type: 0]
[use_quantized_grad: 0]
[num_grad_quant_bins: 4]
[quant_train_renew_leaf: 0]
[stochastic_rounding: 1]
[linear_tree: 0]
[max_bin: 255]
[max_bin_by_feature: ]
[min_data_in_bin: 3]
[bin_construct_sample_cnt: 200000]
[data_random_seed: 1]
[is_enable_sparse: 1]
[enable_bundle: 1]
[use_missing: 1]
[zero_as_missing: 0]
[feature_pre_filter: 1]
[pre_partition: 0]
[two_round: 0]
[header: 0]
[label_column: ]
[weight_column: ]
[group_column: ]
[ignore_column: ]
[categorical_feature: 9,10,11]
[forcedbins_filename: ]
[precise_float_parser: 0]
[parser_config_file: ]
[objective_seed: 5]
[num_class: 1]
[is_unbalance: 0]
[scale_pos_weight: 1]
[sigmoid: 1]
[boost_from_average: 1]
[reg_sqrt: 0]
[alpha: 0.9]
[fair_c: 1]
[poisson_max_delta_step: 0.7]
[tweedie_variance_power: 1.5]
[lambdarank_truncation_level: 30]
[lambdarank_norm: 1]
[label_gain: ]
[lambdarank_position_bias_regularization: 0]
[eval_at: ]
[multi_error_top_k: 1]
[auc_mu_weights: ]
[num_machines: 1]
[local_listen_port: 12400]
[time_out: 120]
[machine_list_filename: ]
[machines: ]
[gpu_platform_id: -1]
[gpu_device_id: -1]
[gpu_use_dp: 0]
[num_gpu: 1]

end of parameters

pandas_categorical:[]
